tree
version=v4
num_class=1
num_tree_per_iteration=1
label_index=0
max_feature_idx=8
objective=regression_l1
feature_names=college_id program_id quota category nirf_rank round years_since_first_seen trend_term lag_closing_rank
feature_infos=-1:106:61:105:110:47:91:95:79:88:112:93:97:11:17:128:81:120:78:103:50:109:49:66:98:89:96:3:60:57:62:48:108:55:94:118:54:104:111:99:72:90:100:67:119:59:107:65:92:63:101:102:0:24:52:121:56:58:68:80:13:116:14:21:64:25:51:32:73:23:53:46:38:27:36:115:34:1:22:71:15:33:35:37:30:43:31:75:123:26:29:74:8:39:124:122:117:5:28:126:76:113:114:87:16:83:44:127:9:7:69:20:40:82:42:45:85:18:77 -1:111:152:238:99:141:83:250:137:197:12:59:262:174:279:2:162:91:110:280:224:274:68:199:276:219:233:105:82:261:71:249:185:220:163:80:257:189:273:288:131:134:173:89:151:222:5:251:183:211:194:16:217:1:18:247:90:200:232:284:78:159:272:155:160:182:140:143:169:166:171:229:121:132:161:198:237:243:225:241:77:168:226:69:100:172:190:3:4:8:9:61:62:66:70:73:79:86:98:133:144:147:175:176:186:187:192:213:221:235:254:255:263:266:267:268:269:270:271:76:95:191:214:236:264:139:242:84:97:106:223:234:58:94:228:63:67:96:126:177:13:104:118:128:184:57:170:259:282:107:115:124:165:201:202:203:204:85:117:119:120:138:286:116:122:156:158:256:6:72:87:102:103:135:136:179:188:193:244:7:10:17:148:180:277:281:123:125:127:101:153:212:215:216:227:30:52:81:92:142:150:157:210:275:31:53 -1:0:6:3:4:2:1 -1:4:6:8:2:0:5:3:7:1 [1:200] [1:7] [1:5] [-428125:676524] [1:1144790]
tree_sizes=2885 3100 2955 3092 3136 2958 3187 3135 2998 3190 3134 3213 3132 3224 3139 3175 3143 3184 3134 3197 3180 3086 3196 3179 3076 3148 3035 3061 3193 3199 3246 3182 3131 3117 3227 3162 3169 3167 3237 3149 3292 3217 3191 3244 3280 3193 3241 3182 3215 3292 3202 3330 3249 3324 3159 3305 3194 3266 3206 3259 3197 3095 3343 3208 3317 3194 3215 3234 3133 3279 3159 3206 3136 3352 3210 3293 3318 3267 3332 3173 3309 3134 3231 3350 3228 3195 3206 3261 3142 3328 3235 3156 3336 3286 3372 3320 3280 3073 3264 3172 3086 3095 3266 3041 3395 3284 3168 3201 3313 3198 3269 3241 3226 3250 3178 3262 3052 3228 3176 3144 3173 3222 3224 3397 3300 3152 3140 3244 3139 3177 3225 3155 3319 3228 3326 3176 3365 3196 3365 2995 3244 3217 3236 3279 3214 3160 3114 3256 3267 3055 3278 3234 3261 3327 3119 3263 3220 3243 3197 3067 3306 3297 3155 3141 3164 3196 3310 3301 3246 3240 3187 3217 3129 3219 3316 3390 3320 3256 3196 3126 2992 3245 3203 2985 3246 3259 3200 3129 3135 3202 2901 3237 3464 3094 3248 3206 3155 3255 3043 3128 3297 3249 3270 3197 3253 3245 3233 3190 3267 3186 3200 3248 3231 3258 3193 3160 3127 3181 3197 3267 3259 3376 3130 3247 3249 3282 3153 3230 3264 3293 3212 3067 3195 3138 3367 3142 3145 3346 3350 3391 3216 3020 3204 3167 3046 3236 3332 3251 3226 3176 3156 3238 3125 3117 3120 3234 3305 2973 3011 3263 3299 3250 3031 3192 3102 3187 3251 3242 3418 3036 3302 3147 3390 3203 3214 3054 3102 3459 3205 3243 3236 2943 3253 3135 3160 3274 3115 3207 3335 3212 3176 3254 3007 3308 2989 2976 3351 3304 3211 3057

Tree=0
num_leaves=31
num_cat=20
split_feature=8 5 1 3 1 6 0 7 0 7 8 7 3 1 0 2 3 0 0 7 8 7 3 3 0 0 0 3 3 0
split_gain=1192.97 672.68 755.449 401.014 373.923 320.849 196.263 185.397 165.29 152.351 151.222 149.151 182.155 121.719 96.0944 84.7902 81.2845 80.7115 74.8225 71.5199 70.5591 68.7406 67.5107 62.9525 61.6828 61.0317 52.0238 51.0388 48.7094 45.3098
threshold=1233.5000000000002 1.0000000180025095e-35 0 1 2 3.5000000000000004 3 -35.833333333333321 4 -52.833333333333321 70905.000000000015 672.16666666666686 5 6 7 8 9 10 11 -698.83333333333314 455.50000000000006 -52.833333333333321 12 13 14 15 16 17 18 19
decision_type=2 10 9 9 9 2 9 10 9 10 2 10 9 9 9 9 9 9 9 8 2 10 9 9 9 9 9 9 9 9
left_child=4 6 8 10 7 11 15 14 19 16 13 12 17 -4 -1 -2 28 -5 -15 -3 -9 26 -21 -20 -17 -8 -10 -16 -6 -13
right_child=1 2 3 5 9 -7 25 20 21 -11 -12 29 -14 18 27 24 -18 -19 23 22 -22 -23 -24 -25 -26 -27 -28 -29 -30 -31
leaf_value=88.650000000000006 110.2 150.42500000000001 151.05000000000001 116.75 97.25 76.150000000000006 111.84999999999999 88.299999999999997 64.799999999999997 90.200000000000003 -198.25 95.125 88.099999999999994 143.09999999999999 92.900000000000006 77.5 91.825000000000003 99.174999999999997 119.55 96.900000000000006 87.775000000000006 69.599999999999994 70.875 94.575000000000003 100.40000000000001 138.52500000000001 85.700000000000003 88.525000000000006 108.875 75.900000000000006
leaf_weight=845 532 214 1431 1099 405 818 1285 1346 1026 1430 361 354 1190 773 824 483 572 918 1017 918 812 1059 556 970 395 1550 1140 532 254 661
leaf_count=845 532 214 1431 1099 405 818 1285 1346 1026 1430 361 354 1190 773 824 483 572 918 1017 918 812 1059 556 970 395 1550 1140 532 254 661
internal_value=93 93.0066 93.0014 93.0096 92.9824 92.9999 93.0241 92.9734 92.9855 92.9972 93.0203 93.0054 93.0107 93.0231 92.9836 93.0086 93.0101 93.0198 93.0167 92.9982 92.9629 92.9789 92.9943 93.0114 92.999 93.0316 92.9839 92.992 93.0219 92.9887
internal_weight=25770 18750 14505 9592 7020 5040 4245 4359 4913 2661 4552 4222 3207 4191 2201 1410 1231 2017 2760 1688 2158 3225 1474 1987 878 2835 2166 1356 659 1015
internal_count=25770 18750 14505 9592 7020 5040 4245 4359 4913 2661 4552 4222 3207 4191 2201 1410 1231 2017 2760 1688 2158 3225 1474 1987 878 2835 2166 1356 659 1015
cat_boundaries=0 9 10 19 23 28 29 38 42 43 44 49 54 55 56 60 64 68 69 70 75
cat_threshold=69632 0 52 33605120 159383624 2147622924 33557984 5 269484032 20 339968 0 0 49152 2164306008 2115 3221225952 293 1074790400 133120 1372864512 4160782364 20869 1100072 99712 1577091328 63538436 1 65 0 0 0 8 0 536870912 268435456 24576 64 2097152 4225138688 65543 469831682 64 325 133120 35225600 2852307080 17389059 1 2056 68222976 2315436048 29360640 1 21 16 2048 1073741824 3892346884 20740 291 2687139844 100813984 4303874 4137811971 10339 2164264960 1179672 353 256 2048 0 167821696 29368708 1
is_linear=0
shrinkage=1


Tree=1
num_leaves=31
num_cat=18
split_feature=8 5 1 3 0 6 7 0 0 3 8 7 8 2 7 2 1 6 3 0 7 3 0 0 1 8 1 0 8 3
split_gain=1108.39 604.372 790.021 469.035 247.853 220.162 189.732 175.881 174.445 151.041 82.197 77.7441 76.2913 76.4853 74.6686 74.3434 79.9329 76.4692 72.9913 67.1804 64.5268 61.7364 54.4689 53.4713 53.2351 48.3977 46.6418 46.1725 52.1794 43.3375
threshold=474.50000000000006 1.0000000180025095e-35 0 1 2 3.5000000000000004 -52.833333333333321 3 4 5 19373.500000000004 -35.833333333333321 1508.5000000000002 6 -618.49999999999989 7 8 1.5000000000000002 9 10 8600.5000000000018 11 12 13 14 83.500000000000014 15 16 2270.0000000000005 17
decision_type=2 10 9 9 9 2 10 9 9 9 2 10 2 9 8 9 9 2 9 9 10 9 9 9 9 2 9 9 2 9
left_child=6 4 8 7 12 9 18 20 14 10 24 19 -2 26 -3 16 -9 -17 22 -10 -4 -16 -1 -6 -5 -24 -14 -11 -29 -18
right_child=1 2 3 5 23 -7 -8 15 11 27 -12 -13 13 -15 21 17 29 -19 -20 -21 -22 -23 25 -25 -26 -27 -28 28 -30 -31
leaf_value=-4.0325000000000006 -1.7912500000000002 53.428750000000008 41.712500000000006 18.655000000000001 17.940625000000001 -10.307500000000001 -4.3150000000000004 18.797499999999999 -15.876249999999999 -6.2600000000000007 -341.85875000000004 -15.780000000000001 -2.9700000000000006 -6.1750000000000007 1.0700000000000003 152.52125000000001 11.5725 -78.578750000000014 -4.3825000000000003 -8.7625000000000011 -262.29875000000004 -13.444375000000001 -2.8912500000000003 45.998750000000001 3.3912500000000003 0.35687499999999983 12.393750000000001 1.4950000000000003 -14.505000000000003 -0.72875000000000023
leaf_weight=231 573 230 2667 855 1496 1088 1877 1185 634 449 107 1251 130 529 1003 259 597 573 307 2014 70 768 205 1334 847 882 872 1035 791 911
leaf_count=231 573 230 2667 855 1496 1088 1877 1185 634 449 107 1251 130 529 1003 259 597 573 307 2014 70 768 205 1334 847 882 872 1035 791 911
internal_value=-0.000236709 0.00387552 -0.000519211 0.00714785 0.019315 -0.0039946 -0.0263849 0.0163425 -0.0153638 0.00132223 0.0120671 -0.0215272 0.00619678 0.0120509 -0.00330681 0.00889675 0.0129301 -0.00415677 -0.0138769 -0.0167296 0.0258646 -0.00680407 -0.00850904 0.0289437 0.0148061 -0.00369189 0.0200593 -0.00724289 -0.00364924 0.00520422
internal_weight=25770 22268 17334 11434 4934 5172 3502 6262 5900 4084 1809 3899 2104 1531 2001 3525 2693 832 1625 2648 2737 1771 1318 2830 1702 1087 1002 2275 1826 1508
internal_count=25770 22268 17334 11434 4934 5172 3502 6262 5900 4084 1809 3899 2104 1531 2001 3525 2693 832 1625 2648 2737 1771 1318 2830 1702 1087 1002 2275 1826 1508
cat_boundaries=0 9 10 14 19 23 24 25 26 35 36 40 41 45 49 58 64 68 69
cat_threshold=69632 0 48 33605120 159383640 132687 33557856 5 1048576 21 2230272 4057776128 2013446175 20868 34824 35209216 2323825043 29983621 1 1100072 268440960 1543670016 1137296644 64 65 65 40 134217728 201334784 24 0 46137344 136315008 101343744 17236034 361 2787246082 2294554720 4106 1179648 21 2230272 21233664 65536 469762048 268435755 237049916 2248148128 4271107 0 134217728 134742016 8 512 0 134217728 16384 16777216 4 0 0 0 8704 16384 16801792 4136009728 12 20496 16
is_linear=0
shrinkage=0.05


Tree=2
num_leaves=31
num_cat=16
split_feature=8 5 1 3 0 6 7 0 0 3 2 3 7 8 2 8 0 3 7 0 7 0 7 0 8 3 3 8 6 7
split_gain=1043.94 558.192 695.912 419.501 244.805 197.968 183.358 162.046 152.133 133.668 89.6869 79.0313 99.5587 91.4053 82.7094 78.1133 67.1453 66.3557 65.3035 60.1814 59.6968 59.522 59.3604 58.8876 85.4153 55.7396 49.7491 49.4208 50.1011 49.5027
threshold=455.50000000000006 1.0000000180025095e-35 0 1 2 3.5000000000000004 -43.833333333333321 3 4 5 6 7 271.83333333333343 70905.000000000015 8 2386.5000000000005 9 10 -11.58333333333333 11 -511.49999999999994 12 8600.5000000000018 13 1602.5000000000002 14 15 19373.500000000004 2.5000000000000004 315.41666666666669
decision_type=2 10 9 9 9 2 10 9 9 9 9 9 10 2 9 2 9 9 10 9 8 9 10 9 2 9 9 2 2 8
left_child=6 4 7 8 10 9 17 20 22 16 -2 13 25 -10 -14 -6 -5 -1 21 -17 -3 -9 -4 24 -12 -13 -22 28 29 -18
right_child=1 2 3 5 15 -7 -8 18 11 -11 23 12 14 -15 -16 19 27 -19 -20 -21 26 -23 -24 -25 -26 -27 -28 -29 -30 -31
leaf_value=-1.9603437500000003 13.995312500000001 46.971062500000002 39.409375000000004 19.161000000000001 4.6252656249999999 -9.7421250000000015 -4.1492500000000003 -16.051187500000001 28.6038125 -3.536 -1.6777500000000005 26.533875000000002 -8.4329374999999995 -398.07175000000001 8.0726250000000004 30.035468750000003 21.358500000000003 -4.1633750000000012 -16.149750000000001 52.573812500000003 5.4765000000000006 -8.6943749999999991 -280.53006249999999 -4.4875625000000001 11.237812500000002 1.9097499999999989 -8.8190312500000001 -348.94081249999999 -3.5352500000000009 3.2257187500000004
leaf_weight=1318 554 246 2423 661 658 1103 1766 447 1341 2310 233 456 600 188 359 1058 223 316 1136 1227 644 2250 63 806 424 888 1132 78 324 538
leaf_count=1318 554 246 2423 661 658 1103 1766 447 1341 2310 233 456 600 188 359 1058 223 316 1136 1227 644 2250 63 806 424 888 1132 78 324 538
internal_value=-0.000333721 0.00358963 -0.000626077 0.00648941 0.0183871 -0.0039737 -0.0261471 -0.0146547 0.0151549 0.00104015 0.0048594 0.00884956 0.00296152 0.0176413 -0.00933264 0.0275483 0.0111232 -0.0140759 -0.0207 0.0320131 -0.00314961 -0.0165184 0.0247997 -0.00166327 0.00937031 0.011756 -0.00636261 0.00379369 0.00658986 0.0136005
internal_weight=25770 22370 17410 11555 4960 5237 3400 5855 6318 4134 2017 3832 2303 1529 959 2943 1824 1634 3833 2285 2022 2697 2486 1463 657 1344 1776 1163 1085 761
internal_count=25770 22370 17410 11555 4960 5237 3400 5855 6318 4134 2017 3832 2303 1529 959 2943 1824 1634 3833 2285 2022 2697 2486 1463 657 1344 1776 1163 1085 761
cat_boundaries=0 9 10 14 18 23 24 25 26 27 32 33 37 41 44 45 46
cat_threshold=69632 0 48 33605120 159383640 131652 33557856 35 1048576 21 133120 4059873280 4160798751 20740 1100072 1408 1577224196 1137296644 32777 1654784 2323825035 21611269 1 64 64 16 9 2048 34668544 1174569216 4839168 1 361 2415919401 67108880 100795552 5352609 102760450 2160328800 4104 1179648 131072 2703802368 268451867 1 17
is_linear=0
shrinkage=0.05


Tree=3
num_leaves=31
num_cat=17
split_feature=8 5 1 3 0 7 6 0 0 3 0 7 3 7 2 7 1 1 8 0 6 0 0 0 0 7 7 3 7 7
split_gain=991.536 503.437 641.207 377.643 213.45 181.176 169.072 140.976 140.79 120.752 77.0005 74.4152 73.3912 98.4422 74.7952 71.2649 70.7736 70.4832 65.9478 63.9831 58.9848 55.2187 54.4288 52.964 52.6302 50.6888 46.424 47.4431 45.7737 44.1974
threshold=455.50000000000006 1.0000000180025095e-35 0 1 2 -32.583333333333321 3.5000000000000004 3 4 5 6 5723.0000000000009 7 286.83333333333343 8 -11.58333333333333 9 10 19373.500000000004 11 3.5000000000000004 12 13 14 15 -67.833333333333329 8600.5000000000018 16 -14.166666666666666 1716.1666666666667
decision_type=2 10 9 9 9 10 2 9 9 9 9 10 9 10 9 10 9 9 2 9 2 9 9 9 9 8 10 9 8 10
left_child=5 4 8 7 17 16 9 26 25 18 -6 12 23 22 -15 19 -1 -2 24 -10 -21 -8 -14 -9 -5 -3 27 -4 -26 -29
right_child=1 2 3 6 10 -7 21 11 15 -11 -12 -13 13 14 -16 -17 -18 -19 -20 20 -22 -23 -24 -25 28 -27 -28 29 -30 -31
leaf_value=-3.2399203125000002 -3.2703093750000001 17.307675 110.13890624999999 19.83445703125 10.983716015624999 -3.9417875000000002 -1.0550187500000001 0.60118437499999977 -18.0956734375 -3.3604500000000002 41.995121875000002 -269.09441562500001 13.604637500000003 -7.0782281250000016 6.7614937499999996 -16.2642375 -0.23285781250000001 4.4071906250000001 -324.2213625 -5.303406250000001 -21.06278125 -14.585018750000001 1.4309500000000002 32.288684375000003 49.740575000000007 -4.8305796875000002 -196.23043437500002 21.915156250000003 0.79721406250000015 -3.6123437500000009
leaf_weight=1085 629 412 965 696 1628 1674 327 354 476 2309 1683 182 677 491 331 1285 641 1020 107 1981 408 772 637 1032 121 1349 60 1340 889 209
leaf_count=1085 629 412 965 696 1628 1674 327 354 476 2309 1683 182 677 491 331 1285 641 1020 107 1981 408 772 637 1032 121 1349 60 1340 889 209
internal_value=-0.000578192 0.00324542 -0.000758185 0.0061213 0.0172984 -0.0257353 -0.0038138 0.0143766 -0.0141277 0.000824842 0.024586 0.00807754 0.00971039 0.00382106 -0.00973236 -0.0191587 -0.0143685 0.00250151 0.0104498 -0.0148168 -0.0113172 -0.0212466 0.0123288 0.0186246 0.0128957 -0.00223038 0.0233746 0.0245028 0.00539216 0.0186337
internal_weight=25770 22370 17410 11499 4960 3400 5221 6278 5911 4122 3311 3704 3522 2136 822 4150 1726 1649 1813 2865 2389 1099 1314 1386 1706 1761 2574 2514 1010 1549
internal_count=25770 22370 17410 11499 4960 3400 5221 6278 5911 4122 3311 3704 3522 2136 822 4150 1726 1649 1813 2865 2389 1099 1314 1386 1706 1761 2574 2514 1010 1549
cat_boundaries=0 9 10 14 19 23 24 28 29 30 39 48 52 56 60 64 69 70
cat_threshold=69632 0 48 33605120 25165912 3221357135 33557856 1 1048576 21 2099200 4057776128 2013298701 20740 229385 68239360 2323825041 29983621 1 1100072 302056840 1308754436 63553796 64 2416050178 102957108 2248294418 4260995 16 9 266240 0 0 49152 16785408 0 32 1 1048576 4100 0 786432 0 8256 16388 167772288 16400 16973824 2787115010 2151948384 4096 1179648 8 1384415232 1107345420 20971524 2048 3795845120 16777230 25602 8192 393216 16777220 10360 2048 34668544 1308786944 16905984 1 16
is_linear=0
shrinkage=0.05


Tree=4
num_leaves=31
num_cat=15
split_feature=8 3 1 5 0 7 0 5 1 2 7 3 1 7 0 0 8 7 3 7 5 6 7 0 6 0 3 0 7 7
split_gain=922.411 470.522 439.912 362.686 211.97 177.138 148.062 136.221 124.373 107.381 101.393 95.7018 90.3044 86.3678 79.1556 77.9243 68.15 64.7521 64.7432 75.2747 94.3193 70.7185 63.6595 61.9685 61.673 61.5598 61.2985 55.8463 55.4868 55.4323
threshold=455.50000000000006 0 1 1.0000000180025095e-35 2 -32.583333333333321 3 4.5000000000000009 4 5 -9.1666666666666661 6 7 4.8333333333333348 8 9 1442.5000000000002 -653.16666666666663 10 232.16666666666671 4.5000000000000009 3.5000000000000004 530.33333333333337 11 3.5000000000000004 12 13 14 72.166666666666671 32.416666666666679
decision_type=2 9 9 10 9 10 9 10 9 9 10 9 9 10 9 9 2 8 9 10 10 2 10 9 2 9 9 9 10 8
left_child=5 2 9 6 -5 26 -4 13 28 14 23 -12 -9 -3 29 -11 -8 -14 -16 -20 -21 -22 -17 -10 -13 -18 27 -1 -6 -2
right_child=1 7 3 4 8 -7 16 12 10 15 11 24 17 -15 18 22 25 -19 19 20 21 -23 -24 -25 -26 -27 -28 -29 -30 -31
leaf_value=-2.971038359375 61.002094296875001 7.7800196679687508 -1.1734814062500003 -13.138844453125001 -2.3569859375000006 -3.7446981250000002 -1.0451689062500003 -2.6335178125000001 20.217506015625002 38.366962080078125 19.449250156250002 -1.5397480273437507 3.0815432812500005 -3.8037303320312503 45.220195546875004 44.343164648437501 15.930572021484375 -11.959543437500001 23.763699375000002 27.984062343749997 3.1682734374999999 -21.5257678125 -43.628896640625001 4.7824929296874998 -10.741309687500001 43.115992324218752 -3.7932102343750005 -0.55283054687499988 -14.508519453125002 3.5659190624999995
leaf_weight=508 102 911 598 1439 1567 1674 159 1829 862 808 681 1144 266 599 1568 801 802 2022 569 213 509 118 515 1094 406 884 329 889 689 1215
leaf_count=508 102 911 598 1439 1567 1674 159 1829 862 808 681 1144 266 599 1568 801 802 2022 569 213 509 118 515 1094 406 884 329 889 689 1215
internal_value=-0.000706248 0.00298167 0.00718379 0.000788582 -0.00442781 -0.0249706 0.0176218 -0.00951747 -0.000534635 0.0174549 0.00456278 -0.00271179 -0.0142458 0.00331126 0.022026 0.0081537 0.0245553 -0.0208442 0.0265986 0.0184285 0.00904762 -0.000717703 0.000603318 0.0128834 -0.00955128 0.0276394 -0.0137312 -0.00891969 -0.00997352 0.0115674
internal_weight=25770 22370 16743 10325 7882 3400 2443 5627 6443 6418 4187 2231 4117 1510 4294 2124 1845 2288 2977 1409 840 627 1316 1956 1550 1686 1726 1397 2256 1317
internal_count=25770 22370 16743 10325 7882 3400 2443 5627 6443 6418 4187 2231 4117 1510 4294 2124 1845 2288 2977 1409 840 627 1316 1956 1550 1686 1726 1397 2256 1317
cat_boundaries=0 1 10 14 18 27 28 29 38 42 47 48 53 57 58 62
cat_threshold=85 544 134217728 3389530112 31 1 574685440 402653184 101343232 194 4271898627 135661671 1026 269627536 2097152 3566665728 1543503887 86273 274432 33554432 48 49152 8912912 3221225551 1077936416 1073741863 1048576 67 16 4100 134217728 851968 8 142614536 33554432 0 16896 262210 33636385 1490452480 67633165 1108617336 8 0 167952384 21037184 1 20 2056 1883340800 134397952 50939394 1 2147616779 33570816 2718154752 5287078 361 2230272 164036608 134283278 469762560
is_linear=0
shrinkage=0.05


Tree=5
num_leaves=31
num_cat=13
split_feature=8 5 1 3 8 6 7 0 0 3 7 0 8 7 7 0 0 7 2 3 7 6 5 2 8 3 7 0 7 6
split_gain=886.772 441.347 558.451 317.365 209.145 204.549 165.171 158.588 139.852 136.966 138.181 165.992 109.349 82.0442 68.8362 63.1624 62.1163 61.514 83.8004 61.1288 54.301 52.6652 75.5684 51.3238 50.2349 48.2071 47.9277 46.5443 45.241 53.6632
threshold=377.50000000000006 1.0000000180025095e-35 0 1 1602.5000000000002 3.5000000000000004 -32.583333333333321 2 3 4 1535.5000000000002 5 70905.000000000015 18.833333333333339 -32.583333333333321 6 7 271.83333333333343 8 9 -11.58333333333333 2.5000000000000004 6.5000000000000009 10 4049.5000000000005 11 338.58333333333343 12 -138.41666666666666 2.5000000000000004
decision_type=2 10 9 9 2 2 10 9 9 9 10 9 2 8 10 9 9 10 9 9 10 2 10 9 2 9 10 9 8 2
left_child=6 4 8 12 13 9 19 23 14 10 11 -5 16 -2 -3 -7 -4 21 -19 -1 25 22 -13 -6 -24 -10 -11 -25 29 -27
right_child=1 2 3 5 7 15 -8 -9 20 26 -12 17 -14 -15 -16 -17 -18 18 -20 -21 -22 -23 24 27 -26 28 -28 -29 -30 -31
leaf_value=-1.4042786289062499 2.9574719340820312 4.1801405468750001 0.84056737890624911 28.172463468749999 8.9960864340820308 -0.15679064062499962 -3.5574632187500002 29.54059863549805 5.5680977695312501 -1.1037259687499998 -21.853890234375001 16.660624786621096 -239.89584679492188 -2.6050511127929692 -9.6038086142578134 -9.7277906406250008 58.259498429687511 16.877228210449218 -4.539846739257813 -3.4584748398437508 -13.372323453125 -2.3967248754882813 2.9069071191406253 19.799048914062499 -17.903964376953127 1.9753662343749996 -20.679501609375002 -24.879389638671878 -10.514148767578126 -15.573971123046874
leaf_weight=923 482 1171 275 1805 820 551 1502 2544 243 2102 612 998 250 618 929 1105 1987 194 610 558 1105 370 362 217 266 496 334 363 1360 618
leaf_count=923 482 1171 275 1805 820 551 1502 2544 243 2102 612 998 250 618 929 1105 1987 194 610 558 1105 370 362 217 266 496 334 363 1360 618
internal_value=-0.000764455 0.00259139 -0.00111875 0.00516017 0.0156423 0.000896019 -0.0263996 0.0210193 -0.0136379 0.0043447 0.00890568 0.0118893 0.0208961 -0.00363636 -0.00322275 -0.0150362 0.0244474 0.00419929 -0.00746269 -0.014551 -0.0193372 0.00891784 0.0127921 0.00730496 -0.000796178 -0.015587 -0.00543745 -0.0040678 -0.0176329 -0.0102334
internal_weight=25770 22787 17743 11821 5044 9309 2983 3944 5922 7653 5217 4605 2512 1100 2100 1656 2262 2800 804 1481 3822 1996 1626 1400 628 2717 2436 580 2474 1114
internal_count=25770 22787 17743 11821 5044 9309 2983 3944 5922 7653 5217 4605 2512 1100 2100 1656 2262 2800 804 1481 3822 1996 1626 1400 628 2717 2436 580 2474 1114
cat_boundaries=0 9 10 14 18 19 24 29 33 34 35 36 37 41
cat_threshold=77824 0 48 33604608 25165848 131653 1073745248 35 1048585 16 2051 3522576384 4261445645 20869 1100072 1416 1577240592 1137296640 69 51201 67108864 2323890560 59363084 1 8 1388412928 3254829064 4196612 1 0 1074135040 516 8312 64 353 65 1 1 0 1442840576 129
is_linear=0
shrinkage=0.05


Tree=6
num_leaves=31
num_cat=19
split_feature=8 1 5 3 0 0 6 7 3 7 1 0 2 0 7 3 0 0 0 7 0 3 8 2 7 3 0 7 7 1
split_gain=842.981 436.656 437.65 246.541 204.049 187.569 172.763 136.591 133.88 128.238 125.654 100.108 73.867 80.6388 66.0384 92.6146 65.3402 60.1926 59.9586 57.0432 54.8933 53.7567 53.5482 52.2705 50.7935 45.8757 45.5569 44.845 43.9322 41.7061
threshold=302.50000000000006 0 1.0000000180025095e-35 1 2 3 2.5000000000000004 -32.583333333333321 4 -287.24999999999994 5 6 7 8 175.41666666666671 9 10 11 12 -155.49999999999997 13 14 1508.5000000000002 15 264.16666666666669 16 17 -112.58333333333333 208.41666666666671 18
decision_type=2 9 10 9 9 9 2 10 9 8 9 9 9 9 10 9 9 9 9 8 9 9 2 9 10 9 9 10 10 9
left_child=7 8 5 4 -4 22 9 19 12 -5 14 25 -2 -14 17 -16 21 -6 27 -1 -12 -7 -3 -24 26 -11 -10 -8 -22 -13
right_child=1 2 3 6 10 16 18 -9 24 11 20 29 13 -15 15 -17 -18 -19 -20 -21 28 -23 23 -25 -26 -27 -28 -29 -30 -31
leaf_value=3.1511315974609375 36.340440303125 -2.3531485302978519 -10.138099618310548 19.811649070312502 2.5843697840454101 -8.7373236621337895 4.4240996015625003 -3.3795900578125 -2.0055302584106447 4.6833185856933595 -5.1845898933593757 -3.1343153109375006 3.7770508341796858 12.626957229418947 32.959533545312503 -4.2786198034912104 40.912536233264156 24.683677160058593 -11.885700731152344 -2.6760634806640633 5.2980465454345707 12.0790700204834 -25.462823933172608 6.0701058189208981 -14.592239459375001 -3.1003153109374999 4.4519346890625 -8.9573627960937507 -6.6350084796874995 -10.573301327246094
leaf_weight=165 1457 529 1166 498 604 101 274 1312 576 530 1012 617 1215 1793 734 1026 913 1137 1550 1092 894 1399 214 679 290 689 761 825 485 1233
leaf_count=165 1457 529 1166 498 604 101 274 1312 576 530 1012 617 1215 1793 734 1026 913 1137 1550 1092 894 1399 214 679 290 689 761 825 485 1233
internal_value=-0.000791618 0.00221758 -0.00187803 -0.00617749 0.000226372 0.0129987 -0.0134276 -0.0279681 0.0137004 -0.00626577 0.00401559 -0.0100847 0.0181788 0.0135852 0.0100399 0.00323864 0.0214404 0.016973 -0.0231219 -0.0161893 -0.0048105 0.0147682 -0.00146648 0.00599104 0.00137447 0.00109845 0.00549738 -0.0137511 0.00169186 -0.0173656
internal_weight=25770 23201 17109 13274 7058 3835 6216 2569 6092 3567 5892 3069 4465 3008 3501 1760 2413 1741 2649 1257 2391 1500 1422 893 1627 1219 1337 1099 1379 1850
internal_count=25770 23201 17109 13274 7058 3835 6216 2569 6092 3567 5892 3069 4465 3008 3501 1760 2413 1741 2649 1257 2391 1500 1422 893 1627 1219 1337 1099 1379 1850
cat_boundaries=0 9 10 14 18 19 29 33 34 38 39 44 48 53 58 59 60 61 65 75
cat_threshold=256 67108864 3356516352 1074790431 33 37814528 2 817152 262338 21 4276092930 151390311 1024 469905616 2099200 4294803456 1543520287 20740 85 556 134217728 67960960 0 16785984 671105024 405274753 67240448 25370624 1 134217984 1714456587 570606106 21595904 64 141344 1360396288 3841982496 1107361599 16 318906379 147580 2684518400 4296355 1 147457 2161147904 1962934284 8421673 671090696 2525036544 3724575758 21009708 1 131073 2262319112 2835365903 17910570 1 32 8 64 16908288 600834048 553779212 50353329 4 134217728 524416 0 8704 16384 134217728 67108864 285212672 1
is_linear=0
shrinkage=0.05


Tree=7
num_leaves=31
num_cat=18
split_feature=8 5 1 0 3 1 3 6 7 0 0 7 0 7 0 8 7 6 0 8 3 0 1 0 3 6 3 0 6 3
split_gain=794.418 370.861 434.155 210.722 201.178 175.881 168.059 152.188 152.684 133.735 128.97 124.293 116.554 103.672 100.054 77.9413 75.8338 75.0313 73.9252 71.6323 71.3354 70.3745 64.4506 55.1905 54.5911 53.4571 47.8354 46.6419 44.9458 44.8154
threshold=438.50000000000006 1.0000000180025095e-35 0 1 2 3 4 2.5000000000000004 244.58333333333334 5 6 215.16666666666671 7 -32.583333333333321 8 70905.000000000015 -35.833333333333321 3.5000000000000004 9 1508.5000000000002 10 11 12 13 14 3.5000000000000004 15 16 2.5000000000000004 17
decision_type=2 10 9 9 9 9 9 2 8 9 9 10 9 10 9 2 10 2 9 2 9 9 9 9 9 2 9 9 2 9
left_child=5 3 6 19 10 13 15 8 14 -10 -4 20 25 -1 -6 23 18 24 -12 -2 -8 -5 -21 -3 -13 -9 -18 -11 -26 -7
right_child=1 2 4 21 7 29 11 12 9 27 16 17 -14 -15 -16 -17 26 -19 -20 22 -22 -23 -24 -25 28 -27 -28 -29 -30 -31
leaf_value=-2.7182927734277338 -1.932441875959777 11.432667595950926 15.194996553671878 56.666909421600955 -5.9485427566284192 1.6462735060305786 18.8177908040918 1.1369850392675784 1.2524048684692379 -4.4241972075634761 22.621733194231876 11.555756354423218 -10.439529803508911 -3.3106105549218756 10.001640469140625 -175.17270419195313 -3.3111750440625034 -18.578090416875 -3.6729259124697879 -1.9846843836682126 1.2717154638015746 16.33113539816345 8.2205030026208501 60.141528050309446 -10.610335915133057 -10.679335455891724 -9.0838319395275882 -21.835671210102539 3.0815466620312506 -2.2439089785058592
leaf_weight=1077 596 691 1691 725 339 360 759 723 1227 959 338 354 2128 1230 1115 188 749 265 1036 516 996 2359 788 1192 359 654 487 1003 243 623
leaf_count=1077 596 691 1691 725 339 360 759 723 1227 959 338 354 2128 1230 1115 188 749 265 1036 516 996 2359 788 1192 359 654 487 1003 243 623
internal_value=-0.00112534 0.0022331 -0.00119456 0.0142657 -0.00620836 -0.0240729 0.0111627 -0.0108237 -0.00489985 -0.0110223 0.00254001 0.00351641 -0.0187019 -0.031571 0.0085282 0.0220807 -0.00442748 -0.00872236 0.00363901 0.00109948 0.0120513 0.0223012 0.00766871 0.0252523 -0.00219665 -0.00717376 -0.0134304 -0.0190669 -0.0112745 -0.00609265
internal_weight=25770 22480 17496 4984 12449 3290 5047 8148 4643 3189 4301 2976 3505 2307 1454 2071 2610 1221 1374 1900 1755 3084 1304 1883 956 1377 1236 1962 602 983
internal_count=25770 22480 17496 4984 12449 3290 5047 8148 4643 3189 4301 2976 3505 2307 1454 2071 2610 1221 1374 1900 1755 3084 1304 1883 956 1377 1236 1962 602 983
cat_boundaries=0 9 13 14 23 24 29 34 39 43 47 48 52 61 65 66 67 71 72
cat_threshold=0 134217728 2147770368 31 1 155255040 134217729 423936 338114 2099200 4294754304 402833439 20740 17 266240 0 0 49152 2164305920 0 1073741856 1 1048576 20 10528 607128586 167952922 4802304 1 2279688 33652888 973132034 63504645 1 33603592 25182208 3724723976 54640942 1 35653634 142999648 2147483660 86546 16777216 1749155840 196612 17408 65 1774215808 4225 17107712 10879064 0 0 524288 0 8704 16388 134217856 16384 25165824 0 3881205760 620757278 33568890 64 16 150994944 1518583808 4026531844 50372747 257
is_linear=0
shrinkage=0.05


Tree=8
num_leaves=31
num_cat=18
split_feature=8 5 1 8 1 0 3 0 1 6 7 3 8 7 7 3 7 0 3 7 7 3 3 2 0 3 3 0 3 7
split_gain=743.035 355.166 437.903 206.38 183.404 170.9 158.088 149.917 126.978 112.658 96.8557 92.5238 84.4134 84.1208 73.9383 70.4878 66.6481 74.6245 60.9832 60.7691 55.4279 54.7807 49.697 56.8527 49.3236 48.6871 48.454 48.169 47.3414 44.6338
threshold=455.50000000000006 1.0000000180025095e-35 0 2469.5000000000005 1 2 3 4 5 3.5000000000000004 -32.583333333333321 6 70905.000000000015 88.166666666666671 18.833333333333339 7 1535.5000000000002 8 9 23.416666666666668 68.833333333333357 10 11 12 13 14 15 16 17 -112.58333333333333
decision_type=2 10 9 2 9 9 9 9 9 2 10 9 2 10 8 9 10 9 9 10 10 9 9 9 9 9 9 9 9 8
left_child=4 3 6 14 10 11 12 24 20 16 -1 13 -3 -4 26 27 17 18 -8 28 25 -21 -6 -24 -5 -7 -2 -15 -10 -27
right_child=1 2 5 7 22 8 9 -9 19 -11 -12 -13 -14 15 -16 -17 -18 -19 -20 21 -22 -23 23 -25 -26 29 -28 -29 -30 -31
leaf_value=-2.6057531185332028 -3.6645917260348826 65.647773122403379 14.005245323727051 -7.2711809032323602 1.6267693743684086 -2.911748072515854 -2.5758086807798541 34.281120414968534 17.420250485824603 -3.4710116501132959 -3.1450800271757817 -6.4159744051274421 -211.10312228728714 -3.9570111206656193 -1.772612986680886 -9.1409190298540661 -14.803332003039674 1.7083950225053712 20.565759366234374 -0.27992278562756356 -17.081011279110594 -6.3655866858781591 0.056427205648925498 -3.3484151059965828 12.628189485125048 -6.5977514945904545 6.4180498555434342 42.756189291555913 -1.8017751024334701 -9.8101925625063942
leaf_weight=1140 187 1107 1596 354 403 910 262 1997 548 867 1250 1003 135 511 928 662 372 1699 1412 736 963 878 332 275 1042 917 452 355 1173 1304
leaf_count=1140 187 1107 1596 354 403 910 262 1997 548 867 1250 1003 135 511 928 662 372 1699 1412 736 963 878 332 275 1042 917 452 355 1173 1304
internal_value=-0.00122235 0.00208762 -0.00127513 0.0138911 -0.023 -0.00691683 0.00985675 0.0208223 -0.0114464 0.00556036 -0.0305 0.00124486 0.025639 0.00548819 -0.00111678 -0.00287958 0.00933244 0.0115476 0.0190024 -0.0041704 -0.0173489 -0.0111524 -0.00490196 -0.0138574 0.00803698 -0.0141648 0.0119718 0.00650685 0.00235328 -0.0181309
internal_weight=25770 22370 17410 4960 3400 11556 5854 3393 7429 4612 2390 4127 1242 3124 1567 1528 3745 3373 1674 3335 4094 1614 1010 607 1396 3131 639 866 1721 2221
internal_count=25770 22370 17410 4960 3400 11556 5854 3393 7429 4612 2390 4127 1242 3124 1567 1528 3745 3373 1674 3335 4094 1614 1010 607 1396 3131 639 866 1721 2221
cat_boundaries=0 9 18 22 23 27 37 38 39 44 45 46 47 48 52 53 54 58 59
cat_threshold=0 0 135020544 31 1 155254784 134217729 948224 338114 266240 0 0 49152 2164305928 2048 1073741856 1 1048576 1165608 99584 1577631872 30262528 16 133120 3499950080 4261462044 5298565 331776 0 32 33605120 25165912 3221365262 3424 5 16777216 1 85 20 33556480 2097152 3464675715 2206830349 1 40 20 321 72 0 1083179008 402653184 20740 17 56 2304 98304 1140867072 82944 17
is_linear=0
shrinkage=0.05


Tree=9
num_leaves=31
num_cat=15
split_feature=8 3 1 5 0 1 0 2 0 7 1 7 7 0 3 1 0 5 3 7 7 7 0 7 7 8 5 6 7 0
split_gain=716.133 338.871 318.919 246.805 168.489 156.965 149.164 118.412 116.132 94.6073 89.8443 89.636 71.7672 68.5738 64.868 64.6953 59.0797 55.3888 53.1847 76.4939 49.6027 49.2606 49.202 46.4521 45.1163 46.4954 43.3209 136.383 43.2567 40.8039
threshold=455.50000000000006 0 1 1.0000000180025095e-35 2 3 4 5 6 -112.58333333333333 7 -25.833333333333332 68.833333333333357 8 9 10 11 1.0000000180025095e-35 12 1216.2500000000002 159.16666666666671 75.833333333333357 13 88.166666666666671 -73.749999999999986 251.50000000000003 4.5000000000000009 3.5000000000000004 -105.83333333333333 14
decision_type=2 9 9 10 9 9 9 9 9 8 9 10 10 9 9 9 9 10 9 10 8 10 9 10 8 2 10 2 8 9
left_child=5 2 7 6 -5 11 -4 18 23 17 21 29 16 -8 -14 -11 28 -3 -2 26 -10 22 -6 -9 -7 -26 -20 -28 -12 -1
right_child=1 9 3 4 10 24 13 8 20 15 12 -13 14 -15 -16 -17 -18 -19 19 -21 -22 -23 -24 -25 25 -27 27 -29 -30 -31
leaf_value=-2.9591529788296871 51.32362910073531 10.498267527470013 -0.3681925449913056 -11.077270574087622 -4.4975180848585827 9.8172635333542573 9.6591410835810709 8.3393311024929471 51.901096800373971 -0.80138431498128859 32.488054822123409 -2.9878260258169931 16.186941240025742 53.06392000501387 -3.9378648027617729 -6.8224513837876293 13.735903917510758 -2.8563437192969392 26.980021626006476 -12.551240591903866 13.100485512842702 -11.732404791551469 2.6395567593292273 -2.7205369623033455 -2.325994350696754 0.72249056607100037 20.288257575677484 -31.427656801650585 -4.7660387382618152 -1.8728731907437499
leaf_weight=439 1187 390 908 1555 679 155 789 834 246 1227 308 1165 630 726 1380 2936 1178 1074 237 130 2191 728 868 978 547 366 556 105 530 728
leaf_count=439 1187 390 908 1555 679 155 789 834 246 1227 308 1165 630 726 1380 2936 1178 1074 237 130 2191 728 868 978 547 366 556 105 530 728
internal_value=-0.00123787 0.00201162 0.00557811 0.000102051 -0.00420061 -0.0226176 0.0140528 0.0142725 0.00933318 -0.008595 -0.000546665 -0.0298463 0.00393954 0.0235738 -0.00273632 -0.012455 0.0106151 0.0023224 0.0236629 0.0149326 0.0164487 -0.00846827 -0.00345831 -0.000274424 -0.00649351 -0.0107886 0.0202673 0.0136914 0.000353774 -0.0201799
internal_weight=25770 22370 16743 10279 7856 3400 2423 6464 4249 5627 6301 2332 4026 1515 2010 4163 2016 1464 2215 1028 2437 2275 1547 1812 1068 913 898 661 838 1167
internal_count=25770 22370 16743 10279 7856 3400 2423 6464 4249 5627 6301 2332 4026 1515 2010 4163 2016 1464 2215 1028 2437 2275 1547 1812 1068 913 898 661 838 1167
cat_boundaries=0 1 10 14 23 27 28 32 41 46 47 56 60 61 66 70
cat_threshold=85 544 201326592 3389530112 29 1 574619904 268435460 76050944 226 3739222019 151390311 1032 403845266 4096 0 0 49152 2164273152 2048 1073741856 1 1048576 2097152 4158603264 1577074703 86275 66 4335616 1908801536 3841982469 64319 12290 0 32888 49152 8454192 3296723013 1077936416 1073741863 1049600 2147616779 136347648 2147647488 5254340 1 16 0 0 262272 8 134217728 33570816 268435456 16384 262242 16957440 8404992 1963000326 12615789 20 536870912 2261876736 2868904449 2860 1 2097152 1942355968 65540 469827586
is_linear=0
shrinkage=0.05


Tree=10
num_leaves=31
num_cat=15
split_feature=8 1 5 1 0 3 6 7 3 0 2 7 7 0 0 7 7 0 3 0 0 7 5 6 3 8 0 8 7 8
split_gain=686.382 334.223 295.178 246.494 184.955 162.025 116.436 113.554 102.369 96.348 81.7743 78.5122 77.9154 77.2408 71.5522 73.3099 69.2707 57.4324 55.6946 53.6063 53.3144 49.8607 49.7586 50.0483 60.291 47.5487 45.9214 44.0037 41.8553 39.9479
threshold=269.50000000000006 0 1.0000000180025095e-35 1 2 3 2.5000000000000004 -19.833333333333332 4 5 6 58.583333333333336 -351.16666666666657 7 8 -316.24999999999994 185.83333333333334 9 10 11 12 -155.49999999999997 1.0000000180025095e-35 3.5000000000000004 13 1701.5000000000002 14 3829.0000000000005 121.25000000000001 1602.5000000000002
decision_type=2 9 10 9 9 9 2 10 9 9 9 10 8 9 9 8 10 9 9 9 9 8 10 2 9 2 9 2 10 2
left_child=7 8 4 14 29 9 12 21 10 -5 -2 20 -7 -6 -4 -16 19 -12 -18 -11 -10 -1 25 24 -24 -13 -14 -15 -8 -3
right_child=1 2 3 5 13 6 28 -9 11 16 17 22 26 27 15 -17 18 -19 -20 -21 -22 -23 23 -25 -26 -27 -28 -29 -30 -31
leaf_value=3.0616458345893363 56.787807709843221 -1.8897568009018748 -9.6649565431423081 18.79764142592397 7.5074269343357107 34.967815984464664 -4.1165487337833877 -2.7884347245261432 0.27298092715552474 10.686285169126519 -0.33468594094322701 -1.6249377201724813 1.0460590284642901 4.6719355812720185 7.8353795132012412 -5.8568218192924997 4.8926740677098612 23.290318311047301 -6.7938744878311272 -0.3502081826951603 12.471235078581012 -2.2588386443413278 4.4241380584608221 -6.2970069236074178 -5.0839050746111285 13.537049451710841 -5.398972893005368 59.017109932610495 -13.567838408820291 1.6955869175773246
leaf_weight=144 769 569 1580 1782 1638 284 1045 1115 496 687 560 155 1040 206 412 2177 538 1092 773 1108 1107 1103 634 387 487 413 1171 666 837 795
leaf_count=144 769 569 1580 1782 1638 284 1045 1115 496 687 560 155 1040 206 412 2177 538 1092 773 1108 1107 1103 634 387 487 413 1171 666 837 795
internal_value=-0.00123787 0.00135424 -0.00219425 -0.00570195 0.00996386 -0.00114825 -0.00812628 -0.0269263 0.0114075 0.00510412 0.0193953 0.00611277 -0.00106212 0.0179762 -0.0157813 -0.0105618 -0.000224647 0.0129362 -0.00896262 0.00615599 0.0144417 -0.0165597 -0.000289017 -0.00503979 0.000312221 0.0123239 -0.00422886 0.0300454 -0.0175345 -0.00487627
internal_weight=25770 23408 17308 13434 3874 9265 4377 2362 6100 4888 2421 3679 2495 2510 4169 2589 3106 1652 1311 1795 1603 1247 2076 1508 1121 568 2211 872 1882 1364
internal_count=25770 23408 17308 13434 3874 9265 4377 2362 6100 4888 2421 3679 2495 2510 4169 2589 3106 1652 1311 1795 1603 1247 2076 1508 1121 568 2211 872 1882 1364
cat_boundaries=0 9 18 22 23 24 29 30 35 40 44 45 49 53 54 59
cat_threshold=0 0 3255853056 1073741853 33 37814528 2 2181847040 264418 339968 0 32 33605120 2155905048 3221357126 1077939296 33 1049600 2099200 4276076544 134348831 20740 21 20 164136 2147500040 3120615808 63521284 1 64 2197946379 18874432 4093689856 22097603 1 1185021954 566698083 2164264960 67254802 1 139264 1360412672 3841982480 64307 16 2048 910262272 131082 3074 16908288 16777216 898105348 34625713 320 4194304 3864166400 1912782858 21563136 1
is_linear=0
shrinkage=0.05


Tree=11
num_leaves=31
num_cat=16
split_feature=8 3 1 5 0 0 7 1 7 7 3 2 5 1 0 0 0 0 7 7 0 5 7 6 7 7 1 1 0 8
split_gain=654.773 302.929 268.117 187.283 172.801 157.715 126.316 103.878 90.5364 88.386 88.7434 85.6406 81.478 96.4702 77.5089 73.8803 64.5418 51.5059 48.9563 48.8584 53.6454 45.1148 44.5992 44.4969 44.3974 43.0807 42.1006 41.897 41.3979 39.8257
threshold=302.50000000000006 0 1 1.0000000180025095e-35 2 3 -19.833333333333332 4 75.833333333333357 68.833333333333357 5 6 4.5000000000000009 7 8 9 10 11 -120.83333333333333 32.416666666666679 12 6.5000000000000009 -575.24999999999989 3.5000000000000004 232.16666666666671 374.41666666666669 13 14 15 2992.5000000000005
decision_type=2 9 9 10 9 9 10 9 10 10 9 9 10 9 9 9 9 9 8 10 9 10 8 2 10 10 9 9 9 2
left_child=6 2 11 5 26 -4 18 19 12 16 -11 -2 -3 22 -13 -7 21 -15 -1 20 -6 -9 -14 25 -16 -12 -5 -10 -26 -17
right_child=1 8 3 4 7 15 -8 9 27 10 23 14 13 17 24 29 -18 -19 -20 -21 -22 -23 -24 -25 28 -27 -28 -29 -30 -31
leaf_value=1.8656918049936579 28.208564447706387 2.7722912659956096 -0.82574527311409196 0.49081313858280878 -3.5322747185838836 6.712447469801532 -2.6490129882998361 9.2592720504846113 -2.4453368154374875 17.525833805177964 2.0079276900190668 0.47909829945614996 1.4424942307179009 2.2963338817554004 29.494142860360366 -1.8504833915516175 13.673428811244055 -3.2442571312017656 -2.0939717993079929 -8.7858420505955337 3.0940172746747496 -9.55925209944896 -8.6721247195810722 -6.37566835060204 -1.8760585907882161 -6.6124666953537243 -17.559925232819314 -10.80905920645562 22.989351044927091 54.632245134063126
leaf_weight=207 1907 1217 958 250 861 953 1204 629 613 760 511 1504 235 793 835 69 1344 1116 1158 801 729 336 1142 451 453 823 1295 1060 841 715
leaf_count=207 1907 1217 958 250 861 953 1204 629 613 760 511 1504 235 793 835 69 1344 1116 1158 801 729 336 1142 451 453 823 1295 1060 841 715
internal_value=-0.00136981 0.00128227 0.00472263 0.000361027 -0.00317406 0.0118924 -0.0253211 7.58098e-05 -0.00819593 0.00427632 -0.00214145 0.0137477 -0.00451921 -0.00861229 0.00918199 0.0208071 0.0113686 -0.00127671 -0.0149084 -0.00843399 -0.00339623 0.00138462 -0.0186373 -0.00821727 0.0153109 -0.00367316 -0.0182958 -0.0181411 0.00958269 0.0322418
internal_weight=25770 23201 17025 11485 8790 2695 2569 7245 6176 4854 2545 5540 4503 3286 3633 1737 2309 1909 1365 2391 1590 965 1377 1785 2129 1334 1545 1673 1294 784
internal_count=25770 23201 17025 11485 8790 2695 2569 7245 6176 4854 2545 5540 4503 3286 3633 1737 2309 1909 1365 2391 1590 965 1377 1785 2129 1334 1545 1673 1294 784
cat_boundaries=0 1 10 14 18 27 28 29 38 42 47 51 55 60 69 78 82
cat_threshold=85 808 134217728 1241522304 25 1 54591744 268435460 76038656 266434 3739222019 395367 1024 470956208 2097152 4091428864 1543634975 86275 339970 33554432 48 49152 8454232 3229614158 1107296544 35 1048576 16 64 0 0 134217744 49664 16777216 8 160 1 26214402 4333568 1506181120 3841982492 64435 2156005385 203522048 2181087232 1090756 1 16965632 197132288 1963000588 12615757 33554432 55672832 3288514830 54593037 537001984 47300608 3137356302 16777998 1 0 0 266240 0 8768 16384 0 1024 8388608 0 0 0 8 0 0 0 16384 64 2049 540557312 134217731 1036
is_linear=0
shrinkage=0.05


Tree=12
num_leaves=31
num_cat=21
split_feature=8 1 5 1 0 3 7 7 3 0 7 3 7 0 0 2 0 0 0 1 3 3 2 6 0 0 7 3 3 8
split_gain=613.289 276.327 246.878 214.765 157.658 115.732 123.854 106.108 103.396 92.7608 85.5634 80.9159 74.1914 68.426 63.7906 61.6995 53.1774 53.1149 51.7851 48.9311 48.3932 45.5274 44.8978 57.4036 44.1343 43.3332 43.1063 37.4072 37.0447 34.9354
threshold=269.50000000000006 0 1.0000000180025095e-35 1 2 3 32.416666666666679 -19.833333333333332 4 5 58.583333333333336 6 100.16666666666667 7 8 9 10 11 12 13 14 15 16 2.5000000000000004 17 18 -698.83333333333314 19 20 2853.5000000000005
decision_type=2 9 10 9 9 9 10 10 9 9 10 9 10 9 9 9 9 9 9 9 9 9 9 2 9 9 8 9 9 2
left_child=7 8 4 9 19 14 11 20 15 26 25 -7 18 -6 -5 -2 -12 -17 -11 -3 -1 22 -8 -24 -13 -10 -4 -15 -28 -29
right_child=1 2 3 5 13 6 21 -9 10 12 16 24 -14 27 -16 17 -18 -19 -20 -21 -22 -23 23 -25 -26 -27 28 29 -30 -31
leaf_value=-1.004218595110308 51.05221490293598 2.8465255293278688 51.471783966102116 66.275466715119734 46.910297301188102 27.190893993270311 12.848460688100602 -2.5165623388848442 0.36296155667740848 -9.8595442064397254 -2.553993523656148 -3.3283879643003744 -17.9525155989326 11.651323175400982 2.3280586567145085 1.0554824867425083 3.5217502690820908 23.901618781877968 -3.8249476015077422 -2.1470721497525842 -2.5650223409088628 -4.9175928472247197 8.7920088812121904 -5.2203408688692505 2.7275331579543813 11.590971023651054 1.2464556162813842 -4.3756193924650262 -5.5360224031149485 27.159728335675698
leaf_weight=739 769 491 184 675 420 425 253 1115 474 1038 1006 925 992 1376 824 629 1059 1028 2517 992 508 1980 149 341 1598 1130 788 224 744 377
leaf_count=739 769 491 184 675 420 425 253 1115 474 1038 1006 925 992 1376 824 629 1059 1028 2517 992 508 1980 149 341 1598 1130 788 224 744 377
internal_value=-0.00141638 0.00103383 -0.00219073 -0.00540088 0.00891753 0.00051532 -0.0027548 -0.0256986 0.0101802 -0.0121553 0.00485186 0.00434193 -0.0158986 0.0168052 0.0128231 0.0181856 -0.00186441 0.0125675 -0.0125598 -0.00391829 -0.0156776 -0.010448 0.000199203 -0.0086 0.000888275 0.0135287 -0.00220162 0.0127579 -0.00496084 0.00220949
internal_weight=25770 23408 17313 13433 3880 7170 5671 2362 6095 6263 3669 2948 4547 2397 1499 2426 2065 1657 3555 1483 1247 2723 743 490 2523 1604 1716 1977 1532 601
internal_count=25770 23408 17313 13433 3880 7170 5671 2362 6095 6263 3669 2948 4547 2397 1499 2426 2065 1657 3555 1483 1247 2723 743 490 2523 1604 1716 1977 1532 601
cat_boundaries=0 9 18 22 23 24 28 29 33 38 39 43 47 51 61 62 63 64 68 72 73 74
cat_threshold=544 0 3222560768 1073741835 33 54591744 2 2282506240 331872 339968 0 48 33605120 2172682248 2147615308 4197472 1 1048584 2099200 4276076544 1208090655 20742 16 20 1098024 2215183624 1577224976 29917440 1 1757430144 4226 330496 44171288 133128 33652736 2852175874 20973061 1 64 139265 4224090112 537018380 33608735 139264 1356218368 3841982488 64315 3600941059 583278690 16781312 131088 262144 134217728 33554592 33280 16777232 0 33554464 100663296 0 1 353 4 64 50479114 830799872 562036736 8403089 16908288 16777216 889716740 34625713 325 21
is_linear=0
shrinkage=0.05


Tree=13
num_leaves=31
num_cat=19
split_feature=8 3 1 5 0 0 7 1 7 2 7 1 0 0 7 0 0 3 7 0 3 3 5 0 0 0 8 0 6 7
split_gain=585.433 267.92 224.861 140.667 142.527 134.917 118.493 95.0332 85.8585 72.2661 67.9972 67.8619 65.4301 64.5188 62.6409 59.9175 59.6928 55.9475 55.8834 51.4902 51.4649 49.4949 49.2669 47.7078 46.0291 44.0572 39.8487 37.8243 37.149 35.8235
threshold=302.50000000000006 0 1 1.0000000180025095e-35 2 3 -19.833333333333332 4 -112.58333333333333 5 -19.833333333333332 6 7 8 164.16666666666671 9 10 11 159.16666666666671 12 13 14 6.5000000000000009 15 16 17 3610.5000000000005 18 3.5000000000000004 215.16666666666671
decision_type=2 9 9 10 9 9 10 9 8 9 10 9 9 9 10 9 9 9 10 9 9 9 10 9 9 9 2 9 2 8
left_child=6 2 9 5 28 -4 20 14 19 29 12 24 -9 -11 -6 -7 -12 -16 23 -3 -1 -20 -14 -15 -10 -24 -17 -13 -5 -2
right_child=1 8 3 4 7 15 -8 10 11 13 16 27 22 18 17 26 -18 -19 21 -21 -22 -23 25 -25 -26 -27 -28 -29 -30 -31
leaf_value=-0.87046414767533864 50.58707233037461 -4.1598871906019355 -0.74448726886728567 -18.619986918528223 10.845406124906402 5.9827248197116694 -2.390734221940602 -2.3737599092533017 1.9254923417973213 37.262140995729489 -6.8329160294643643 -9.1918513805930147 11.784457845049101 0.7947207430955715 26.698715552690601 -0.74206434273392508 -0.98480673540759323 -2.9966585151823462 11.57166113509496 7.4125800926392174 -2.3867712238634193 -2.7605133444863799 10.252846098201388 14.406616418739938 -2.842231945110655 -8.1764048210254519 52.038329311128706 -3.9914748408794605 -61.976078769482186 22.815798802565435
leaf_weight=824 156 732 1000 834 1122 947 1204 1508 589 975 968 909 928 479 377 80 1515 844 454 854 541 1020 215 693 1171 336 681 1921 162 1731
leaf_count=824 156 732 1000 834 1122 947 1204 1508 589 975 968 909 928 479 377 80 1515 844 454 854 541 1020 215 693 1171 336 681 1921 162 1731
internal_value=-0.00146682 0.0010409 0.00427649 0.000299297 -0.00276422 0.0102659 -0.0241144 -0.000479356 -0.00787262 0.012577 -0.00408759 -0.0113508 0.000987613 0.00838612 0.00792605 0.0187427 -0.0102094 0.00012285 0.00429217 0.00214376 -0.0140293 -0.00217096 0.00842848 0.0124573 -0.00355932 -0.00335753 0.0292477 -0.0161268 -0.0204771 0.0205324
internal_weight=25770 23201 17025 11517 8809 2708 2569 7813 6176 5508 5470 4590 2987 3621 2343 1708 2483 1221 2646 1586 1365 1474 1479 1172 1760 551 761 2830 996 1887
internal_count=25770 23201 17025 11517 8809 2708 2569 7813 6176 5508 5470 4590 2987 3621 2343 1708 2483 1221 2646 1586 1365 1474 1479 1172 1760 551 761 2830 996 1887
cat_boundaries=0 1 10 14 18 27 28 37 42 47 52 57 58 63 64 65 69 74 78 82
cat_threshold=85 800 671088640 167796736 11 1 54591744 5 210649600 262338 3737124867 16779367 0 470954000 0 4076208128 1577189407 86279 20 1107296256 72159236 16 512 671105024 405274624 2147486720 293842976 64 0 0 65664 8 134225992 33570824 268435456 16384 262242 539099136 852852736 3003123212 35374 1 50446345 2147483648 42713474 3254255616 1 10618891 201965568 2147532800 17869984 1 16916480 1514012696 1090584597 85219 1 16 589449219 96 553714688 38818387 1 353 16 139264 293863424 3841982464 63649 2056 2365587456 1241546904 16851456 1 16777224 0 134266880 16860416 2206337026 167903318 2164461826 51386950
is_linear=0
shrinkage=0.05


Tree=14
num_leaves=31
num_cat=15
split_feature=8 3 1 0 1 7 7 5 7 5 2 0 2 7 8 1 5 0 0 0 7 7 7 0 7 3 7 7 0 3
split_gain=556.437 245.439 206.45 135.506 102.675 111.333 95.6207 83.527 82.472 81.8365 80.8839 76.6407 68.8914 68.4699 65.5427 63.3036 87.0355 60.2509 50.3684 49.7315 47.6358 43.6808 43.6245 39.8964 39.6325 36.7177 56.2917 34.7734 34.4805 33.9593
threshold=251.50000000000003 0 1 2 3 61.833333333333336 -19.833333333333332 6.5000000000000009 121.25000000000001 1.0000000180025095e-35 4 5 6 140.16666666666671 1173.5000000000002 7 3.5000000000000004 8 9 10 -16.833333333333332 -155.49999999999997 198.16666666666671 11 -575.24999999999989 12 1216.2500000000002 -129.83333333333329 13 14
decision_type=2 9 9 9 9 10 10 10 10 10 9 9 9 10 2 9 10 9 9 9 8 8 8 9 8 9 10 10 9 9
left_child=6 2 12 7 9 11 21 -4 15 14 -7 20 25 19 -5 16 27 -14 -12 -11 -6 -1 -19 -17 -18 -2 -27 -3 -22 -24
right_child=1 8 3 4 5 10 -8 -9 -10 13 18 -13 17 -15 -16 23 24 22 -20 -21 28 -23 29 -25 -26 26 -28 -29 -30 -31
leaf_value=3.1446815413363822 46.314228352545996 7.5765494251735879 36.032893627310138 -2.1380966241456179 5.9056840635879357 3.6487466674320674 -2.2711975108435718 -28.451960467954134 -8.904592475858669 0.47678915440570863 -0.52390799412267719 10.42341663486193 0.035439387344363742 -20.54257018020424 12.841107633287962 -2.1118136775355665 1.7696112587874901 76.696542598162168 -8.0242640609957423 -5.723371804513004 -0.32118543083472206 -1.8789521658587252 50.14713094910087 1.637025555176983 -7.2331580777411277 15.309307688463802 -12.789332734545809 -3.0927901978514116 -40.656279168684023 4.7425954075282055
leaf_weight=133 939 348 1278 203 544 1263 1074 200 1368 669 1202 2166 1405 489 538 1000 251 232 1221 1441 484 1053 526 1909 1307 704 108 188 239 1288
leaf_count=133 939 348 1278 203 544 1263 1074 200 1368 669 1202 2166 1405 489 538 1000 251 232 1221 1441 484 1053 526 1909 1307 704 108 188 239 1288
internal_value=-0.00143578 0.000842195 0.0039565 0.000330627 -0.00167638 0.00171833 -0.0251327 0.0144489 -0.00753017 -0.00889552 -0.00431362 0.00819983 0.0122602 -0.0131012 0.00573549 -0.00456726 -0.0111692 0.00810459 -0.00963831 -0.00919431 -0.00160532 -0.0153457 0.01357 0.000222679 -0.0172015 0.0203578 0.0121655 0.00615672 -0.0100277 0.0110254
internal_weight=25770 23510 17139 11937 10459 7119 2260 1478 6371 3340 3686 3433 5202 2599 741 5003 2094 3451 2423 2110 1267 1186 2046 2909 1558 1751 812 536 723 1814
internal_count=25770 23510 17139 11937 10459 7119 2260 1478 6371 3340 3686 3433 5202 2599 741 5003 2094 3451 2423 2110 1267 1186 2046 2909 1558 1751 812 536 723 1814
cat_boundaries=0 1 10 14 23 24 28 29 38 42 47 51 55 56 60 61
cat_threshold=85 800 536870912 167796864 11 1 54591744 5 76431872 262338 1098152 5512 33557376 65798144 4096 0 0 33604864 2155976792 165965 3221225760 33 1048576 64 3323986435 197394438 1409286188 1224811 64 65536 0 134217872 33604096 25165824 536870924 160 512 26214400 4333568 2043543552 3841982494 56113 33685505 2748956692 245785 98304 1 274728960 2590048276 1141080091 469812289 16924674 2061385793 830537730 34623504 20 2097152 197394432 268435468 4099 16
is_linear=0
shrinkage=0.05


Tree=15
num_leaves=31
num_cat=15
split_feature=8 3 1 0 7 5 1 0 7 0 1 5 7 2 0 3 7 5 6 7 7 0 0 5 3 7 5 0 8 0
split_gain=536.459 229.524 190.764 123.457 94.4332 91.2614 99.1963 86.2559 79.2963 73.7109 68.5346 81.423 64.3649 51.9598 50.9913 50.9686 55.0972 62.8283 66.9628 48.6434 45.7696 44.3839 43.5048 41.7325 40.3396 39.9541 39.6052 54.0856 39.1494 38.9055
threshold=251.50000000000003 0 1 2 -19.833333333333332 1.0000000180025095e-35 3 4 264.16666666666669 5 6 4.5000000000000009 226.58333333333334 7 8 9 185.83333333333334 6.5000000000000009 2.5000000000000004 391.58333333333343 -98.583333333333329 10 11 1.0000000180025095e-35 12 -431.74999999999994 4.5000000000000009 13 1602.5000000000002 14
decision_type=2 9 9 9 10 10 9 9 10 9 9 10 10 9 9 9 10 10 2 10 8 9 9 10 9 8 10 9 2 9
left_child=4 2 9 20 24 7 12 -5 10 -2 11 -3 14 -8 -7 -11 17 18 -17 21 28 -15 -12 -18 -1 -13 27 -22 -4 -19
right_child=1 8 3 5 -6 6 13 -9 -10 15 22 25 -14 19 -16 16 23 29 -20 -21 26 -23 -24 -25 -26 -27 -28 -29 -30 -31
leaf_value=-1.1080975518237026 34.043434040807689 1.9689386709919743 -6.2406325090372814 -0.67719532496401635 -2.1576376353013931 0.41350667295371796 12.304049490805477 12.619469045806227 -16.210061534784071 27.684108998101351 3.1997927834720485 -0.83887554322581903 -21.363728781071817 1.5286017016304712 -5.9629034061844193 28.92179721172414 5.516164050415326 19.616906754608223 1.1074865592806789 -8.9029406784901592 4.1386621034958386 -2.2509319061023656 -1.4023069008997986 -2.9740543320343531 -2.2922452106273115 -6.9176872716805526 3.3562173030001468 68.518518164206768 54.063511258773673 -5.2886762856232457
leaf_weight=802 1617 591 47 978 1074 899 799 1086 782 1019 1094 324 615 1159 1747 445 359 109 321 601 380 906 2182 1108 384 1398 2047 221 429 247
leaf_count=802 1617 591 47 978 1074 899 799 1086 782 1019 1094 324 615 1159 1747 445 359 109 321 601 380 906 2182 1108 384 1398 2047 221 429 247
internal_value=-0.00146682 0.000769885 0.00378156 0.000285139 -0.0247345 -0.00275 -0.00557538 0.0064438 -0.00732644 0.0117383 -0.00525139 -0.0118166 -0.011816 0.000330935 -0.00846561 0.00771144 0.00394382 0.0122995 0.0203655 -0.00302691 0.00880664 0.000605327 -0.000578211 -0.0024199 -0.0150084 -0.0173635 0.00626888 0.0175541 0.0231092 -0.00505618
internal_weight=25770 23510 17139 11914 2260 8790 6726 2064 6371 5225 5589 2313 3261 3465 2646 3608 2589 1122 766 2666 3124 2065 3276 1467 1186 1722 2648 601 476 356
internal_count=25770 23510 17139 11914 2260 8790 6726 2064 6371 5225 5589 2313 3261 3465 2646 3608 2589 1122 766 2666 3124 2065 3276 1467 1186 1722 2648 601 476 356
cat_boundaries=0 1 10 14 24 28 33 43 44 48 49 53 57 58 62 66
cat_threshold=85 800 536870912 167796864 9 33 54591744 134217732 210649088 262338 1108392 67114368 167807904 65831936 331778 0 32 33603584 2306869320 12 33554784 513 1048576 1 18874368 4076732416 1409302559 86279 16861192 0 2189590656 33129344 1 69632 0 134217872 33604096 25165824 545259532 134217888 1 294649856 1 64 16777216 2468413468 1409499163 470892869 16 0 3798515712 2147700767 81926 33564673 67108864 3456155921 29459277 355 2056 67108864 167804928 4228096 131072 268435456 1610612740 1026
is_linear=0
shrinkage=0.05


Tree=16
num_leaves=31
num_cat=17
split_feature=8 3 0 1 2 7 7 7 0 1 1 7 5 0 7 1 3 1 5 7 0 0 3 7 7 3 7 5 3 0
split_gain=507.648 204.82 177.902 147.876 112.247 96.3716 95.0025 76.0362 71.9038 70.3818 63.826 59.338 58.272 60.1341 57.0705 55.9452 55.4027 52.1487 69.9194 51.6187 50.406 45.5358 43.1061 42.51 40.6731 43.4971 53.0661 40.511 50.1306 42.8489
threshold=251.50000000000003 0 1 2 3 -19.833333333333332 45.166666666666679 264.16666666666669 4 5 6 32.416666666666679 4.5000000000000009 7 -14.166666666666666 8 9 10 6.5000000000000009 423.16666666666669 11 12 13 -129.83333333333329 8600.5000000000018 14 104.41666666666667 4.5000000000000009 15 16
decision_type=2 9 9 9 9 10 10 10 9 9 9 8 10 9 8 9 9 9 10 10 9 9 9 10 10 9 10 10 9 9
left_child=5 2 17 11 14 22 8 10 -6 -8 -3 -4 23 -14 -5 -16 -11 -2 20 -18 -19 -20 -1 -12 25 -22 -27 -10 -29 -30
right_child=1 7 3 4 6 -7 9 -9 27 16 12 -13 13 -15 15 -17 19 18 21 -21 24 -23 -24 -25 -26 26 -28 28 29 -31
leaf_value=-1.0526926742325173 -5.1165069712410691 0.63949444723161697 -0.42515604758077646 30.960038736264096 10.053414758090108 -2.0497557535363238 -4.1716863247625398 -15.399558458044869 11.057589685455126 10.404245426280436 5.8475680179174709 -5.8193955023616084 -8.0800853791904714 -2.3333604260660414 17.732932642908299 1.1923447796621915 0.51443282358895637 76.3287896497297 -56.966903602112339 -9.2112908515231915 51.360335695834991 6.309459413954241 -2.1776329500959455 -2.2904378999111397 -422.75902637857894 22.905910484417099 -0.8452354478132762 14.101407609597292 1.5188099418492649 -9.911684914282322
leaf_weight=802 216 1801 1467 338 979 1074 1857 782 569 622 565 1619 938 1823 1469 1328 949 747 133 558 1027 362 384 462 60 385 631 305 738 780
leaf_count=802 216 1801 1467 338 979 1074 1857 782 569 622 565 1619 938 1823 1469 1328 949 747 133 558 1027 362 384 462 60 385 631 305 738 780
internal_value=-0.00152503 0.000650787 0.00349583 0.000883132 0.00371358 -0.0241593 0.000332564 -0.00699734 0.00651142 -0.00489212 -0.00496511 -0.00872093 -0.00863612 -0.0124411 0.0116216 0.00931355 0.0013324 0.0134276 0.0149776 -0.0038563 0.0180351 -0.00232323 -0.0143339 0.00150925 0.0138429 0.0151003 0.00750487 0.00179017 -0.00183763 -0.00556283
internal_weight=25770 23510 17139 13578 10492 2260 7357 6371 3371 3986 5589 3086 3788 2761 3135 2797 2129 3561 3345 1507 2850 495 1186 1027 2103 2043 1016 2392 1823 1518
internal_count=25770 23510 17139 13578 10492 2260 7357 6371 3371 3986 5589 3086 3788 2761 3135 2797 2129 3561 3345 1507 2850 495 1186 1027 2103 2043 1016 2392 1823 1518
cat_boundaries=0 1 6 16 17 21 30 39 44 53 54 63 67 71 72 73 74 78
cat_threshold=85 117160 5504 44859808 2213314816 1 4096 0 0 33604864 2156435528 1140889671 3221225888 36 1048576 1 66 8388608 1948893184 134366227 1052 28 134217728 82000 0 16785920 8388616 134217732 16896 293815360 36 134217728 589824 8 134217736 33554432 268959744 134234112 393282 4154591235 2428633184 687931648 9437778 1 4 0 606336 8 0 41943040 134742020 16896 25165890 16 4096 0 0 0 0 0 128 18 68157440 114824 256 8388992 2158493696 49160 0 256 8421376 355 20 1 21102592 172097536 3288334860 1131042
is_linear=0
shrinkage=0.05


Tree=17
num_leaves=31
num_cat=15
split_feature=8 3 0 1 7 2 7 0 0 7 8 5 7 8 0 1 7 0 1 7 7 0 1 5 0 1 0 5 5 5
split_gain=487.243 185.101 165.444 135.395 101.784 96.2031 90.7071 74.1755 68.8873 68.8087 82.9523 61.0285 55.2118 54.3089 49.3649 48.9908 48.318 49.3127 42.1906 45.3467 41.439 38.8802 38.1309 37.0768 63.0354 37.4659 36.9834 35.3031 38.7759 35.0989
threshold=251.50000000000003 0 1 2 -19.833333333333332 3 45.166666666666679 4 5 -371.66666666666657 2092.5000000000005 1.0000000180025095e-35 140.16666666666671 5827.0000000000009 6 7 35.166666666666679 8 9 -112.58333333333333 -120.83333333333333 10 11 4.5000000000000009 12 13 14 5.5000000000000009 6.5000000000000009 6.5000000000000009
decision_type=2 9 9 9 10 9 10 9 9 8 2 10 10 2 9 9 8 9 9 10 8 9 9 10 9 9 9 8 10 10
left_child=4 2 15 12 20 16 8 13 -7 -3 14 -12 26 -8 -11 -2 -5 22 19 -16 -1 27 -18 -10 25 -25 -4 -17 -29 -19
right_child=1 9 3 5 -6 6 7 -9 23 10 11 -13 -14 -15 18 21 17 29 -20 -21 -22 -23 -24 24 -26 -27 -28 28 -30 -31
leaf_value=2.0323887227883723 35.576306987039153 5.9022882247351482 -2.9139644608106732 29.12367040142799 -1.9472679658595073 60.471997697210213 -0.8573727596620202 -4.7714413529811095 10.206332409203764 -2.3423457567467008 2.4165876428859976 -21.148093838949627 -12.685265218796129 14.874351531711145 0.96865037038758151 -79.52253830995113 20.93079049947649 3.4070788642669814 1.4173005719279441 -4.0216577858456279 -1.682921998289677 4.9739628941586149 5.565855895506334 -0.76369784227831305 -9.8341025137135905 7.2152998040783274 0.22267361801211277 74.85461762485356 -22.742029130175904 -19.128114532547784
leaf_weight=164 1450 856 1314 365 1074 340 1249 1917 636 1560 306 1448 582 716 407 20 817 833 1321 473 1022 2081 774 466 960 890 1216 279 33 201
leaf_count=164 1450 856 1314 365 1074 340 1249 1917 636 1560 306 1448 582 716 407 20 817 833 1321 473 1022 2081 774 466 960 890 1216 279 33 201
internal_value=-0.00149787 0.000633773 0.00333839 0.000684932 -0.0236726 0.00347946 0.000334076 -0.00484286 0.00643985 -0.00663689 -0.00869447 -0.0176739 -0.00842409 0.002 -0.00450678 0.0124322 0.011 0.00866667 0.000339213 -0.00808989 -0.013575 0.00798597 0.0141474 0.00391627 0.000993092 0.0079063 -0.00525692 0.0236842 0.0285256 9.57854e-05
internal_weight=25770 23510 17139 13276 2260 10164 7174 3882 3292 6371 5515 1754 3112 1965 3761 3863 2990 2625 2201 880 1186 2413 1591 2952 2316 1356 2530 332 312 1034
internal_count=25770 23510 17139 13276 2260 10164 7174 3882 3292 6371 5515 1754 3112 1965 3761 3863 2990 2625 2201 880 1186 2413 1591 2952 2316 1356 2530 332 312 1034
cat_boundaries=0 1 6 15 16 20 24 28 37 41 50 54 63 67 75 79
cat_threshold=85 117160 5504 44990848 2213314816 1 4096 0 0 33604864 2155976776 1140889669 3223323040 37 1048576 66 33554433 2744762396 84507 1074864257 0 69222400 134235137 1048 119668738 4201398356 268439557 1072262 4 0 532480 8 0 37748736 0 75513856 66 139264 0 3959422976 67201 4096 0 0 49152 16777728 0 32 0 1048576 49568 5376 128 2150105088 0 0 524288 8 8192 33554432 134217728 16384 8388672 20971520 4065820672 2214662686 1131014 6 0 134217776 0 16785920 131072 33554432 16384 1182793731 584482915 2298479120 68238354
is_linear=0
shrinkage=0.05


Tree=18
num_leaves=31
num_cat=16
split_feature=8 1 0 1 7 3 7 5 3 2 0 6 3 5 5 0 1 7 0 6 0 3 8 8 0 0 7 0 5 6
split_gain=468.394 183.317 144.96 131.95 94.5071 123.285 93.9137 87.3962 80.9609 61.3106 61.287 55.7039 55.2585 57.0037 53.2657 57.461 55.5696 52.6761 57.0526 51.2473 59.1831 50.5429 50.4895 49.0905 47.8698 43.8896 43.5349 42.1475 42.0599 61.5148
threshold=251.50000000000003 0 1 2 35.166666666666679 3 -19.833333333333332 1.0000000180025095e-35 4 5 6 2.5000000000000004 7 2.5000000000000004 6.5000000000000009 8 9 140.16666666666671 10 1.5000000000000002 11 12 79518.000000000015 1442.5000000000002 13 14 784.00000000000011 15 1.0000000180025095e-35 3.5000000000000004
decision_type=2 9 9 9 10 9 10 10 9 9 9 2 9 10 10 9 9 10 9 2 9 9 2 2 9 9 10 9 10 2
left_child=6 12 14 7 8 9 -1 23 10 -6 -5 -11 -2 -14 16 -16 -3 18 -9 20 -10 22 -18 -4 -15 -21 -7 -13 -23 -30
right_child=1 2 3 4 5 26 -8 17 19 11 -12 27 13 24 15 -17 21 -19 -20 25 -22 28 -24 -25 -26 -27 -28 -29 29 -31
leaf_value=-1.4262069963875799 51.304046376859269 -9.8446567815644244 -1.8828882029971372 33.765641383920098 15.306637151372314 -1.9933543578333817 -1.849904567566532 -0.23072472527478621 1.0283217977660024 8.4910848958395331 5.1207218513676738 4.1982314879308547 10.357143653746878 6.548377731014142 -56.024794469659959 1.3038823565921207 55.497682980059182 -20.265761295000164 -6.3571459228135918 -0.52909229528229251 -5.1018529186565367 11.710531553441859 -285.81970597220095 10.916011842186549 -1.0296591741683643 5.3359748467380639 -22.312795051239188 -4.7795764955988904 3.5160110887289933 -12.144441552791926
leaf_weight=1186 744 104 328 559 937 2651 1074 849 964 435 1125 366 668 997 125 420 1040 587 1850 1167 997 510 104 539 1163 1208 718 918 1188 249
leaf_count=1186 744 104 328 559 937 2651 1074 849 964 435 1125 366 668 997 125 420 1040 587 1850 1167 997 510 104 539 1163 1208 718 918 1188 249
internal_value=-0.00153279 0.00055721 -0.00131341 -0.00336254 -0.000709249 -0.00513693 -0.0232743 -0.0110377 0.00372093 0.00292573 0.012987 -0.00268942 0.0109715 0.0077167 0.00754667 -0.00688073 0.0100313 -0.01479 -0.0118377 9.20387e-05 -0.00588985 0.0112383 0.0195841 0.00305652 0.0037963 0.00503158 -0.0114679 -0.00794393 0.00625958 0.00191371
internal_weight=25770 23510 19938 16198 12045 6025 2260 4153 6020 2656 1684 1719 3572 2828 3740 545 3195 3286 2699 4336 1961 3091 1144 867 2160 2375 3369 1284 1947 1437
internal_count=25770 23510 19938 16198 12045 6025 2260 4153 6020 2656 1684 1719 3572 2828 3740 545 3195 3286 2699 4336 1961 3091 1144 867 2160 2375 3369 1284 1947 1437
cat_boundaries=0 9 13 22 23 24 25 30 31 35 44 48 53 54 59 64 69
cat_threshold=544 0 3222298624 1074790411 33 54592768 268435458 168689664 65762 1106344 2214593920 109349760 32276736 12288 0 0 50891776 2155872448 3221231631 3221233376 32 1048576 20 17 64 16779264 1610661888 671236096 1541 1 16 49152 0 2304 8421376 4096 0 0 0 0 0 0 2 1048576 2554333184 1497909272 1073872923 469779617 16910336 1477181441 2281848846 1132035 1 20 0 277872640 3936534657 2206805764 1 52561921 415629314 553779200 1071747 1 4194304 167837696 147467 34668550 1
is_linear=0
shrinkage=0.05


Tree=19
num_leaves=31
num_cat=14
split_feature=8 3 0 1 7 5 0 3 6 3 7 7 5 8 0 0 0 6 8 1 7 1 0 1 7 0 8 7 7 8
split_gain=428.157 157.351 141.688 138.429 101.413 84.4139 84.7248 78.2135 70.6988 86.2739 68.4797 67.1277 92.5871 66.2745 65.4977 59.409 58.0523 57.8152 55.2076 55.0366 54.6175 50.1823 49.4961 46.0813 42.3154 40.6692 39.9617 38.6778 38.4226 38.3793
threshold=251.50000000000003 0 1 2 -19.833333333333332 1.5000000000000002 3 4 3.5000000000000004 5 -112.58333333333333 198.16666666666671 6.5000000000000009 2611.5000000000005 6 7 8 2.5000000000000004 49791.500000000007 9 -698.83333333333314 10 11 12 -29.416666666666661 13 26181.000000000004 1535.5000000000002 515.41666666666686 30134.000000000004
decision_type=2 9 9 9 10 10 9 9 2 9 8 10 10 2 9 9 9 2 2 9 8 9 9 9 8 9 2 8 10 2
left_child=4 2 19 7 -1 6 -5 18 14 26 22 12 17 21 20 27 -14 29 -4 -2 -7 -12 -3 -16 -21 -23 -10 -13 -25 -9
right_child=1 10 3 5 -6 8 -8 11 9 -11 13 15 16 -15 23 -17 -18 -19 -20 24 -22 25 -24 28 -26 -27 -28 -29 -30 -31
leaf_value=-1.3548966465682009 1.1041316176720941 -3.8868929179083498 56.109704765307015 -0.13227965118684396 -1.7574093391882053 105.32245040405958 22.647626646727886 49.058151860571165 20.484688533767311 -10.552025832658432 -4.1610288589035873 -0.5338915151364575 16.838444099824354 -23.316116843461579 -3.8575008376764046 12.810524274287937 -5.7353305286172063 4.6340260613079352 57.093966340716321 -0.26732394964099998 3.5900375584321669 -1.9401063802945515 6.2820963041353357 2.0164995918843545 -3.4798151115570732 0.84799199290178073 -60.61546902118863 -32.289160993710169 -9.8075311535372691 -84.347600393828998
leaf_weight=1186 1057 709 1112 940 1074 147 1005 568 239 703 785 1047 212 1122 1308 1084 324 370 379 765 1634 1452 910 1667 1753 1393 151 180 438 56
leaf_count=1186 1057 709 1112 940 1074 147 1005 568 239 703 785 1047 212 1122 1308 1084 324 370 379 765 1634 1452 910 1667 1753 1393 151 180 438 56
internal_value=-0.00160264 0.000395576 0.00288938 0.00522322 -0.0223894 0.00115263 0.0102571 0.0114938 -0.00166216 -0.0132205 -0.00630779 0.00767333 0.015817 -0.00934343 0.000770119 0.00231502 -0.000932836 0.0248491 0.0212192 -0.00595537 0.0085148 -0.00606061 0.00256331 -0.00328659 -0.00996835 -0.00292469 0.00575 -0.00521423 0.00130024 0.0341346
internal_weight=25770 23510 17139 13564 2260 8232 1945 5332 6287 1093 6371 3841 1530 4752 5194 2311 536 994 1491 3575 1781 3630 1619 3413 2518 2845 390 1227 2105 624
internal_count=25770 23510 17139 13564 2260 8232 1945 5332 6287 1093 6371 3841 1530 4752 5194 2311 536 994 1491 3575 1781 3630 1619 3413 2518 2845 390 1227 2105 624
cat_boundaries=0 1 5 14 19 20 21 25 29 34 43 52 57 66 70
cat_threshold=85 3703570435 1221986423 268435460 469790752 772 536870912 135077888 11 32 591462656 4 210649088 8388802 18874376 3056156672 1308672011 1114503 1 16 16 16828680 2217215232 235014529 3263726912 133120 3055665152 537018395 1550 133120 0 3389030400 67074 1 32 2348810240 1111756952 8 33280 134366208 268435584 201327616 25297920 4096 0 0 49664 512 0 160 0 1048576 589432835 96 553714688 37769811 1 77832 0 2147483648 49156 8914944 2147483717 541065568 517 17825792 52559874 2053554240 553799684 1070210
is_linear=0
shrinkage=0.05


Tree=20
num_leaves=31
num_cat=18
split_feature=8 1 0 7 1 1 7 7 3 3 0 0 0 0 7 3 7 0 7 3 0 7 3 5 0 5 0 0 7 6
split_gain=398.902 151.515 128.642 94.096 90.4066 107.584 117.562 75.8557 97.1944 74.2363 60.2654 48.1343 43.2251 41.9196 37.1309 47.8514 36.2364 35.3086 34.561 39.1342 41.0331 33.9754 30.8281 29.9829 47.585 29.6429 29.3247 29.0484 27.332 27.1268
threshold=251.50000000000003 0 1 -16.833333333333332 2 3 -112.58333333333333 88.166666666666671 4 5 6 7 8 9 -98.583333333333329 10 -120.83333333333333 11 10451.333333333334 12 13 784.00000000000011 14 6.5000000000000009 15 5.5000000000000009 16 17 264.16666666666669 4.5000000000000009
decision_type=2 9 9 10 9 9 8 10 9 9 9 9 9 9 8 9 8 9 10 9 9 10 9 8 9 8 9 9 10 2
left_child=3 18 11 16 23 6 13 9 12 17 22 -3 -9 29 -13 25 -1 -7 19 20 -2 26 28 24 -4 -16 -10 -25 -8 -6
right_child=1 2 4 -5 5 7 10 8 21 -11 -12 14 -14 -15 15 -17 -18 -19 -20 -21 -22 -23 -24 27 -26 -27 -28 -29 -30 -31
leaf_value=2.0698244687967433 3.3929179789685748 44.024898827295125 -0.27766079502220453 -1.6695388722287949 -5.1727877806224258 40.11771808457771 0.73183681432427938 -0.59823403136032738 2.1006864132789742 1.2364842430542169 -4.2359569005913782 20.020093554129474 18.703161937355326 13.188637053611501 -47.78899534032476 -2.3368998257399194 -1.4299596673084469 15.710807836892986 -723.86096117721047 1.5074848607565443 36.324993820770153 -16.854813599777817 -3.1431031042171762 7.588246221830687 -9.569511038377934 13.602454949964383 -2.1445376213122231 -3.3268374648380803 -5.2659925681920505 6.85268842737967
leaf_weight=164 607 343 330 1049 685 325 1219 927 565 2588 2634 656 894 847 63 1271 1047 649 46 1487 1117 584 707 233 915 1401 991 532 661 233
leaf_count=164 607 343 330 1049 685 325 1219 927 565 2588 2634 656 894 847 63 1271 1047 649 46 1487 1117 584 707 233 915 1401 991 532 661 233
internal_value=-0.00152891 0.00039983 -0.00121157 -0.0215929 -0.00310666 -0.00172533 -0.00618925 0.00242267 -0.00233527 0.00772038 -0.00996935 0.00715812 0.00614418 0.00495751 0.00530726 0.00276051 -0.0120974 0.0194106 0.0103918 0.0110402 0.0161476 -0.00953488 -0.00448595 -0.0130198 -0.0178715 0.00888738 -0.00571979 -0.00529412 -0.00111111 -0.00247845
internal_weight=25770 23510 20253 2260 16519 14509 6986 7523 3961 3562 5221 3734 1821 1765 3391 2735 1211 974 3257 3211 1724 2140 2587 2010 1245 1464 1556 765 1880 918
internal_count=25770 23510 20253 2260 16519 14509 6986 7523 3961 3562 5221 3734 1821 1765 3391 2735 1211 974 3257 3211 1724 2140 2587 2010 1245 1464 1556 765 1880 918
cat_boundaries=0 9 13 22 31 32 33 38 42 46 51 52 57 58 62 63 67 72 76
cat_threshold=544 1073741824 2182111232 1074790409 32 54592768 268435458 168558592 73762 1106344 544000 109349760 2179760384 77824 0 0 50875392 2155876544 2147489804 3221233376 36 1048576 262146 0 32800 10519300 17375768 1677754435 256 8389889 16777224 20 17 153225218 238485640 4160962570 1107313156 1 32896 1280 262272 2150105088 0 4098260992 134217756 29706 1201799171 34 2684370944 1072663 1 21 2048 574717952 671236096 1024 1 21 8192 4124475392 67109182 53346 85 570427392 1375961104 131076 68 133120 0 2835349520 71297 1 536872960 0 2164277248 335544963
is_linear=0
shrinkage=0.05


Tree=21
num_leaves=31
num_cat=15
split_feature=8 1 0 7 1 7 3 3 5 0 5 0 3 6 8 7 0 8 2 6 0 7 8 1 7 3 5 3 8 0
split_gain=391.192 145.009 117.406 91.4835 89.7292 100.552 89.361 67.3928 62.134 55.1784 49.0483 59.6509 57.6921 63.8891 47.2016 44.7544 51.7333 50.1784 40.2295 40.6672 39.209 41.8242 38.1362 38.6088 37.258 36.9331 36.2647 53.2481 34.8658 34.6757
threshold=251.50000000000003 0 1 -16.833333333333332 2 29.166666666666668 3 4 1.0000000180025095e-35 5 1.0000000180025095e-35 6 7 3.5000000000000004 1442.5000000000002 -35.833333333333321 8 2759.5000000000005 9 2.5000000000000004 10 88.166666666666671 21495.500000000004 11 883.25000000000011 12 2.5000000000000004 13 70905.000000000015 14
decision_type=2 9 9 10 9 10 9 9 10 9 10 9 9 2 2 8 9 2 9 2 9 10 2 9 10 9 10 9 2 9
left_child=3 26 10 29 8 7 18 9 14 -6 11 25 28 22 -4 -9 -17 -18 -7 -20 -10 -22 23 -14 -8 -3 -2 -28 -12 -1
right_child=1 2 4 -5 5 6 24 15 20 -11 12 -13 13 -15 -16 16 17 -19 19 -21 21 -23 -24 -25 -26 -27 27 -29 -30 -31
leaf_value=-1.820746277646806 11.507885397675217 13.754355155313654 -1.8505939212979756 -1.5860619286173552 28.67985987034174 10.960202191710801 -1.9141805427121401 4.200477039039245 -16.844440906237907 5.2504743594067129 63.817280682964295 53.339564007219884 9.4353763241220499 -10.037027447183068 9.8854462878103231 1.8434516108224011 -0.39862795843806648 -17.699822700662633 7.0994791163242246 -2.8691796064289563 -1.9875569518446186 -11.392316206626781 -356.52358065009616 -0.57233571598210919 -22.570767210086245 -0.72568491495990084 55.952444901073505 1.4290299276667886 -286.30559309030394 -0.45172239375525081
leaf_weight=531 808 287 315 1049 500 831 2666 1648 635 1035 701 286 1021 471 527 856 854 592 446 1296 1926 582 175 1280 543 492 565 2086 86 680
leaf_count=531 808 287 315 1049 500 831 2666 1648 635 1035 701 286 1021 471 527 856 854 592 446 1296 1926 582 175 1280 543 492 565 2086 86 680
internal_value=-0.001591 0.000319013 -0.00131349 -0.0214602 -0.00345957 -0.00117496 -0.00577655 0.00367366 -0.00989987 0.0125243 0.0055001 0.0149765 0.002812 -0.000422726 0.00213777 0.00020202 -0.00430061 -0.0100275 0.0011808 -0.00313927 -0.0131562 -0.0102065 0.00278675 0.00449804 -0.0113234 0.00741445 0.00975786 0.00695964 0.0147428 -0.0120974
internal_weight=25770 23510 20051 2260 15252 11267 5782 5485 3985 1535 4799 1065 3734 2947 842 3950 2302 1446 2573 1742 3143 2508 2476 2301 3209 779 3459 2651 787 1211
internal_count=25770 23510 20051 2260 15252 11267 5782 5485 3985 1535 4799 1065 3734 2947 842 3950 2302 1446 2573 1742 3143 2508 2476 2301 3209 779 3459 2651 787 1211
cat_boundaries=0 9 14 23 24 25 29 34 35 39 40 44 53 54 55 59
cat_threshold=288 536870912 2383486976 1074790409 32 188810496 268435458 919552 65826 1106344 1280 1183091592 2179760896 1 4096 0 0 50908160 2155876480 2684360780 3221233376 36 1048576 20 17 16779264 3858776064 671236096 1030 8 0 1174437896 21005056 1 16 16910336 487849989 2281721858 82946 64 3279945730 8291 4096 6162 0 134217728 524288 0 8704 536870912 0 16384 8388672 320 16 2097152 1360396288 134217732 469780096
is_linear=0
shrinkage=0.05


Tree=22
num_leaves=31
num_cat=15
split_feature=8 3 1 7 0 0 5 7 1 3 7 0 2 0 8 7 5 7 0 6 5 4 0 0 6 0 8 5 1 1
split_gain=366.173 143.064 152.676 92.4299 87.7445 68.9239 65.1476 65.0996 81.3604 67.8803 60.5403 55.6574 53.9214 47.6201 43.7011 43.5221 42.2053 36.928 36.29 36.2753 36.2049 33.9416 33.5863 33.1572 33.116 45.857 33.0652 43.7525 32.5189 31.4773
threshold=251.50000000000003 0 1 -19.833333333333332 2 3 6.5000000000000009 374.41666666666669 4 5 150.16666666666671 6 7 8 5921.5000000000009 15667.500000000002 5.5000000000000009 -316.24999999999994 9 4.5000000000000009 6.5000000000000009 18.500000000000004 10 11 3.5000000000000004 12 2425.5000000000005 1.0000000180025095e-35 13 14
decision_type=2 9 9 10 9 9 10 10 9 9 10 9 9 9 2 10 8 8 9 2 10 10 9 9 2 9 2 10 9 9
left_child=3 2 5 22 6 -2 -4 8 -6 14 13 20 16 -3 -9 23 -7 -15 -18 24 -10 -14 -1 -16 29 -26 -19 -28 -5 -13
right_child=1 10 4 28 7 12 -8 9 11 -11 -12 19 21 17 15 -17 18 26 -20 -21 -22 -23 -24 -25 25 -27 27 -29 -30 -31
leaf_value=-1.7642545670311138 0.40592256998153148 -3.8002903022658021 41.26791044475241 -1.5567588321864874 4.9050874507381836 -62.135064118540278 -36.687712004261719 -11.182591895398103 -1.520270950054351 -11.676630866004086 -7.9980947780156457 -3.8386065548744455 33.796010611745807 11.935987176229844 19.883381267382653 -3942.728193242544 10.57491172559963 0.0007999761115714322 33.984744817283591 7.1716269891377982 -8.4517169823869285 -2.4541277290767596 -0.65388692699261852 -3.1915855889356921 0.50582588158423147 -8.8672408512003482 7.8818949182104525 -21.903435626545313 -1.4280187408222607 1.0778407608330205
leaf_weight=384 1911 1548 909 560 1432 28 136 234 1650 884 1201 403 833 540 455 48 1042 2426 1200 603 329 829 802 765 341 449 123 533 514 2658
leaf_count=384 1911 1548 909 560 1432 28 136 234 1650 884 1201 403 833 540 455 48 1042 2426 1200 603 329 829 802 765 341 449 123 533 514 2658
internal_value=-0.00152891 0.000319013 0.00269695 -0.0207522 -0.000698744 0.00925167 0.0130332 -0.00210993 8.26446e-05 -0.00934619 -0.00607272 -0.00232035 0.0130391 -0.00373308 -0.00277778 0.000867508 0.0180702 -0.000578194 0.0189117 0.00078405 -0.00927602 0.00610048 -0.0111298 0.00270492 -0.00099974 -0.0101266 -0.00269306 -0.0126524 -0.031378 0.00135577
internal_weight=25770 23510 17139 2260 11296 5843 1045 10251 7865 2386 6371 6433 3932 5170 1502 1268 2270 3622 2242 4454 1979 1662 1186 1220 3851 790 3082 656 1074 3061
internal_count=25770 23510 17139 2260 11296 5843 1045 10251 7865 2386 6371 6433 3932 5170 1502 1268 2270 3622 2242 4454 1979 1662 1186 1220 3851 790 3082 656 1074 3061
cat_boundaries=0 1 10 14 18 28 29 34 35 39 43 47 52 56 64 72
cat_threshold=85 288 201326592 1241587712 9 33 591405312 402653188 210256384 8388706 57768 5512 2464 49020928 4202528 4160143360 335544351 1073762350 12 1610612736 72106704 16 0 142688256 524416 3254779920 285558784 1 20 3565158403 299278435 33554452 1276129313 1 65 2007107586 1482686572 553717760 34625616 33603593 134807552 135217152 2148609105 2097152 1360396288 4 469763072 1 570490880 2533458432 16778016 1 2099200 1644232704 3221389832 262 0 0 0 49152 0 0 1073741856 1 0 0 0 16640 8388616 2147483648 2147484000 5
is_linear=0
shrinkage=0.05


Tree=23
num_leaves=31
num_cat=14
split_feature=8 1 0 3 7 7 8 1 0 0 7 3 3 0 5 0 6 7 7 1 1 5 5 0 5 6 7 7 3 7
split_gain=336.544 135.932 100.524 101.362 93.2275 92.9894 68.9796 62.142 60.3342 59.3722 53.2878 54.6042 50.4922 46.1181 45.3315 43.9974 41.2706 42.5954 41.073 36.0193 35.5545 34.6143 33.782 33.62 30.4852 44.0876 31.2165 28.9022 32.4136 27.9793
threshold=251.50000000000003 0 1 2 -147.83333333333329 -11.58333333333333 4122.0000000000009 3 4 5 364.25000000000006 6 7 8 5.5000000000000009 9 2.5000000000000004 3305.8333333333335 5723.0000000000009 10 11 1.0000000180025095e-35 1.0000000180025095e-35 12 1.0000000180025095e-35 3.5000000000000004 468.75000000000006 15667.500000000002 13 -98.583333333333329
decision_type=2 9 9 9 8 10 2 9 9 9 10 9 9 9 10 9 2 10 8 9 9 10 10 9 10 2 10 10 9 8
left_child=5 23 20 6 9 19 -4 13 18 21 11 14 16 -6 -9 -13 17 -12 -8 -1 -3 -5 -14 -2 -15 26 -26 28 -25 -21
right_child=1 2 3 4 7 -7 8 10 -10 -11 12 15 22 24 -16 -17 -18 -19 -20 29 -22 -23 -24 27 25 -27 -28 -29 -30 -31
leaf_value=-1.528920890577163 1.268769034284275 0.045779722553662694 -4.5272880264507194 10.862022543583262 0.63175793852434792 -1.4353578951453745 15.828470706351709 -0.70038203030670942 33.438501117425623 14.778198368653179 22.205363773937972 3.4000396218884568 1.6528886788980472 -0.089998062988197347 12.841936097126524 -0.94111275239453152 -4.8182233347383709 -211.40076956167945 -23.129116279964634 8.1188295398693811 -3.0957617407381157 -3.5517295293712579 -11.358137438764283 42.117510102196839 -2.2466147940228303 -10.482751359601785 -20.520241223622964 -1681.1761504004132 4.5866183921655672 -0.72174879843219508
leaf_weight=723 1411 875 306 296 796 986 873 190 1783 1202 255 1386 196 635 464 2059 970 44 352 97 3015 723 665 817 2047 486 360 29 1275 454
leaf_count=723 1411 875 306 296 796 986 873 190 1783 1202 255 1386 196 635 464 2059 970 44 352 97 3015 723 665 817 2047 486 360 29 1275 454
internal_value=-0.00148234 0.000289239 -0.00131079 0.000434837 -0.00158792 -0.0199115 0.008213 -0.00354875 0.0105386 0.00772175 -0.000344607 0.00298853 -0.00676056 -0.0081449 0.0161145 0.000448625 -0.000351837 0.0158863 0.00190283 -0.010989 -0.00851282 -0.00121477 -0.0160161 0.00931677 -0.0105992 -0.0128068 -0.0100332 0.0133036 0.0140535 -0.00115865
internal_weight=25770 23510 19978 16088 12774 2260 3314 10553 3008 2221 6229 4099 2130 4324 654 3445 1269 299 1225 1274 3890 1019 861 3532 3528 2893 2407 2121 2092 551
internal_count=25770 23510 19978 16088 12774 2260 3314 10553 3008 2221 6229 4099 2130 4324 654 3445 1269 299 1225 1274 3890 1019 861 3532 3528 2893 2407 2121 2092 551
cat_boundaries=0 9 13 14 23 27 32 33 34 38 43 52 61 65 66
cat_threshold=288 0 168828928 1078984713 33 188810496 402653186 143400960 65698 3605004291 3516276851 4 469784592 16 274432 0 1073758208 33536 25168392 2155872332 1080033313 4626 26214408 687874048 107513860 3573616145 1057515 553789440 541065216 2701248000 263 1 1 68 135315752 103302400 2571 11010304 141312 16384 3389046930 17401346 1 4096 0 0 49152 8192 0 0 1 1048576 65536 2181038080 8392892 0 134255104 147968 33554432 67109889 25297921 2151817760 2807463936 419430668 2181091446 20
is_linear=0
shrinkage=0.05


Tree=24
num_leaves=31
num_cat=15
split_feature=1 8 3 0 7 3 1 5 2 6 5 3 7 0 7 0 7 3 7 0 0 5 7 3 5 8 7 7 1 0
split_gain=320.84 160.973 156.412 130.101 86.1268 101.704 85.6424 67.8027 66.3076 73.6069 62.2778 56.4922 53.9149 53.6996 52.8132 52.0141 49.1224 44.6814 44.2903 51.2811 47.087 43.1731 38.3578 37.4062 36.9617 42.0894 38.1433 36.9121 38.3285 36.4923
threshold=0 251.50000000000003 1 2 75.833333333333357 3 4 1.0000000180025095e-35 5 2.5000000000000004 1.0000000180025095e-35 6 784.00000000000011 7 -16.833333333333332 8 4.8333333333333348 9 32.416666666666679 10 11 6.5000000000000009 15667.500000000002 12 1.0000000180025095e-35 1442.5000000000002 271.83333333333343 185.83333333333334 13 14
decision_type=9 2 9 9 10 9 9 10 9 2 10 9 10 9 10 9 10 9 8 9 9 8 10 9 10 2 10 8 9 9
left_child=1 14 3 17 6 8 7 -5 -6 22 -11 15 -7 -3 -1 -8 -4 21 20 -20 -13 -2 -10 -12 25 -15 -26 -19 -29 -9
right_child=2 13 16 4 5 12 11 29 9 10 23 18 -14 24 -16 -17 -18 27 19 -21 -22 -23 -24 -25 26 -27 -28 28 -30 -31
leaf_value=-1.5730875713944634 124.85714491789507 -5.3319312864979516 -0.89039134135294029 5.7136404983844162 17.868332691487439 -1.1093692852230632 -0.35763624417864009 -21.037949454116799 11.771635291499171 3.7159784432796417 -3.2297386737422134 0.27490784646751243 -18.539097547745133 -1.4618948487134489 -1.4071529958198941 24.541079619963398 -3.2629236792591061 13.137316602560588 5.772422564039986 -1.0852920102638657 10.134373073566636 18.617111133075902 -7516.2235453414751 -6.6921511989326481 -1.0090522566773308 13.073177800352466 -20.421471702312651 11.499545863012679 0.14073422152676543 -1.5208196834838803
leaf_weight=672 592 1396 1672 484 1001 2447 349 434 482 489 575 662 813 258 639 1082 862 884 536 1323 789 405 33 497 1951 427 348 847 1684 1137
leaf_count=672 592 1396 1672 484 1001 2447 349 434 482 489 575 662 813 258 639 1082 862 884 536 1323 789 405 33 497 1951 427 348 847 1684 1137
internal_value=-0.00148622 -0.011954 0.00148589 0.00316434 0.000665754 -0.00352691 0.00457622 -0.00394673 0.00299644 -0.0021093 -0.00752723 0.00826142 -0.00966361 -0.00737443 -0.0273455 0.016551 -0.0101022 0.0105834 0.00463855 -0.000457235 0.0111992 0.0199106 0.0142718 -0.0142724 -0.00354041 0.00664234 -0.00658982 0.00781022 0.00476096 -0.009007
internal_weight=25770 5691 20079 17545 13133 6337 6796 2055 3077 2076 1561 4741 3260 4380 1311 1431 2534 4412 3310 1859 1451 997 515 1072 2984 685 2299 3415 2531 1571
internal_count=25770 5691 20079 17545 13133 6337 6796 2055 3077 2076 1561 4741 3260 4380 1311 1431 2534 4412 3310 1859 1451 997 515 1072 2984 685 2299 3415 2531 1571
cat_boundaries=0 9 10 15 16 25 26 27 32 36 37 41 45 46 55 59
cat_threshold=339968 0 0 50908224 2155876488 6144 3221233152 295 1074790400 341 16892072 128 2324484512 2179728128 1 20 2 0 1073741856 1155531008 1493794896 805437509 33554528 8192 16777218 64 17 3313500162 302260327 134254596 487603280 1 0 26607616 1409286656 43104 16 2048 1 1342308886 82946 141313 8781824 553713664 1069075 16 0 0 0 8 0 570425344 128 16384 2 2214593025 2281701474 16777220 143393
is_linear=0
shrinkage=0.05


Tree=25
num_leaves=31
num_cat=13
split_feature=8 3 1 7 0 0 7 0 0 5 2 7 8 1 1 0 5 5 7 0 0 0 7 7 7 7 5 6 8 7
split_gain=302.521 125.739 123.944 80.7478 77.685 74.699 61.1873 79.1288 64.7363 55.9594 53.3599 52.3483 82.7051 49.0093 48.1598 45.5947 45.1589 39.5647 38.7566 38.5173 35.9196 34.8518 33.8426 33.6701 32.4831 28.6067 31.1366 32.5201 31.5988 27.8743
threshold=251.50000000000003 0 1 -1.1666666666666663 2 3 16.166666666666668 4 5 6.5000000000000009 6 -484.83333333333331 2092.5000000000005 7 8 9 1.0000000180025095e-35 5.5000000000000009 709.25000000000011 10 11 12 175.41666666666671 3481.0833333333335 215.16666666666671 -147.83333333333329 4.5000000000000009 2.5000000000000004 16614.000000000004 185.83333333333334
decision_type=2 9 9 10 9 9 8 9 9 10 9 8 2 9 9 9 10 8 10 9 9 9 10 10 8 8 10 2 2 10
left_child=3 2 5 13 9 29 8 -8 -6 25 18 -3 15 -1 22 -13 -14 -12 -7 -18 -20 24 -9 -16 -19 -4 -27 -28 -29 -2
right_child=1 11 4 -5 6 10 7 14 -10 -11 17 12 16 -15 23 -17 19 21 20 -21 -22 -23 -24 -25 -26 26 27 28 -30 -31
leaf_value=-1.4709414155809766 1.9834732428193207 7.0821358317756236 77.188705276278213 -1.3367953460288995 -2.2189220554314808 33.871144313054423 -16.233285822961474 4.6945955150764576 4.5651693041338861 -34.690543051513622 -59.904959023249312 -1.6443254561840122 0.90212787401032135 -0.33590566810421341 -1.3631532316374386 0.19389709210953293 -10.762111058994483 41.539541141370869 28.818925620748715 -23.233470362201476 -37.709750325263883 32.324820497137395 -0.26488798556595211 -247.70289310157247 8.3896408213915059 42.705843740033004 42.57453145529162 -26.516540913135305 64.304648863863719 -1.5444112792339155
leaf_weight=625 749 689 158 800 1156 899 884 672 1777 136 35 1627 316 835 4550 2243 666 143 328 830 446 1138 1118 146 1036 238 292 120 117 1001
leaf_count=625 749 689 158 800 1156 899 884 672 1777 136 35 1627 316 835 4550 2243 666 143 328 830 446 1138 1118 146 1036 238 292 120 117 1001
internal_value=-0.00150951 0.00017014 0.00239956 -0.0189823 -0.000633023 0.00835782 -0.00196354 -0.0043962 0.00414252 0.0121849 0.0121066 -0.00582197 -0.00740936 -0.0119863 -0.00246305 -0.00328165 -0.0162252 0.0169771 0.00519905 -0.0198529 -0.00297158 0.0178464 0.0045 -0.00512112 0.0114802 0.0167027 0.0127119 0.00595463 -0.00780591 -0.000284091
internal_weight=25770 23510 17139 2260 11364 5775 10303 7370 2933 1061 4025 6371 5682 1460 6486 3870 1812 2352 1673 1496 774 2317 1790 4696 1179 925 767 529 237 1750
internal_count=25770 23510 17139 2260 11364 5775 10303 7370 2933 1061 4025 6371 5682 1460 6486 3870 1812 2352 1673 1496 774 2317 1790 4696 1179 925 767 529 237 1750
cat_boundaries=0 1 10 14 18 22 26 27 36 45 49 53 58 62
cat_threshold=85 288 134217728 167845888 9 1 591398144 134742020 210264576 8388834 1106344 5512 2464 49020928 4202496 4294934528 268435479 1073762346 4173332482 16779333 1024 1224826 1166016515 142868579 3087040520 336615813 12 0 0 0 49152 0 0 32 1 1048576 512 2785017856 1078460548 18 4128 134307840 807403520 33820672 285536512 52559874 4198793284 4102 1105030 33587208 2049 3254962816 38321356 8 0 33603584 21070208 1 33603593 16384 202326024 2152803413
is_linear=0
shrinkage=0.05


Tree=26
num_leaves=31
num_cat=16
split_feature=1 8 3 0 1 7 3 5 2 0 7 0 6 5 6 3 0 3 7 7 0 7 0 0 5 6 7 2 0 7
split_gain=294.065 147.646 140.823 109.436 88.2616 92.8208 92.975 68.2885 67.9202 58.7975 57.3224 55.0511 51.3089 46.47 54.2061 53.6124 45.9765 44.6823 44.1118 44.0747 49.7638 42.1574 41.911 40.765 40.5625 58.9173 48.004 40.6911 39.4668 38.8612
threshold=0 233.50000000000003 1 2 3 145.50000000000003 4 6.5000000000000009 5 6 -16.833333333333332 7 2.5000000000000004 6.5000000000000009 2.5000000000000004 8 9 10 -98.583333333333329 -63.249999999999993 11 29.166666666666668 12 13 3.5000000000000004 3.5000000000000004 709.25000000000011 14 15 4.8333333333333348
decision_type=9 2 9 9 9 10 9 10 9 9 10 9 2 10 2 9 9 9 8 8 9 10 9 9 10 2 10 9 9 10
left_child=1 10 3 7 19 9 8 17 -7 -6 -1 -3 -10 14 23 -15 -17 -2 -13 20 -5 -19 -14 -11 27 26 -26 -8 -9 -4
right_child=2 11 29 4 5 6 24 28 12 13 -12 18 22 15 -16 16 -18 21 -20 -21 -22 -23 -24 -25 25 -27 -28 -29 -30 -31
leaf_value=-1.4304885799171065 67.086122695916899 -5.1763925832956659 -0.85317221612078442 -4.8082963884534031 17.717684784355175 24.218503130673099 -1.9358981660681871 8.2986835698833428 11.858703831499547 0.23548234145278429 -1.2699555787274546 2.9252137530967079 -12.210640160666026 -7.1873260695936754 0.34805957478647187 -12.336651259593436 3.6553138661605065 23.539398985468768 -1.9769005572601364 -2.1442037227874979 10.484756639885976 1.5273563937507904 0.31240537544001656 11.703320006542905 0.21587369762316655 -15.496458534993733 -12.758811688104785 12.412007004300774 -27.004212748636082 -2.9043550612327298
leaf_weight=620 988 1239 1680 581 1255 926 356 145 415 359 593 865 383 277 1385 209 640 604 2231 3390 696 855 823 1004 827 361 671 215 313 864
leaf_count=620 988 1239 1680 581 1255 926 356 145 415 359 593 865 383 277 1385 209 640 604 2231 3390 696 855 823 1004 827 361 671 215 313 864
internal_value=-0.00145518 -0.0116409 0.0013444 0.00292854 0.00118041 0.00380585 -0.00105485 0.0117839 0.00561205 0.00852993 -0.0270816 -0.00734717 -0.000582465 0.00543254 0.00895197 -0.00310835 0.0032014 0.015141 -0.00373471 -0.00450075 0.00340642 0.00936011 -0.00580431 0.0160308 -0.00803279 -0.011646 -0.00727637 0.00359019 -0.0058952 -0.00963195
internal_weight=25770 5548 20222 17678 14773 10106 4977 2905 2547 5129 1213 4335 1621 3874 2748 1126 849 2447 3096 4667 1277 1459 1206 1363 2430 1859 1498 571 458 2544
internal_count=25770 5548 20222 17678 14773 10106 4977 2905 2547 5129 1213 4335 1621 3874 2748 1126 849 2447 3096 4667 1277 1459 1206 1363 2430 1859 1498 571 458 2544
cat_boundaries=0 9 10 15 23 24 25 29 34 35 39 40 44 48 52 53 58
cat_threshold=274432 0 0 50908224 2155872392 2113 3221233472 294 1074790400 341 114856 136 44863904 3253469440 1 0 0 0 14680964 151631952 3825242126 161 8388609 20 64 2049 0 2281848848 66574 1201668098 2416189539 36868 486554704 1 4 16777216 9568256 16777216 10353 20 2228225 98 2684420096 1080357 2048 1342570496 1744830468 17412 270848 147324933 1409286144 1196032 9 0 0 32896 256 1
is_linear=0
shrinkage=0.05


Tree=27
num_leaves=31
num_cat=12
split_feature=1 8 3 0 7 1 7 8 2 0 7 0 8 7 3 7 8 7 0 0 4 7 3 6 5 0 8 6 5 5
split_gain=277.825 156.461 133.69 107.167 58.5001 56.3351 57.2489 68.4445 55.2682 55.1977 52.649 51.7379 49.3065 45.1326 49.8756 57.2024 52.532 42.2937 45.6531 38.8893 37.7354 37.3747 35.592 36.184 34.1092 38.2157 38.2153 32.0018 84.3682 40.5737
threshold=0 233.50000000000003 1 2 -16.833333333333332 3 185.83333333333334 8310.5000000000018 4 5 1.0000000180025095e-35 6 2713.5000000000005 68.833333333333357 7 1779.6666666666667 52339.000000000007 92.416666666666671 8 9 130.50000000000003 18.833333333333339 10 3.5000000000000004 1.0000000180025095e-35 11 3762.5000000000005 3.5000000000000004 4.5000000000000009 6.5000000000000009
decision_type=9 2 9 9 10 9 10 2 9 9 8 9 2 8 9 10 2 8 9 9 8 10 9 2 10 9 2 2 10 10
left_child=1 4 3 13 -1 17 -7 -8 -9 21 19 -12 22 -2 16 27 -15 18 -5 -4 -17 -3 23 -13 26 -26 -11 29 -29 -16
right_child=2 9 10 5 -6 6 7 8 -10 24 11 12 -14 14 15 20 -18 -19 -20 -21 -22 -23 -24 -25 25 -27 -28 28 -30 -31
leaf_value=-1.3669550824668535 49.429955256945689 -3.52234943068596 -1.4322205729324127 -1.7051843011345378 -1.2064577997910817 3.4897328754767174 -1.7725915917223831 -18.788023860211286 19.603222165725363 -0.66527652729692199 -1.912076752624708 2.5166976655731736 -19.809503266442086 79.83674938688219 21.323959902525651 -102.54551351335782 5.2275965442833243 -3.6158995208857974 4.4327116041610592 2.3591284238678649 0.42987077805685631 -8.9358701575149251 -1.4129759208132961 -1.4143642604706148 0.35047566883455661 -4.3287885253731222 26.049164273823592 11.76351581031841 -19.269054326587923 -1.5419549467927709
leaf_weight=619 613 1305 1017 550 605 3271 1985 524 972 361 1333 686 646 694 1060 183 313 1857 614 991 288 380 1105 304 713 1465 280 354 272 410
leaf_count=619 613 1305 1017 550 605 3271 1985 524 972 361 1333 686 646 694 1060 183 313 1857 614 991 288 380 1105 304 713 1465 280 354 272 410
internal_value=-0.0014707 -0.0111711 0.0013066 0.00400143 -0.0270425 0.00112951 0.00366755 -0.000790003 0.0072861 -0.00688277 -0.00487525 -0.00814924 -0.00416212 0.0106862 0.00856184 0.00479239 0.0179449 -0.00453646 0.00292096 0.00174303 -0.0109342 -0.0140118 -0.000453461 0.0064 -0.00256274 -0.00555556 0.0075663 0.00834924 -0.00111821 0.012381
internal_weight=25770 5728 20042 13960 1224 9773 6752 3481 1496 4504 6082 4074 2741 4187 3574 2567 1007 3021 1164 2008 471 1685 2095 990 2819 2178 641 2096 626 1470
internal_count=25770 5728 20042 13960 1224 9773 6752 3481 1496 4504 6082 4074 2741 4187 3574 2567 1007 3021 1164 2008 471 1685 2095 990 2819 2178 641 2096 626 1470
cat_boundaries=0 9 10 15 25 26 31 35 36 40 45 46 50
cat_threshold=339968 0 0 50908224 2155872392 2116 2147491328 35 1074790400 85 16894376 8 2192347520 2213283584 1 10 0 40 260 17311824 3288502792 4194529 2820 8 1 12 1199570946 277094503 134270976 487603729 1 2236416 1514569728 16842757 34656318 16 131073 2714009698 805306884 28803 19023872 1073741936 687865856 13655763 1 256 49416 2304852224 1140983839 8945666
is_linear=0
shrinkage=0.05


Tree=28
num_leaves=31
num_cat=19
split_feature=1 8 3 7 3 0 5 3 6 5 0 0 0 0 0 0 0 6 2 0 8 0 0 8 7 1 7 8 3 1
split_gain=254.739 147.138 116.458 102.901 139.633 98.1161 84.0184 79.8742 114.545 99.1688 73.5222 65.3036 58.7707 57.6515 53.102 50.2547 47.0567 46.9022 102.286 74.0412 46.1136 45.0523 43.9893 36.7628 40.6606 34.8013 42.8315 39.1041 43.0045 34.6846
threshold=0 233.50000000000003 1 1.0000000180025095e-35 2 3 1.0000000180025095e-35 4 2.5000000000000004 1.0000000180025095e-35 5 6 7 8 9 10 11 3.5000000000000004 12 13 25292.000000000004 14 15 3537.5000000000005 10451.333333333334 16 -3496.4999999999995 2515.5000000000005 17 18
decision_type=9 2 9 10 9 9 10 9 2 10 9 9 9 9 9 9 9 2 9 9 2 9 9 2 10 9 10 2 9 9
left_child=1 15 5 4 10 29 16 8 13 12 -4 -8 -10 -5 -3 -1 -6 18 -11 -20 -15 -9 -19 -7 -25 -13 27 28 -27 -2
right_child=2 14 3 7 6 23 11 21 9 17 -12 25 -14 20 -16 -17 -18 22 19 -21 -22 -23 -24 24 -26 26 -28 -29 -30 -31
leaf_value=-1.1894276063239237 70.170111788627295 -5.0846532087335099 51.092789279321231 -0.59855930333688367 0.26588349147829149 -4.2145796890738385 2.2394672316041624 -2.5942091491855459 -1.9257399043198433 14.868275044263028 6.8695788791490457 -5.1389143770713961 7.8626263866108816 14.562872212477425 -0.71409006540197995 -1.1461349098015277 13.349367473846128 -0.70919897142853228 38.513692201178337 -5.4938955564780789 -424.67183085610361 -1.1353498281245684 -13.266574759409156 7.8815418871824612 -1671.2195929635609 1.001185826115512 2.5672676407308588 -13.362002649960312 -1.9184509349407302 25.385088451788999
leaf_weight=657 827 1476 323 332 499 231 2198 1839 345 373 729 994 648 601 3052 573 679 370 101 649 36 2249 704 1968 62 623 863 763 196 810
leaf_count=657 827 1476 323 332 499 231 2198 1839 345 373 729 994 648 601 3052 573 679 370 101 649 36 2249 704 1968 62 623 863 763 196 810
internal_value=-0.00140473 -0.0106623 0.00126361 -0.000613992 0.00347655 0.00900716 0.000842491 -0.00451679 0.000371792 -0.00420063 0.020339 -0.00169416 0.00891239 0.0154283 -0.00651502 -0.0260163 0.0129881 -0.0101274 -0.00298308 -0.0135526 0.024034 -0.00946803 -0.0175978 0.00222369 0.00438424 -0.00598724 -0.00274949 -0.00764855 -6.10501e-05 0.018306
internal_weight=25770 5758 20012 16114 7867 3898 6815 8247 4159 3190 1052 5637 993 969 4528 1230 1178 2197 1123 750 637 4088 1074 2261 2030 3439 2445 1582 819 1637
internal_count=25770 5758 20012 16114 7867 3898 6815 8247 4159 3190 1052 5637 993 969 4528 1230 1178 2197 1123 750 637 4088 1074 2261 2030 3439 2445 1582 819 1637
cat_boundaries=0 9 10 11 16 17 22 26 30 34 39 43 48 49 53 57 62 71 72 81
cat_threshold=339968 0 0 50908224 2155876488 2116 2147491392 3 1074790400 16 1 165896 2214658048 2718155146 65635332 1 68 0 268861440 2298642432 16787077 1 4196360 138412043 3725253248 55166210 0 1619197952 167788544 4244613 133120 411369472 2164277254 82178 1201668098 277094503 134238208 487668816 1 0 1942388736 134348804 134217730 2099200 416153600 939687936 21637 1 64 2048 0 167805184 42008576 35661824 1615118336 147462 38852110 131072 1891958784 1107345416 389 1 0 0 16 512 16777216 33685512 1073741856 0 16777216 352 4 0 134758400 8 0 536870912 402653184 67125248 8388674
is_linear=0
shrinkage=0.05


Tree=29
num_leaves=31
num_cat=17
split_feature=1 8 3 0 7 1 1 0 0 5 3 8 0 7 5 0 0 5 0 2 2 0 5 7 5 7 8 0 5 1
split_gain=240.341 146.111 115.349 89.284 72.8045 70.9232 60.4131 52.4874 50.9245 48.0925 48.0474 62.2453 58.8823 51.2582 47.4266 44.3063 40.4008 48.4851 39.0232 37.8693 36.6633 36.2742 34.2897 30.6978 30.3557 34.148 33.1487 29.0119 28.7762 27.319
threshold=0 233.50000000000003 1 2 88.166666666666671 3 4 5 6 6.5000000000000009 7 2058.5000000000005 8 -484.83333333333331 6.5000000000000009 9 10 6.5000000000000009 11 12 13 14 5.5000000000000009 -29.416666666666661 1.0000000180025095e-35 271.83333333333343 3688.5000000000005 15 1.0000000180025095e-35 16
decision_type=9 2 9 9 10 9 9 9 9 10 9 2 9 8 10 9 9 10 9 9 9 9 8 10 10 10 2 9 10 9
left_child=1 7 3 14 5 9 -6 -1 23 18 11 12 -4 -13 15 -2 -7 -18 -5 27 -16 -19 -17 29 26 -26 -10 -8 -15 -3
right_child=2 8 10 4 6 16 19 -9 24 -11 -12 13 -14 28 20 22 17 21 -20 -21 -22 -23 -24 -25 25 -27 -28 -29 -30 -31
leaf_value=-1.1366635294853313 13.691293317345339 -3.0599093422992905 -0.54872899046418611 -1.5452932559073871 3.1317931382885691 25.312344597823547 11.118785382556252 -1.0821208608338473 -0.43313809274679471 -5.8832585746809594 -1.3732925375943763 7.1484548181927723 2.9286320866824136 1.3360944077751129 9.3450336059890589 -65.766610369406152 8.100294846308504 2.0101876246800905 3.3775103997914075 -2.5857691322037741 -24.427920702051132 -6.3640644305413598 69.168472603465759 -8.2018896062262918 -0.70914247905821248 -20.132291312624375 23.291435069253044 -1.8736056784516961 -15.586648274545155 -7.5558045839255428
leaf_weight=649 1856 898 1780 743 1287 895 528 567 424 480 974 417 1328 281 170 27 1299 388 834 2948 291 364 774 421 2000 355 301 1015 1288 188
leaf_count=649 1856 898 1780 743 1287 895 528 567 424 480 974 417 1328 281 170 27 1299 388 834 2948 291 364 774 421 2000 355 301 1015 1288 188
internal_value=-0.00136593 -0.0103131 0.00123892 0.00374937 0.00158929 0.0060064 -0.00223261 -0.0257401 -0.00624591 -0.00113691 -0.00450806 -0.00254702 0.00186615 -0.00946626 0.0111893 0.0137938 0.0109608 0.00701116 0.00307546 -0.00496556 -0.00357918 -0.00305851 0.0236128 -0.0137442 -0.00252427 -0.00528662 0.00641379 0.00138442 -0.0136074 -0.00939227
internal_weight=25770 5803 19967 13899 10781 5003 5778 1216 4587 2057 6068 5094 3108 1986 3118 2657 2946 2051 1577 4491 461 752 801 1507 3080 2355 725 1543 1569 1086
internal_count=25770 5803 19967 13899 10781 5003 5778 1216 4587 2057 6068 5094 3108 1986 3118 2657 2946 2051 1577 4491 461 752 801 1507 3080 2355 725 1543 1569 1086
cat_boundaries=0 9 10 15 23 32 36 41 42 46 51 55 59 60 61 65 69 78
cat_threshold=339968 0 0 53005376 2155872408 2564 2147491328 263 1074790400 85 16892328 12 2192347520 3287024384 1 2 0 1074790432 768 151040064 3221389387 1111490912 8389120 770 1610612736 234913792 15 96 33562624 807403520 1108226048 4480 0 1908834304 134348804 201326594 3351248898 268705895 134238212 486620240 1 288 19007488 4183801856 16390 66694 16777472 12 2181337088 21234432 1 133121 1073741824 134365184 66574 2214723585 1757708386 805306400 228386 80 64 0 839319552 1610612748 16384 141312 0 1962934272 2144 69632 0 0 32768 0 4 0 0 1048576
is_linear=0
shrinkage=0.05


Tree=30
num_leaves=31
num_cat=17
split_feature=8 1 1 1 7 3 0 0 0 1 4 3 5 0 3 7 0 5 8 7 0 7 6 7 0 0 1 8 5 0
split_gain=225.23 111.883 81.652 81.4203 93.8409 95.4394 87.7635 85.0026 64.0572 58.4183 53.2821 39.2114 38.5362 46.0124 36.8205 36.6099 50.7244 48.4291 38.4538 47.1765 35.5763 32.7652 32.2431 29.5581 29.4919 28.2356 27.962 31.8114 28.8364 27.6657
threshold=251.50000000000003 0 1 2 -112.58333333333333 3 4 5 6 7 8.5000000000000018 8 2.5000000000000004 9 10 150.16666666666671 11 6.5000000000000009 8166.5000000000009 729.33333333333337 12 402.16666666666669 4.5000000000000009 -29.416666666666661 13 14 15 2025.5000000000002 1.0000000180025095e-35 16
decision_type=2 9 9 9 8 9 9 9 9 9 8 9 10 9 9 10 9 8 2 10 9 10 2 10 9 9 9 2 10 9
left_child=2 12 10 23 6 7 22 -6 21 25 -1 -8 -2 14 -14 16 -11 -18 19 -17 -20 -7 -5 24 -3 -9 27 -10 -29 -13
right_child=1 3 -4 4 5 8 11 9 26 15 -12 29 13 -15 -16 18 17 -19 20 -21 -22 -23 -24 -25 -26 -27 -28 28 -30 -31
leaf_value=-0.98297414940956362 10.737409300235505 -7.6163952765329102 -0.61747777446257524 -3.1541515378395908 11.086164404371045 0.40853131473691739 3.552237597268475 -0.32202364349414525 -1.7741209899061172 19.215813193391018 -1.184722121269759 21.267202024038376 49.644383881530558 -0.22554034918532581 2.1487576996742894 -0.2643306883069087 3.624337468350487 -2.5240713630112852 -3.3300481422441863 -10.045720708142282 20.395371747896316 -7.7228201572125812 8.107390718936065 -6.9097667942908405 -1.3611112114269326 -4.0917556412093026 -1.9193141047540081 9.5427513212554178 -29.252192658512708 45.005677594971175
leaf_weight=382 793 265 1276 1210 2185 2318 676 1249 807 370 602 475 480 1376 728 808 439 529 565 246 496 575 371 550 1160 1366 2155 87 698 533
leaf_count=382 793 265 1276 1210 2185 2318 676 1249 807 370 602 475 480 1376 728 808 439 529 565 246 496 575 371 550 1160 1366 2155 87 698 533
internal_value=-0.00142802 2.12675e-05 -0.0165044 -0.00139254 -0.000341259 -0.00202444 0.00733538 0.00156723 -0.0064812 -0.00148075 -0.0272636 0.0152302 0.00842929 0.00549536 0.0125616 0.0027866 0.00926756 0.00306748 -0.00130024 -0.00806452 0.00541942 -0.000878402 -0.00116279 -0.0110076 -0.00726316 -0.00710476 -0.0107932 -0.0158552 -0.023121 0.0215128
internal_weight=25770 23510 2260 20133 18158 14893 3265 8253 6640 6068 984 1684 3377 2584 1208 3453 1338 968 2115 1054 1061 2893 1581 1975 1425 2615 3747 1592 785 1008
internal_count=25770 23510 2260 20133 18158 14893 3265 8253 6640 6068 984 1684 3377 2584 1208 3453 1338 968 2115 1054 1061 2893 1581 1975 1425 2615 3747 1592 785 1008
cat_boundaries=0 9 18 27 28 33 37 42 52 53 58 59 64 68 72 76 85 89
cat_threshold=304 1610612736 2383421952 1077936137 32 54592768 2 8925184 2210 0 0 0 49152 0 0 0 33 1048576 4096 0 0 61345024 8388760 6150 2147491424 310 1048576 21 1201809411 541067299 2701181952 1071873 1 18014504 67110280 2818670976 3286762240 134252808 555272193 1107348108 2154399488 1 65542 0 32848 32784 2164865600 2155905537 33554688 2147745792 1024 1 296 2089 9502720 3399664002 29927300 1 20 2048 136380416 131076 82944 1 2048 0 67239940 95243 150994946 262212 4 1024 2049 2471186452 1426213383 280583 65536 0 0 49664 150995456 0 128 134218241 25559040 536870912 8388624 1577058816 16850990
is_linear=0
shrinkage=0.05


Tree=31
num_leaves=31
num_cat=18
split_feature=8 1 7 0 0 1 3 7 8 0 4 5 0 3 1 0 0 0 8 0 3 0 6 7 2 7 0 3 7 5
