tree
version=v4
num_class=1
num_tree_per_iteration=1
label_index=0
max_feature_idx=6
objective=regression_l1
feature_names=college_id program_id quota category nirf_rank round years_since_first_seen
feature_infos=-1:106:61:112:105:110:91:95:47:88:97:11:79:128:93:103:81:17:120:3:78:109:50:49:98:89:66:96:62:57:60:48:108:55:118:54:94:65:104:111:90:24:92:99:72:67:119:59:63:100:107:52:101:102:56:0:121:58:13:25:115:68:116:80:32:51:14:1:64:21:73:46:38:23:53:117:34:36:27:22:71:15:31:35:33:30:37:29:76:43:126:74:26:75:123:5:8:39:124:122:113:28:114:87:4:7:82:40:44:42:127:9:2:83:16:69:20:70:45:85:6:18:77:86:84 -1:111:152:238:99:141:83:137:250:197:12:59:174:262:279:2:224:110:91:162:274:280:105:68:233:199:219:276:82:185:163:71:261:131:249:220:257:16:189:273:80:288:18:134:151:173:89:247:5:222:217:251:183:211:194:171:182:1:132:169:237:232:284:90:140:200:78:225:159:272:155:160:226:143:229:255:161:166:58:121:69:86:198:243:17:126:168:172:223:241:77:98:84:100:118:190:266:3:13:73:94:144:147:175:228:267:4:8:9:61:62:66:70:79:106:133:176:184:186:187:192:213:221:235:254:263:268:269:270:271:76:95:191:214:234:236:242:264:85:96:97:104:139:122:63:67:123:177:282:117:119:128:201:102:116:124:156:202:107:115:165:170:188:57:203:204:244:259:120:148:286:103:138:158:256:136:6:10:15:72:87:135:179:193:7:125:127:180:215:277:153:212:281:30:52:101:142:154:216:227:40:164:31:53:81:92:93:150:157:196:210:275:231:260:88:167:24:41:43:48:230:0:26:27:36:44:45:50:51:64:65:74:130:145:146:178:181:239:240:245:246:278:285:28:37:60:248:252:253 -1:0:6:3:4:2:1 -1:4:6:8:2:0:5:3:7:1 [1:200] [1:7] [0:5]
tree_sizes=2896 3066 3065 3061 3019 3091 3098 3070 3173 3113 3197 3177 3184 3167 3230 3288 3255 3258 3261 3211 3210 3286 3233 3289 3321 3269 3363 3250 3261 3359 3314 3250 3341 3283 3401 3255 3326 3288 3290 3298 3301 3351 3385 3248 3314 3160 3375 3285 3305 3280 3252 3215 3342 3154 3169 3431 3364 3388 3402 3282 3327 3330 3241 3292 3237 3312 3203 3337 3281 3226 3308 3313 3313 3270 3264 3280 3365 3244 3251 3314 3374 3311 3398 3318 3320 3275 3348 3383 3401 3201 3255 3489 3380 3276 3303 3203 3348 3360 3294 3221 3426 3516 3262 3411 3332 3204 3236 3392 3278 3455 3290 3426 3556 3313 3458 3403 3400 3435 3464 3408 3426 3339 3430 3280 3321 3559 3595 3397 3544 3276 3409 3420 3460 3565 3350 3302 3353 3326 3487 3457 3447 3452 3460 3353 3393 3375 3246 3369 3439 3471 3400 3524 3574 3549 3537 3482 3428 3431 3598 3604 3366 3413 3421 3557 3211 3462 3140 3462 3525 3305 3211 3522 3338 3416 3496 3359 3465 3539 3352 3317 3292 3395 3548 3534 3474 3200 3341 3410 3234 3619 3642 3272 3343 3494 3493 3367 3148 3374 3278 3508 3311 3472 3419 3500 3530 3345 3277 3414 3359 3366 3331 3213 3378 3220 3202 3618 3525 3259 3556 3345 3376 3218 3535 3357 3332 3332 3490 3277 3621 3372 3195 3393 3523 3499 3109 3409 3086 3224 3279 3225 3294 3485 3432 3288 3153 3091 3513 3109 3661 3427 3072 3448 3631 3368 3385 3304 3411 3237 3169 2951 3196 3197 3438 3281 3090 3089 3099 3210 2919 3294 3285 3258 3060 3452 3188 3320 3045 3123 3254 3180 3291 3218 3280 3457 3547 3349 3295 3344 3475 3366 3268 3504 3320 3054 3121 3093 3090 3059 3384 3097

Tree=0
num_leaves=31
num_cat=28
split_feature=3 0 3 1 3 0 1 2 0 0 1 0 3 3 0 1 0 0 1 0 3 2 3 1 4 0 3 1 5 0
split_gain=9663.28 6015.85 1912.93 1079.43 970.608 1216.06 911.341 581.589 428.006 387.625 384.804 303.779 303.546 275.355 258.023 214.045 149.594 143.083 138.545 227.581 230.729 105.141 98.4155 98.1516 91.4738 74.4797 72.2993 70.0143 60.9263 59.7759
threshold=0 1 2 3 4 5 6 7 8 9 10 11 12 13 14 15 16 17 18 19 20 21 22 23 3.5000000000000004 24 25 26 6.5000000000000009 27
decision_type=9 9 9 9 9 9 9 9 9 9 9 9 9 9 9 9 9 9 9 9 9 9 9 9 8 9 9 9 10 9
left_child=1 2 6 -3 5 21 16 8 -7 10 13 15 24 -5 -14 -4 22 -9 19 20 -11 -2 -1 -10 -8 -25 -12 -16 -28 -15
right_child=4 3 11 9 -6 7 12 17 23 18 26 -13 14 29 27 -17 -18 -19 -20 -21 -22 -23 -24 25 -26 -27 28 -29 -30 -31
leaf_value=3519.625 3508.9000000000001 3272.6500000000001 3472.6999999999998 3672.1500000000001 3250.1500000000001 3670.9499999999998 3414.8000000000002 3391.3499999999999 3319.375 3713.0500000000002 3960.4000000000001 3296.5 3364.6999999999998 3408.5500000000002 3401.8499999999999 3308.5250000000001 3292.5500000000002 3275.8000000000002 3919.5749999999998 3787.0500000000002 3349.9000000000001 3381.4000000000001 3356.25 3338.4000000000001 3714.3499999999999 3428 3488.4749999999999 3472.8000000000002 3396.5500000000002 3315.6500000000001
leaf_weight=126 744 508 242 210 6237 570 168 293 506 338 730 3089 554 162 223 376 1050 3244 10076 1519 325 131 126 101 1202 213 504 593 164 416
leaf_count=126 744 508 242 210 6237 570 168 293 506 338 730 3089 554 162 223 376 1050 3244 10076 1519 325 131 126 101 1202 213 504 593 164 416
internal_value=3401 3401.02 3400.98 3401.04 3400.96 3400.98 3401.01 3400.97 3401 3401.04 3401.02 3400.96 3401.02 3400.99 3401.01 3400.99 3400.97 3400.96 3401.04 3401.03 3401.01 3401.03 3401.01 3400.97 3401.04 3401 3401.04 3401.02 3401.02 3400.97
internal_weight=34740 22701 7749 14952 12039 5802 4042 4927 1390 14444 2186 3707 2740 788 1370 618 1302 3537 12258 2182 663 875 252 820 1370 314 1398 816 668 578
internal_count=34740 22701 7749 14952 12039 5802 4042 4927 1390 14444 2186 3707 2740 788 1370 618 1302 3537 12258 2182 663 875 252 820 1370 314 1398 816 668 578
cat_boundaries=0 1 5 6 15 16 20 29 30 34 39 47 51 52 53 56 65 68 72 80 84 85 86 87 95 99 100 108 111
cat_threshold=85 2097154 4294950976 16415 469778434 20 12288 0 0 11010048 0 0 0 0 1048576 256 2831212569 157 16845184 44695616 331780 0 266240 49152 2147594312 33347 3221225728 132129 9437184 28 133120 0 1811939328 16804156 262144 1024 268599296 2147549188 1 0 0 0 33280 16777728 0 32 1 0 0 16384 16386 16 16 2097152 1892024320 4 0 0 524288 8 0 0 0 67108864 16777280 2 69746688 16401 1191182592 2082 512 22020096 131072 0 0 1426112544 1073742848 2592 8388864 9 133120 0 2852126720 22025729 20 9 16 4096 0 0 32776 16785920 4 32 16384 0 0 33603584 65538 20 0 0 0 0 16777728 0 32 16384 0 1024 268468224
is_linear=0
shrinkage=1


Tree=1
num_leaves=31
num_cat=30
split_feature=3 0 3 1 3 0 1 0 1 2 0 3 0 3 1 0 2 3 0 0 3 3 1 0 0 1 2 1 0 3
split_gain=9263.33 5689.25 1705.82 1292.26 982.847 1194.95 700.318 662.957 632.55 586.504 410.739 402.715 279.245 267.337 366.687 586.207 258.857 163.941 138.036 127.967 109.559 109.507 108.995 106.159 103.603 98.9008 93.2414 85.4812 77.6281 76.7747
threshold=0 1 2 3 4 5 6 7 8 9 10 11 12 13 14 15 16 17 18 19 20 21 22 23 24 25 26 27 28 29
decision_type=9 9 9 9 9 9 9 9 9 9 9 9 9 9 9 9 9 9 9 9 9 9 9 9 9 9 9 9 9 9
left_child=1 2 6 -3 5 26 18 8 11 10 25 -5 22 -9 15 16 -15 -14 20 -18 -1 -10 -8 -11 -25 -7 -2 -23 -27 -24
right_child=4 3 -4 7 -6 9 12 13 21 23 -12 -13 17 14 -16 -17 19 -19 -20 -21 -22 27 29 24 -26 28 -28 -29 -30 -31
leaf_value=111.51875000000001 91.480000000000004 -129.20750000000001 -100.77500000000001 200.41750000000002 -143.3075 -92.618750000000006 80.673750000000013 1094.7975000000001 505.20625000000001 -129.04000000000002 271.52750000000003 -72.503750000000011 288.00749999999999 -56.928749999999994 214.22125000000003 193.3475 -22.178749999999994 23.586250000000007 -105.67750000000001 136.89687499999999 -48.670000000000009 128.79937500000003 -5.3400000000000096 -85.215000000000018 -30.640000000000011 22.001250000000006 -18.620000000000005 18.715000000000011 -41.168750000000003 -80.734999999999999
leaf_weight=128 806 604 3017 320 6237 411 104 6817 900 2101 544 906 824 543 3738 1127 248 824 892 366 128 268 197 658 716 244 131 553 191 197
leaf_count=128 806 604 3017 320 6237 411 104 6817 900 2101 544 906 824 543 3738 1127 248 824 892 366 128 268 197 658 716 244 131 553 191 197
internal_value=-0.000512378 0.0182885 -0.0220297 0.0338171 -0.035949 -0.0210427 0.0028753 0.0365726 0.0150321 -0.0310051 -0.00342857 -0.0123786 0.0197124 0.0415013 0.0336041 0.0176112 -0.00741217 0.029614 -0.0284974 0.0147436 0.00413534 0.0345176 -0.0129921 -0.0419943 -0.0304191 -0.0251168 0.0304646 0.0206378 -0.00797753 -0.025
internal_weight=34740 22701 6311 16390 12039 5802 3294 15786 2947 4865 1390 1226 2146 12839 6022 2284 1157 1648 1148 614 256 1721 498 3475 1374 846 937 821 435 394
internal_count=34740 22701 6311 16390 12039 5802 3294 15786 2947 4865 1390 1226 2146 12839 6022 2284 1157 1648 1148 614 256 1721 498 3475 1374 846 937 821 435 394
cat_boundaries=0 1 5 6 15 16 20 29 34 42 43 48 49 53 54 62 66 67 68 71 75 76 77 87 92 96 103 104 113 118 119
cat_threshold=85 2097152 4294950912 31 469762048 20 274432 0 0 64 0 0 0 0 1048576 256 3904954649 2239 16845184 44695616 262150 0 4096 49152 2164895832 1073775171 3221225728 132129 9437184 2 64 147456 2147565574 1 0 0 0 33590784 16785920 0 544 1 28 0 0 2449653760 16848515 1 16 2097152 1342570496 0 469762048 20 65540 0 262656 1140899840 25165824 16396 32 17 553781248 0 4194336768 22058897 64 16 2097152 2250784768 17 133120 0 33587200 17826945 16 20 0 2147483648 33554444 0 32 0 0 0 66560 1 0 4292313088 2315436046 86022 1 131072 2637824 1677721617 36249 4096 0 0 32776 16785920 0 32 9 0 134217728 0 0 0 0 0 67108864 25165888 0 0 2147483648 16778880 1 16
is_linear=0
shrinkage=0.05


Tree=2
num_leaves=31
num_cat=29
split_feature=3 0 3 1 3 0 2 1 0 1 3 0 0 3 1 0 3 2 0 0 2 1 3 3 2 1 0 1 1 5
split_gain=8963.76 5468.68 1664.12 1226.46 968.842 1178.31 967.725 673.025 621.235 681.76 525.08 437.381 274.258 177.574 255.114 334.665 175.029 169.656 146.54 138.451 138.159 122.213 102.978 99.1944 83.0606 125.947 144.618 79.5228 78.8228 75.2033
threshold=0 1 2 3 4 5 6 7 8 9 10 11 12 13 14 15 16 17 18 19 20 21 22 23 24 25 26 27 28 6.5000000000000009
decision_type=9 9 9 9 9 9 9 9 9 9 9 9 9 9 9 9 9 9 9 9 9 9 9 9 9 9 9 9 9 10
left_child=1 2 7 -3 5 -2 27 19 9 -5 -11 21 16 -10 15 20 28 18 -12 22 -15 -8 -1 -14 25 26 -16 -7 -9 -25
right_child=4 3 -4 8 -6 6 11 12 13 10 17 -13 23 14 24 -17 -18 -19 -20 -21 -22 -23 -24 29 -26 -27 -28 -29 -30 -31
leaf_value=107.9928125 -120.56300000000002 -122.74712500000001 -95.736249999999998 211.38065625000002 -136.14212500000002 -80.133625000000009 -70.027187499999997 -53.895437500000007 1165.8576250000001 314.45350000000002 -59.557312500000016 127.29199999999999 315.15712500000001 55.962046874999999 -57.036062499999986 179.38012500000002 -46.348249999999986 -83.60731250000002 46.143312500000008 -99.118625000000023 -54.882312499999991 5.4418125000000153 -46.079000000000001 51.978187500000018 323.02640625000004 132.93518750000004 41.160187500000035 -24.729250000000004 103.832125 -9.1218124999999883
leaf_weight=117 2404 604 3017 2308 6237 890 276 102 6041 554 341 1321 658 294 120 547 411 667 550 922 318 554 117 455 2591 1202 253 357 309 203
leaf_count=117 2404 604 3017 2308 6237 890 276 102 6041 554 341 1321 658 294 120 547 411 667 550 922 318 554 117 455 2591 1202 253 357 309 203
internal_value=-0.000932642 0.017562 -0.0219665 0.0327866 -0.0357914 -0.0209911 -0.00199531 0.00263317 0.035471 0.0194357 -0.00113101 0.0183017 0.0192272 0.0416842 0.0347423 0.0136441 -0.00348558 -0.0160077 -0.00160932 -0.0279588 -0.0117363 -0.010119 0.00655738 0.0333333 0.0405651 0.0307571 0.00483029 -0.0368735 0.0193587 0.0188623
internal_weight=34740 22701 6311 16390 12039 5802 3398 3294 15786 4420 2112 2151 2138 11366 5325 1159 822 1558 891 1156 612 830 234 1316 4166 1575 373 1247 411 658
internal_count=34740 22701 6311 16390 12039 5802 3398 3294 15786 4420 2112 2151 2138 11366 5325 1159 822 1558 891 1156 612 830 234 1316 4166 1575 373 1247 411 658
cat_boundaries=0 1 5 6 15 16 20 21 30 35 44 45 50 54 55 63 67 68 69 74 77 78 87 88 89 90 95 99 108 116
cat_threshold=85 2097152 4294950912 31 469762048 20 274432 0 0 64 0 0 0 0 1048576 256 2097152 4294950912 33734687 69635 64 327686 0 4096 49152 2164895832 33347 3221225728 132133 1179648 537133058 1122 402833408 2147565575 1 0 134217728 134742016 8 0 268451840 402655232 67125760 25428032 16 1191182594 2114 2415924736 521184896 1 2097152 1355153408 4 469762048 20 4 0 262144 67158016 8388608 8 32 1 16910344 0 3808428032 22058896 16 9 2 0 147456 65538 1 2097152 103301120 17 12 4096 0 0 49160 0 0 32 0 1048576 16 16 64 0 0 0 0 16785408 2048 0 3758096384 16778240 4096 0 524288 32776 16785920 0 160 16384 64 4096 0 0 0 0 16384 0 16384
is_linear=0
shrinkage=0.05


Tree=3
num_leaves=31
num_cat=30
split_feature=3 0 3 1 0 1 3 1 0 3 0 0 3 0 2 1 2 2 3 0 1 1 2 1 0 3 3 0 1 0
split_gain=8462.55 5240.91 1888.68 1001.36 971.404 948.208 667.576 408.436 524.352 458.415 403.844 385.073 339.854 522.677 422.401 339.626 310.739 215.332 213.014 200.769 161.484 145.82 123.556 199.932 228.564 215.629 121.669 112.533 95.9258 93.1725
threshold=0 1 2 3 4 5 6 7 8 9 10 11 12 13 14 15 16 17 18 19 20 21 22 23 24 25 26 27 28 29
decision_type=9 9 9 9 9 9 9 9 9 9 9 9 9 9 9 9 9 9 9 9 9 9 9 9 9 9 9 9 9 9
left_child=1 2 5 -3 6 -1 16 8 9 -5 15 20 13 -6 -15 -4 -2 -11 -13 28 -7 29 23 24 25 -9 -22 -19 -16 -20
right_child=4 3 10 7 12 11 -8 22 -10 17 -12 18 -14 14 19 -17 -18 27 21 -21 26 -23 -24 -25 -26 -27 -28 -29 -30 -31
leaf_value=-87.412109375 126.1414 -107.23476875000001 -92.781032812500015 386.76474374999998 -114.93485000000001 -78.480753124999993 -67.585018750000017 483.58849375 303.43611875000005 -73.761321875000007 -90.949437500000002 333.17426875000001 -133.18501875000001 -72.672568750000011 -73.57567812500001 45.055998437500016 -28.742428125000018 99.709648828124998 -43.4792078125 57.288962500000004 114.88289375000002 59.831778125000007 626.33849375 226.26342812500002 142.19586562500004 -33.611506250000005 -15.446899999999983 -28.843228124999996 2.5278468750000003 21.274950000000015
leaf_weight=1116 794 516 539 394 2424 336 556 154 1576 478 3017 1229 5681 993 272 507 244 252 210 638 266 821 6369 3060 617 435 266 345 437 198
leaf_count=1116 794 516 539 394 2424 336 556 154 1576 478 3017 1229 5681 993 272 507 244 252 210 638 266 821 6369 3060 617 435 266 345 437 198
internal_value=-0.00139033 0.0165801 -0.014451 0.0351682 -0.0352602 0.00808625 0.00118454 0.0377575 0.0213912 -0.000169033 -0.0390498 0.0214628 -0.0408178 -0.0307499 -0.0137447 -0.0119318 0.0248092 -0.0170968 0.031564 0.00453206 -0.0071754 0.0165052 0.042419 0.0354303 0.0177632 -0.00459098 0.0099631 0.00304778 -0.0136996 -0.00789474
internal_weight=34740 22701 8505 14196 12039 4442 1594 13680 3045 1469 4063 3326 10445 4764 2340 1046 1038 1075 2458 1347 868 1229 10635 4266 1206 589 532 597 709 408
internal_count=34740 22701 8505 14196 12039 4442 1594 13680 3045 1469 4063 3326 10445 4764 2340 1046 1038 1075 2458 1347 868 1229 10635 4266 1206 589 532 597 709 408
cat_boundaries=0 1 5 6 15 19 28 29 37 42 43 47 50 51 56 57 65 66 67 68 72 80 88 89 95 100 101 102 106 115 119
cat_threshold=85 2097152 4294950912 147487 469843970 20 12288 0 0 41944064 0 0 0 0 1048576 273802137 8320 93127424 44695672 331780 0 266240 49152 2147586120 3221228099 3221225760 1061 1048576 256 131072 0 0 338217472 268435457 2056 7712 25 16910338 4096 4194336768 22058885 1 16 0 0 147456 81922 0 1355153408 4 256 2097152 4294950912 33734687 69634 1 64 266240 0 0 32768 16785920 0 32 16384 9 64 16 50331650 96 2415924224 487630465 0 0 524288 0 16785408 16384 0 16384 0 0 0 0 16785920 0 0 33570816 64 4 0 0 256 25174016 16388 2048 0 4160782336 16778757 1 16 16 16908288 0 3489660928 37632 4096 0 0 49152 16785408 0 0 0 1048576 0 2735833088 10 81920
is_linear=0
shrinkage=0.05


Tree=4
num_leaves=31
num_cat=29
split_feature=3 0 3 1 0 1 3 0 1 3 2 3 0 2 0 0 0 1 3 0 0 3 2 1 2 6 3 2 3 1
split_gain=8036.58 4926.68 1627.46 1089.09 979.102 685.053 622.263 697.049 872.953 610.269 347.445 337.306 521.886 384.925 264.41 177.186 171.558 151.668 138.183 133.231 115.809 115.624 114.403 107.142 234.215 104.973 104.109 103.26 101.253 199.124
threshold=0 1 2 3 4 5 6 7 8 9 10 11 12 13 14 15 16 17 18 19 20 21 22 23 24 1.0000000180025095e-35 25 26 27 28
decision_type=9 9 9 9 9 9 9 9 9 9 9 9 9 9 9 9 9 9 9 9 9 9 9 9 9 2 9 9 9 9
left_child=1 2 5 -3 9 20 28 8 16 10 -2 12 -6 -14 21 -15 -8 -10 -16 -19 26 -7 -18 24 -9 -21 -1 -4 -5 -30
right_child=4 3 27 6 11 14 7 23 17 -11 -12 -13 13 15 18 -17 22 19 -20 25 -22 -23 -24 -25 -26 -27 -28 -29 29 -31
leaf_value=92.913777343749985 129.879339375 -110.09803031250001 8.765854765624999 1500.7091300781249 -110.03810750000001 33.491249062499996 -68.231645234374994 -40.16638078125002 153.82798328125 -64.205767812500014 -30.515416093750016 -126.42576781250003 -71.942690312500005 -24.481119218749996 257.11555531250002 47.051092031250008 -49.466380781250024 -21.110406953124993 25.070189218750023 -1.8497432812499939 -93.36708828125002 -52.624554999999987 51.702039824218758 225.17109960937501 182.03931281250004 85.221099609375017 -42.260766406250006 -86.376965625000011 164.92572609375003 374.52156906250002
leaf_weight=116 781 604 109 4302 2316 337 955 176 801 544 269 5693 1022 739 890 675 149 288 890 297 844 337 362 2768 487 928 116 3126 1320 2499
leaf_count=116 781 604 109 4302 2316 337 955 176 801 544 269 5693 1022 739 890 675 149 288 890 297 844 337 362 2768 487 928 116 3126 1320 2499
internal_value=-0.00183074 0.0156818 -0.0200517 0.0308541 -0.0348369 0.00344633 0.0334572 0.0226769 0.00781003 0.00174564 0.0239623 -0.0404161 -0.0303654 -0.0140638 0.0180195 0.00287921 -0.02229 0.0268933 0.0281006 0.0173014 -0.0296501 -0.00862573 0.0012476 0.0389858 0.0199851 0.0244939 0.00206612 -0.045624 0.0429898 0.0366022
internal_weight=34740 22701 6765 15936 12039 3530 15332 7211 3780 1594 1050 10445 4752 2436 2454 1414 1466 2314 1780 1513 1076 674 511 3431 663 1225 232 3235 8121 3819
internal_count=34740 22701 6765 15936 12039 3530 15332 7211 3780 1594 1050 10445 4752 2436 2454 1414 1466 2314 1780 1513 1076 674 511 3431 663 1225 232 3235 8121 3819
cat_boundaries=0 1 5 6 15 19 28 29 34 41 42 43 44 48 49 53 58 63 73 74 78 81 82 83 91 92 93 94 95 103
cat_threshold=85 2097152 4294950912 31 469762050 20 12288 0 0 310378496 0 0 0 0 1048576 5366681 128 93126912 44697720 327684 0 4096 49152 2147594328 1073742403 3221225728 1057 9437184 20 1694631938 7266 2013450240 2165425285 1 0 0 0 33280 16785920 4 32 256 9 256 2097152 4294950912 33734687 69634 64 0 1355153408 0 469762048 117440514 2114 2415924224 487622273 1 2050 0 537051136 16860293 1 0 134217728 134283264 0 0 545259520 268959744 67109376 25428032 1 16 2 64 131072 2147565568 0 69746688 27 16 64 0 0 0 1140899840 8388608 0 0 1 64 16 8 16 4 0 0 49664 25165824 16384 32 1
is_linear=0
shrinkage=0.05


Tree=5
num_leaves=31
num_cat=30
split_feature=3 0 3 0 1 1 3 3 1 0 0 0 3 0 2 2 1 1 1 2 0 3 0 0 1 3 3 0 1 2
split_gain=7655.86 4829.76 1658.71 969.168 930.237 897.038 579.776 438.876 552.449 746.194 369.826 353.474 343.931 506.003 363.138 314.012 302.33 236.311 156.655 152.82 153.923 126.148 112.283 106.962 104.209 104.192 84.3904 86.545 75.4053 72.3831
threshold=0 1 2 3 4 5 6 7 8 9 10 11 12 13 14 15 16 17 18 19 20 21 22 23 24 25 26 27 28 29
decision_type=9 9 9 9 9 9 9 9 9 9 9 9 9 9 9 9 9 9 9 9 9 9 9 9 9 9 9 9 9 9
left_child=1 2 4 6 26 -3 15 -7 9 19 16 17 13 -5 28 -2 -4 -6 -16 -9 -21 -13 -20 29 -23 -19 27 -1 -15 -11
right_child=3 5 10 12 11 7 -8 8 -10 23 -12 21 -14 14 18 -17 -18 25 22 20 -22 24 -24 -25 -26 -27 -28 -29 -30 -31
leaf_value=-103.34873386718753 117.62086303124998 -99.318128796875001 -84.926312972656277 -103.356827125 -52.393468136718766 820.4637142773438 -61.945479421875007 -52.678536019531293 167.46254462890624 214.450840421875 -82.083117343750004 372.25977754687506 -120.27947942187502 6.6592254531249866 -65.705477726562506 -28.989645289062516 38.527268101562505 132.16668660937498 -9.8396201328125024 97.334729571289117 -33.652320550781226 -4.3072718867187403 74.560016382812506 182.83023126953128 68.51167975781253 -0.87726474999999482 -89.998733867187525 -2.7254062070312788 -74.012024546874997 -3.8957891787109022
leaf_weight=231 812 504 539 2404 490 7261 561 631 3330 204 3017 964 5676 101 333 269 507 357 448 244 535 286 558 1164 678 357 655 424 877 323
leaf_count=231 812 504 539 2404 490 7261 561 631 3330 204 3017 964 5676 101 333 269 507 357 448 244 535 286 558 1164 678 357 655 424 877 323
internal_value=-0.00204951 0.0150434 -0.0147446 -0.0342643 0.00637916 0.0328875 0.00151332 0.0353087 0.0256715 0.0103986 -0.0377977 0.0211649 -0.0399106 -0.0297294 -0.0129136 0.0228689 -0.0118371 -0.000164745 0.00404003 -0.0164085 -0.00145754 0.0344169 0.013878 0.032716 0.0210472 0.0180939 -0.0288636 -0.0155639 -0.0359312 0.0133147
internal_weight=34740 22701 8505 12039 4442 14196 1642 13692 6431 3101 4063 3132 10397 4721 2317 1081 1046 1204 1339 1410 779 1928 1006 1691 964 714 1310 655 978 527
internal_count=34740 22701 8505 12039 4442 14196 1642 13692 6431 3101 4063 3132 10397 4721 2317 1081 1046 1204 1339 1410 779 1928 1006 1691 964 714 1310 655 978 527
cat_boundaries=0 1 5 6 10 19 28 29 30 38 43 47 50 51 55 56 57 65 74 83 84 88 89 94 98 106 107 108 112 121 122
cat_threshold=85 2097152 4294950912 147487 469843970 20 5366425 128 93127552 44697720 266246 0 4096 49152 2164887640 38979 3221225760 132133 1048576 12288 0 0 270534656 0 0 0 0 1048576 256 20 196612 0 262656 1174454784 25174528 12 32 17 16910338 1122 4194336768 17827461 1 0 0 147456 81922 2097152 1905655808 4 256 2097152 4294950912 33734687 69635 64 9 266240 0 0 32768 16785920 0 32 16384 0 0 786432 0 8192 3221242368 2097152 16384 8519680 4096 0 0 49152 0 0 0 0 1048576 64 2048 0 3623878656 512 16 50331650 64 268436480 17860224 1 1677721608 6144 4096 4231440 0 0 0 0 8704 0 0 16384 16 16 0 14024704 0 469843968 0 134217728 134217744 0 0 0 0 512 8650752 8
is_linear=0
shrinkage=0.05


Tree=6
num_leaves=31
num_cat=30
split_feature=3 0 3 1 0 0 1 3 3 3 0 0 2 2 2 1 2 0 0 3 3 2 1 1 1 3 0 1 1 1
split_gain=7235.31 4422.64 1542.37 1004.26 1288.12 957.786 846.451 623.867 526.974 347.248 504.549 339.714 339.221 308.683 299.201 244.469 235.393 174.521 173.096 156.499 124.949 118.322 117.983 111.135 107.466 105.926 162.959 238.051 100.069 99.162
threshold=0 1 2 3 4 5 6 7 8 9 10 11 12 13 14 15 16 17 18 19 20 21 22 23 24 25 26 27 28 29
decision_type=9 9 9 9 9 9 9 9 9 9 9 9 9 9 9 9 9 9 9 9 9 9 9 9 9 9 9 9 9 9
left_child=1 2 6 4 7 8 -1 28 14 10 -7 15 -12 24 -2 19 17 -9 22 -8 -13 -6 -14 -22 -4 -5 27 -27 -3 -15
right_child=5 3 13 25 21 9 11 16 -10 -11 12 20 18 29 -16 -17 -18 -19 -20 -21 23 -23 -24 -25 -26 26 -28 -29 -30 -31
leaf_value=-77.366994095703149 113.83431987968748 -62.977222357031252 -89.929372324023447 1101.2648034853516 46.953222122070315 -100.64317326874999 4.573301496679699 -62.66218733105466 -57.548205450781261 -114.24050545078128 -64.04506394453125 320.78628468124998 -75.322183121484372 -20.578961476562498 -27.540163024609388 44.858315878710961 -79.669319819262682 24.752282963061511 42.416521454296891 -56.087401298925784 -8.5246179134765612 358.69069953222663 0.17312558593749827 60.461095769921897 67.142935946484371 -11.72588643066406 187.11857450683593 107.14120813486329 288.87057059472659 -82.378961476562495
leaf_weight=1190 801 102 110 4754 500 2143 334 505 560 5677 1110 942 278 329 269 528 906 620 733 334 298 2256 468 644 309 509 2566 1154 651 3160
leaf_count=1190 801 102 110 4754 500 2143 334 505 560 5677 1110 942 278 329 269 528 906 620 733 334 298 2256 468 644 309 509 2566 1154 651 3160
internal_value=-0.0025072 0.0141099 -0.0152907 0.0306647 0.0138559 -0.0338244 0.00549065 -0.0101288 0.00189024 -0.0394136 -0.0292071 0.0193204 -0.014217 -0.037953 0.0224074 -0.00157546 -0.0245223 -0.00903084 0.00151108 -0.0215339 0.0325238 0.0380333 -0.0153439 0.0191176 0.00291375 0.0410041 0.0348549 0.0222654 0.0285059 -0.0428551
internal_weight=34740 22701 8178 14523 5540 12039 4270 2784 1630 10409 4732 3080 2589 3908 1070 1196 2031 1125 1479 668 1884 2756 746 942 419 8983 4229 1663 753 3489
internal_count=34740 22701 8178 14523 5540 12039 4270 2784 1630 10409 4732 3080 2589 3908 1070 1196 2031 1125 1479 668 1884 2756 746 942 419 8983 4229 1663 753 3489
cat_boundaries=0 1 5 6 15 20 24 33 34 35 36 40 43 44 45 46 55 56 61 66 67 68 69 78 86 91 92 97 105 106 115
cat_threshold=85 2097152 4294950976 16415 469843970 20 143360 0 0 1571340800 285212673 2088 7712 25 1048576 16910346 0 3120726016 2169509509 1 5366681 128 93127040 44697720 331782 0 4096 49152 2164887624 4163 3221225728 132133 1048576 16 256 256 2097152 4294950912 302006303 69634 2097152 1892024320 4 64 8 9 0 0 786432 24 8192 3221275136 6291552 201342976 8519680 9 0 0 167936000 16778373 1 1124073474 64 2147653120 470812289 1 16 16 64 4096 0 0 32768 16785408 0 0 0 1048576 0 0 0 0 8704 0 32 16384 4096 0 0 32768 16777216 20 2147680288 1 2013954048 16778244 1 4 0 0 0 8704 4 0 16384 4096 768 1811939328 134316032 33554432 0 65536 536870913 67108864 17088640
is_linear=0
shrinkage=0.05


Tree=7
num_leaves=31
num_cat=29
split_feature=3 0 3 1 0 0 1 3 3 0 2 3 1 2 2 1 0 3 0 3 3 0 0 1 2 1 1 0 0 6
split_gain=6807.77 4130.86 1469.95 1012.2 945.2 865.848 657.58 491.578 351.715 542.47 350.855 336.482 317.773 295.247 274.021 305.345 350.355 395.839 214.509 217.132 210.521 198.23 147.177 128.864 128.781 126.719 126.019 118.625 114.468 105.063
threshold=0 1 2 3 4 5 6 7 8 9 10 11 12 13 14 15 16 17 18 19 20 21 22 23 24 25 26 27 28 1.5000000000000002
decision_type=9 9 9 9 9 9 9 9 9 9 9 9 9 9 9 9 9 9 9 9 9 9 9 9 9 9 9 9 9 2
left_child=1 2 12 5 7 11 18 13 9 -6 -11 28 -1 -2 15 16 -5 -18 -4 -20 26 23 25 -14 -13 -12 -8 -28 -3 -17
right_child=4 3 6 14 8 -7 20 -9 -10 10 22 24 21 -15 -16 29 17 -19 19 -21 -22 -23 -24 -25 -26 -27 27 -29 -30 -31
leaf_value=-80.09411385205081 119.64260388570311 -61.964512712094759 130.92873694774903 121.37269059687506 -97.611202105312486 248.41130063178713 -81.226318062792984 -54.295795178242201 -108.42848017824222 -56.238951372304683 -36.329917715410168 -36.479744802498793 -53.87412271487306 -26.163154873378929 502.12113552309569 109.13764578149413 396.92872694718756 -37.992396508841559 49.038040981425802 -27.650013402734363 -78.482406326464854 268.5541816346875 38.600140459707042 65.665436484970684 -97.393756366068104 15.708241531054671 -45.372082395405258 4.160474814619147 183.5944264399902 198.97130980019534
leaf_weight=304 757 120 367 592 2124 1583 512 554 5683 1137 483 769 219 269 6581 1150 255 705 229 421 3240 1075 704 533 620 328 599 661 404 1762
leaf_count=304 757 120 367 592 2124 1583 512 554 5683 1137 483 769 219 269 6581 1150 255 705 229 421 3240 1075 704 533 620 328 599 661 404 1762
internal_value=-0.00290731 0.0132117 -0.0152509 0.0291836 -0.0332849 0.00567598 -0.0278606 0.00283019 -0.0387382 -0.0285416 -0.0133358 -0.0169267 0.0203877 0.0232625 0.0366124 0.026844 0.00877081 -0.00989691 0.00881207 -0.00848485 -0.0353047 0.0282798 0.00245902 0.00826772 -0.0297713 -0.0119976 -0.0210999 -0.0123622 0.0170412 0.0364134
internal_weight=34740 22701 8160 14541 12039 3496 6029 1580 10459 4776 2652 1913 2131 1026 11045 4464 1552 960 1017 650 5012 1827 1515 752 1389 811 1772 1260 524 2912
internal_count=34740 22701 8160 14541 12039 3496 6029 1580 10459 4776 2652 1913 2131 1026 11045 4464 1552 960 1017 650 5012 1827 1515 752 1389 811 1772 1260 524 2912
cat_boundaries=0 1 6 7 16 20 24 33 34 35 39 40 41 50 51 52 60 64 65 70 71 72 75 80 88 89 97 106 108 112
cat_threshold=85 2097152 4294950976 131103 469843968 1 16 405504 0 0 279495232 268435465 0 5664 24 1048576 5366425 128 93127040 1084885112 16910346 0 3120611328 1095800455 784 1845493760 1208057864 0 32 65536 570425473 1140851200 25477608 256 256 2097152 4294950912 268484639 469827586 64 16 4096 0 0 49152 0 0 1073741824 0 1048576 9 64 4 0 262144 0 25174528 16396 0 1 8200 0 117440512 4237688 16 0 0 131072 81920 1 4 4 0 1892024320 4 50331906 2114 33691136 51418753 1 0 0 524288 0 16785472 16384 0 16385 9 4096 0 0 32776 16785920 4 32 16384 4 0 0 49152 16785408 0 0 1 1048576 2097152 1892057088 0 0 134234112 16778242
is_linear=0
shrinkage=0.05


Tree=8
num_leaves=31
num_cat=28
split_feature=3 0 0 3 1 3 2 0 0 1 3 1 1 0 1 2 0 1 0 3 0 1 0 4 0 3 1 3 3 5
split_gain=6456.61 2762.14 1568.07 2324.82 1004.17 900.873 833.014 602.241 489.727 720.593 536.734 459.267 364.659 230.452 225.497 221.512 176.973 162.817 156.371 136.653 141.422 117.405 112.83 111.455 105.623 98.4043 95.3812 91.269 87.2371 102.74
threshold=0 1 2 3 4 5 6 7 8 9 10 11 12 13 14 15 16 17 18 19 20 21 22 4.5000000000000009 23 24 25 26 27 6.5000000000000009
decision_type=9 9 9 9 9 9 9 9 9 9 9 9 9 9 9 9 9 9 9 9 9 9 9 8 9 9 9 9 9 10
left_child=1 4 -2 6 19 23 12 14 9 10 -3 22 -4 21 -8 18 25 -9 -12 20 -1 -13 -7 -6 26 -14 -19 -15 -11 -30
right_child=2 8 3 -5 5 11 7 17 -10 28 15 13 16 27 -16 -17 -18 24 -20 -21 -22 -23 -24 -25 -26 -27 -28 -29 29 -31
leaf_value=25.977414184301757 -102.53064200004688 361.2237977888355 25.279839946310531 -84.80705616933011 14.782164660722152 -10.725963186665275 -37.210568226905252 -107.70268778682073 563.96150529117926 1481.5170353991991 -49.237712787508542 -23.84549288207095 73.86971016385742 -29.637966284321511 28.404980557218735 -57.260928751952306 -63.146224449873287 22.965688358596665 69.126514123352692 -93.505666467697324 -72.957068959353265 35.28371871918042 71.586138932354515 263.84889426112971 249.90559869141794 -23.079766091699721 156.54827478658936 -54.560893086411127 165.53410268823484 73.062788239309086
leaf_weight=243 5561 829 530 4373 275 166 919 100 4823 1205 370 478 223 772 667 696 1576 563 550 1465 490 500 601 1370 1307 310 628 772 1632 746
leaf_count=243 5561 829 530 4373 275 166 919 100 4823 1205 370 478 223 772 667 696 1576 563 550 1465 490 500 601 1370 1307 310 628 772 1632 746
internal_value=-0.00333909 0.0174651 -0.0256605 -0.0148492 -0.0067068 0.00582524 0.00340261 0.0172628 0.0333441 0.023733 0.00274949 -0.00929069 -0.0185542 -0.0195893 -0.00701754 -0.0140221 -0.0278669 0.0320552 0.00215054 -0.0347373 -0.0164872 -0.000506073 0.0243887 0.0359215 0.0346093 -0.00267035 0.0232723 -0.0315959 0.0380045 0.0319933
internal_weight=34740 17983 16757 11196 7132 4934 6823 4184 10851 6028 2445 3289 2639 2522 1586 1616 2109 2598 920 2198 733 978 767 1645 2498 533 1191 1544 3583 2378
internal_count=34740 17983 16757 11196 7132 4934 6823 4184 10851 6028 2445 3289 2639 2522 1586 1616 2109 2598 920 2198 733 978 767 1645 2498 533 1191 1544 3583 2378
cat_boundaries=0 1 6 10 11 20 21 22 27 31 39 40 49 59 64 72 73 77 85 89 90 93 101 104 108 109 117 118 119
cat_threshold=84 2097152 4227317760 180255 469843970 1 2097154 4294950976 16415 469827586 257 331780 0 4096 49152 2148118616 1091 3221225760 1061 1048576 16 64 3884974080 7467 302159360 2165311105 1 133186 67646784 3122664448 3239090053 12292 0 0 44090880 16785417 12 32 8 16 784 1811939328 167870472 0 32 67174400 805306497 1140851200 17088992 0 134217728 134283408 0 0 578813952 403177472 67109376 25559106 1 2097152 2283814912 180243 16386 1 69632 0 0 49664 16785920 4 32 16384 9 8200 0 117440512 4202600 135168 0 0 16384 0 0 0 1 131074 67633152 167772160 1049729 16 0 2317434880 180241 0 0 0 0 16777728 0 64 16384 0 1619132416 4 134416648 20 2684879008 1109962756 1 0 0 0 33280 25174528 8 32 2 4 16
is_linear=0
shrinkage=0.05


Tree=9
num_leaves=31
num_cat=29
split_feature=3 0 3 1 0 0 1 3 3 1 0 1 2 3 0 3 2 0 2 2 0 2 0 5 3 1 0 1 0 3
split_gain=6126.84 3663.68 1335.95 1110.51 1329.81 926.953 694.735 679.892 387.782 364.386 296.625 266.443 242.979 225.729 207.89 302.845 210.656 222.144 202.368 191.759 184.308 165.349 232.158 160.796 181.422 159.287 170.055 139.477 128.478 127.156
threshold=0 1 2 3 4 5 6 7 8 9 10 11 12 13 14 15 16 17 18 19 20 21 22 6.5000000000000009 23 24 25 26 27 28
decision_type=9 9 9 9 9 9 9 9 9 9 9 9 9 9 9 9 9 9 9 9 9 9 9 10 9 9 9 9 9 9
left_child=1 2 6 4 7 8 -1 27 12 28 11 -8 -2 -6 -11 16 -16 -18 -4 -15 29 22 -9 -5 -25 26 -26 -3 -7 -21
right_child=5 3 18 23 13 9 10 21 -10 14 -12 -13 -14 19 15 -17 17 -19 -20 20 -22 -23 -24 24 25 -27 -28 -29 -30 -31
leaf_value=-67.131609206811603 98.226193756847081 -3.3063473197338911 4.7515850026045428 332.55019952203043 822.09737323482659 14.868254198995011 -42.889777600774408 67.260157896005623 -46.890652610863576 -100.76670336086359 86.951730866505756 36.17418365642591 -23.071210125966289 -16.628365100701558 -62.009067581195779 -83.866703360863596 -60.68943804716519 19.732714279967059 -66.14168421672224 50.830196882464953 203.79689643872962 -59.154671471690563 -55.871161613393454 1337.3406328586261 -41.944576397161292 139.45493268052653 102.27902998544346 390.74336751860335 -40.152995801004977 -42.431575328300738
leaf_weight=1048 769 326 309 5569 2096 372 608 466 564 5127 1706 620 269 425 612 2441 441 728 3342 275 901 1333 733 672 376 703 398 580 716 215
leaf_count=1048 769 326 309 5569 2096 372 608 466 564 5127 1706 620 269 425 612 2441 441 728 3342 275 901 1333 733 672 376 703 398 580 716 215
internal_value=-0.00374496 0.0115473 -0.0166623 0.025839 0.0118886 -0.0325629 0.00338176 -0.0107889 0.00291563 -0.0380061 0.0158628 -0.00290792 0.0209924 0.031795 -0.041217 -0.0327032 -0.0167783 -0.00419847 -0.0384731 0.0186199 0.0275874 -0.0240755 -0.0103805 0.0390916 0.0275244 0.0173167 0.00153061 0.0262009 -0.0102914 0.0026
internal_weight=34740 22701 7633 15068 7350 12039 3982 3438 1602 10437 2934 1228 1038 3912 9349 4222 1781 1169 3651 1816 1391 2532 1199 7718 2149 1477 774 906 1088 490
internal_count=34740 22701 7633 15068 7350 12039 3982 3438 1602 10437 2934 1228 1038 3912 9349 4222 1781 1169 3651 1816 1391 2532 1199 7718 2149 1477 774 906 1088 490
cat_boundaries=0 1 5 6 15 20 24 33 34 35 45 48 57 58 59 64 65 66 70 71 72 75 76 80 81 89 94 103 107 108
cat_threshold=85 2097154 4227842112 16415 2617262082 20 208900 0 0 1571340800 294658568 2088 32 25 1048576 16910336 67108864 3120726016 17892997 1 4318105 128 93129472 1082787960 331782 0 4096 49152 2148112472 1073778755 3221225728 132133 1048576 16 256 0 134217728 134283280 0 0 549453824 403178500 2215117312 277086274 1 0 1908801536 4 0 0 786432 8 16785408 2147500544 6291456 16384 8388608 9 20 2097152 4225204224 33734686 16844291 1 256 64 50331650 69746752 2415923201 504369152 8 64 1720713224 7483 5632 8 133120 0 2952790016 512 16 0 0 786432 8 0 0 0 33570816 0 67108864 704806912 16843909 1 4096 0 0 33280 0 0 0 0 1048576 16910336 0 2147532800 20980357 64
is_linear=0
shrinkage=0.05


Tree=10
num_leaves=31
num_cat=28
split_feature=3 0 0 3 1 3 2 1 0 0 0 1 1 3 0 1 1 3 2 3 3 0 2 0 1 1 3 0 4 5
split_gain=5936.14 2424.13 1539.55 2058.26 1076.48 808.178 768.454 578.592 539.389 452.973 430.771 346.705 278.21 276.744 330.038 331.469 269.35 268.421 179.836 179.628 173.241 162.135 146.933 142.755 138.841 136.38 113.808 112.897 106.029 100.304
threshold=0 1 2 3 4 5 6 7 8 9 10 11 12 13 14 15 16 17 18 19 20 21 22 23 24 25 26 27 4.5000000000000009 6.5000000000000009
decision_type=9 9 9 9 9 9 9 9 9 9 9 9 9 9 9 9 9 9 9 9 9 9 9 9 9 9 9 9 8 10
left_child=1 4 -2 6 20 28 11 10 16 24 17 -4 -11 -9 15 18 -8 -3 -15 29 21 -1 -12 -20 -7 -10 -26 -27 -6 -13
right_child=2 7 3 -5 5 9 8 13 25 12 22 19 -14 14 -16 -17 -18 -19 23 -21 -22 -23 -24 -25 26 27 -28 -29 -30 -31
leaf_value=19.309507164052082 -93.052276775572665 114.828421893113 -63.252036366438972 -76.278368192820409 14.874964067873202 -46.853650764598598 75.660823905167831 1546.5314507551441 -101.79372277051864 -19.704590195967992 -49.77876285913085 55.641381537876491 46.809245442411502 -21.496996672217392 250.04951099242791 146.13431904040218 -26.386622049549601 -53.884800922691696 -10.255940323923916 -22.119239202135986 -84.047567531881398 -77.890828048572303 347.80455810503906 192.47605814366958 16.614329011585621 60.346798490723614 -21.300764221254465 282.44476569805073 273.53973409735266 -38.336092760016165
leaf_weight=352 5561 454 1108 4373 273 848 311 3037 101 742 165 567 983 703 2316 1609 1313 824 377 847 1652 474 848 469 281 1298 281 1161 1295 117
leaf_count=352 5561 454 1108 4373 273 848 311 3037 101 742 165 567 983 703 2316 1609 1313 824 377 847 1652 474 848 469 281 1298 281 1161 1295 117
internal_value=-0.00398964 0.015959 -0.0253921 -0.0146796 -0.00655681 0.00750053 0.00249524 0.0309193 0.0158083 -0.00717011 0.00849631 -0.0185919 0.01 0.0369382 0.0300511 0.0193813 -0.00673195 -0.0107919 0.00279025 -0.00308241 -0.0331592 -0.0139952 0.0326979 0.0182243 -0.0280986 0.0300778 -0.00839161 0.0324625 0.036692 0.0158501
internal_weight=34740 17983 16757 11196 7181 4703 6823 10802 4184 3135 2291 2639 1725 8511 5474 3158 1624 1278 1549 1531 2478 826 1013 846 1410 2560 562 2459 1568 684
internal_count=34740 17983 16757 11196 7181 4703 6823 10802 4184 3135 2291 2639 1725 8511 5474 3158 1624 1278 1549 1531 2478 826 1013 846 1410 2560 562 2459 1568 684
cat_boundaries=0 1 6 10 11 20 21 22 31 36 39 43 52 61 62 66 74 83 84 85 86 87 92 93 97 107 115 116 120
cat_threshold=84 2097152 4227317760 134365215 469843970 1 2097154 4294950976 16415 469827586 257 331780 0 4096 49152 2164371544 1073742915 3221225760 1061 1048576 16 64 208900 0 0 178308608 268435465 0 0 24 1048576 3884974080 7467 33723904 2165311109 1 2097152 1909915648 12 84019210 67633218 2986443776 1094751941 4096 0 0 49664 25174528 8 32 0 1048576 0 0 0 12 524800 8192 0 3221250048 8192 16 16910338 67633250 4060123200 17864085 0 0 262144 0 25174528 12 32 16385 0 134217728 134283280 0 0 8388616 268959748 67633664 277086208 16 64 1 16 2097152 2317434880 147483 2 1 64 16908288 67633152 570458112 1153 2 0 786560 24 2048 2147668480 6291520 201476096 8389696 1 4096 0 0 16384 0 0 0 3 4 407046409 148 2953314464 1109962752
is_linear=0
shrinkage=0.05


Tree=11
num_leaves=31
num_cat=28
split_feature=3 0 0 3 1 3 2 1 0 0 3 0 1 1 4 1 0 3 1 2 0 2 0 3 3 0 3 5 1 3
split_gain=5671.84 2310.8 1521.52 1899.09 885.866 748.835 703.84 690.536 532.99 480.587 339.248 352.307 363.106 334.887 255.038 227.394 201.889 177.03 175.007 171.566 169.157 168.074 169.161 163.473 157.534 143.989 137.975 143.584 104.569 96.9739
threshold=0 1 2 3 4 5 6 7 8 9 10 11 12 13 4.5000000000000009 14 15 16 17 18 19 20 21 22 23 24 25 4.5000000000000009 26 27
decision_type=9 9 9 9 9 9 9 9 9 9 9 9 9 9 8 9 9 9 9 9 9 9 9 9 9 9 9 8 9 9
left_child=1 4 -2 6 23 14 13 8 17 15 -9 12 21 -4 28 -8 29 -3 -11 -10 -7 -12 -23 25 -16 -1 27 -5 -6 -15
right_child=2 7 3 26 5 20 9 10 19 18 11 -13 -14 16 24 -17 -18 -19 -20 -21 -22 22 -24 -25 -26 -27 -28 -29 -30 -31
leaf_value=36.370189922678904 -88.399662936794016 33.357297701459686 22.150365216144294 -2.4094497831793888 -50.491319452616636 -3.6301362732166016 54.313367942331325 1406.8428186279032 -46.401903479688087 17.94134556424666 -20.51205588860644 248.9987973069544 134.43632817358235 69.411015730296143 234.61274739248506 -27.461938136110167 -55.542027242029192 -64.967723947971223 177.20250615698853 342.98398499512024 -35.608081683024537 -8.4985658841029359 185.78715086488876 -78.501147175596088 22.424825335560651 -62.92841036556247 -91.661949783179395 -53.809449783179389 8.1524748766292188 -21.223182054612302
leaf_weight=209 5561 434 519 395 242 546 338 3247 198 692 817 2202 1871 229 1151 1135 1571 798 2019 875 875 501 489 1524 1151 553 2084 1894 300 320
leaf_count=209 5561 434 519 395 242 546 338 3247 198 692 817 2202 1871 229 1151 1135 1571 798 2019 875 875 501 489 1524 1151 553 2084 1894 300 320
internal_value=-0.00418538 0.0153143 -0.0251059 -0.0144565 -0.00836001 0.00511111 0.00204156 0.0288761 0.00434125 0.014783 0.0350607 0.0277589 0.018167 -0.0181389 0.0199019 -0.00819285 -0.0269484 -0.0180354 0.027251 0.0299631 -0.0244235 0.00211888 0.0159 -0.0334059 0.0272372 -0.0139896 -0.0401437 -0.0312092 -0.0108856 -0.000626118
internal_weight=34740 17983 16757 11196 6551 4265 6823 11432 2305 4184 9127 5880 3678 2639 2844 1473 2120 1232 2711 1073 1421 1807 990 2286 2302 762 4373 2289 542 549
internal_count=34740 17983 16757 11196 6551 4265 6823 11432 2305 4184 9127 5880 3678 2639 2844 1473 2120 1232 2711 1073 1421 1807 990 2286 2302 762 4373 2289 542 549
cat_boundaries=0 1 6 10 11 20 21 22 31 35 40 41 45 53 63 72 76 77 85 86 91 92 96 97 98 101 102 111 112
cat_threshold=84 2097154 4160208896 131103 2617327618 1 2097154 4294950976 16415 469827586 257 266244 0 4096 49152 2164895832 2147517507 3221225760 132133 1048576 20 64 208896 0 1073741824 41993728 8 0 0 0 1048576 16910344 134742080 3120677888 1095763653 4018143232 7471 33723904 2165310593 1 16 1090652160 134742115 4194358272 22058389 4 0 262144 0 25174528 12 32 16401 0 134217728 134283408 0 0 570425344 403177472 67109376 25559106 1 0 134217728 134807568 0 0 8388608 268959748 67109376 277086272 8192 0 117440512 4202616 16 135168 0 0 49664 8388608 8 32 3 64 2 2147516416 131072 81922 1 64 16908288 134742114 704692224 1153 16 16 2097152 2250326016 131097 32 2 0 524288 8 0 16896 0 134234112 8519680 1
is_linear=0
shrinkage=0.05


Tree=12
num_leaves=31
num_cat=29
split_feature=3 0 1 3 0 0 1 3 1 0 3 3 0 1 2 0 1 3 2 1 0 2 3 0 3 6 0 1 0 3
split_gain=5493.33 3290.1 1230.58 1182.26 1156.71 870.332 617.194 443.013 393.41 317.405 299.101 287.077 320.854 355.881 231.554 210.942 210.683 192.137 183.588 182.714 159.897 152.396 150.97 136.99 128.569 127.565 120.549 120.409 116.927 112.988
threshold=0 1 2 3 4 5 6 7 8 9 10 11 12 13 14 15 16 17 18 19 20 21 22 23 24 1.0000000180025095e-35 25 26 27 28
decision_type=9 9 9 9 9 9 9 9 9 9 9 9 9 9 9 9 9 9 9 9 9 9 9 9 9 2 9 9 9 9
left_child=1 3 4 6 7 10 -1 20 28 27 18 -4 13 -13 17 22 -5 -6 -2 29 -3 26 -10 24 -16 -15 -9 -8 -7 -11
right_child=5 2 11 16 14 8 9 21 15 19 -12 12 -14 25 23 -17 -18 -19 -20 -21 -22 -23 -24 -25 -26 -27 -28 -29 -30 -31
leaf_value=-62.686197671804031 78.705285031860512 -39.640404861213909 1429.2493311844912 -1.829995181489926 763.84715884767422 9.5722227137354832 60.017895558473462 45.353640144768363 -23.362014246506273 46.073441164950651 -39.286729081520413 -5.0337912271977991 219.04119337627705 24.57500728945579 -35.176148882680856 -83.937507749947855 -56.99402410060506 -37.1061547093855 -17.630327255989279 80.565347903660083 228.80468753279189 -74.118525726314786 -76.701352294020424 412.63675644447517 114.81589573670263 117.90455804422992 -47.722095686591324 -37.864930635781882 -40.064262898194642 -22.002014855997437
leaf_weight=904 751 346 2681 352 140 502 102 303 1430 332 573 1324 3068 509 162 7332 3176 364 269 1548 481 1027 502 1445 663 1916 886 640 680 332
leaf_count=904 751 346 2681 352 140 502 102 303 1430 332 573 1324 3068 509 162 7332 3176 364 269 1548 481 1027 502 1445 663 1916 886 640 680 332
internal_value=-0.00455383 0.00992691 0.0231419 -0.0174689 0.00500257 -0.0318408 0.00168046 -0.0162627 -0.0370983 0.012753 0.00265128 0.0342343 0.0286583 0.0187151 0.0283046 -0.0405866 -0.038355 -0.00252918 0.018835 0.0222322 0.0148746 -0.0278976 -0.0254377 0.0351316 0.0182635 0.0300821 -0.0153878 -0.0154255 -0.00964765 0.000148368
internal_weight=34740 22701 15315 7386 5817 12039 3858 3043 10446 2954 1593 9498 6817 3749 2774 9264 3528 504 1020 2212 827 2216 1932 2270 825 2425 1189 742 1182 664
internal_count=34740 22701 15315 7386 5817 12039 3858 3043 10446 2954 1593 9498 6817 3749 2774 9264 3528 504 1020 2212 827 2216 1932 2270 825 2425 1189 742 1182 664
cat_boundaries=0 1 5 14 15 20 24 33 34 44 48 49 50 55 63 64 68 77 78 79 87 92 93 94 98 99 103 113 117 118
cat_threshold=85 2097154 4294950976 131103 2617311232 471040 0 0 1504232000 294649864 32 32 25 1048576 20 16910344 2 3120611328 22038167 1 273801881 8324 93126912 1084360824 327680 0 4096 49152 2164887576 3221258307 3223322880 1057 1048576 16 0 134217728 134283280 0 0 549453832 403178628 2215117312 277086274 1 2097152 1350959104 0 469762048 256 16 2164391940 129 2046869504 16798855 1 4 0 0 0 8704 16396 0 16384 64 4018145536 3387 3221229184 2185797888 4864 1811939328 134316032 2 0 67108864 1 512 8683648 16 9 6 0 262144 16 10752 0 4194336 155652 0 0 134266880 16794630 1 9 288 1719664640 15657 71168 1073774592 1 131072 0 2952790016 4194816 0 2147483648 33554444 0 32 131072 268435456 0 0 1 133120 0 2684534784 20980357 16
is_linear=0
shrinkage=0.05


Tree=13
num_leaves=31
num_cat=28
split_feature=3 0 3 0 1 0 1 1 0 2 3 0 1 2 0 2 0 3 3 5 1 2 2 1 0 0 0 5 3 0
split_gain=5350.86 2517.76 2540.12 1228.3 917.624 810.316 800.579 516.592 407.03 393.465 228.511 223.029 222.714 220.616 199.488 185.021 183.552 168.18 163.966 157.416 132.928 132.7 129.204 147.967 157.617 125.933 120.636 115.577 113.647 112.485
threshold=0 1 2 3 4 5 6 7 8 9 10 11 12 13 14 15 16 17 18 4.5000000000000009 19 20 21 22 23 24 25 6.5000000000000009 26 27
decision_type=9 9 9 9 9 9 9 9 9 9 9 9 9 9 9 9 9 9 9 8 9 9 9 9 9 9 9 10 9 9
left_child=3 12 4 6 5 15 -1 8 -5 11 -8 -6 28 -7 -12 -3 -11 19 -9 -4 27 -10 23 24 -20 -15 -17 -13 -2 -24
right_child=1 2 17 7 9 13 10 18 21 16 14 20 -14 25 -16 26 -18 -19 22 -21 -22 -23 29 -25 -26 -27 -28 -29 -30 -31
leaf_value=-65.9986759188251 2.6329097524115812 -53.363809094881987 -0.77239262744440118 -38.600778386832644 -25.068269242430347 -21.269938355019534 133.62622182942872 1181.1703968286326 -9.3759591568646563 20.877006635945193 42.096580766860363 20.133909655118032 -77.978977489383567 12.688068346135834 -19.270797538795705 -47.656351743373108 230.29559613318352 -83.310380792921222 82.980191240825434 -48.249601906523026 69.211744745301672 587.49049340423801 33.624274508329883 164.68943386580133 -45.996505396170598 163.89931425429674 -3.2656479662689892 -33.913128790237884 -35.588140471904836 539.68820770633351
leaf_weight=1422 292 1473 395 867 885 435 1033 3452 246 881 448 557 6698 807 585 823 2234 2084 210 1894 608 867 459 633 347 853 1021 232 604 1395
leaf_count=1422 292 1473 395 867 885 435 1033 3452 246 881 448 557 6698 807 585 823 2234 2084 210 1894 608 867 459 633 347 853 1021 232 604 1395
internal_value=-0.00467473 -0.0188932 -0.00712217 0.0223902 0.00589241 -0.00864994 -0.00260149 0.0326656 0.0101508 0.0204642 0.0172447 0.00462478 -0.0423856 0.0156532 0.000527325 -0.0240006 0.032016 -0.0392311 0.039502 -0.0294693 0.017022 0.0300534 0.0306811 0.0174167 -0.00149912 0.0239521 -0.0132686 0.00331665 -0.0183223 0.0390558
internal_weight=34740 22776 15182 11964 10809 5412 3488 8476 1980 5397 2066 2282 7594 2095 1033 3317 3115 4373 6496 2289 1397 1113 3044 1190 557 1660 1844 789 896 1854
internal_count=34740 22776 15182 11964 10809 5412 3488 8476 1980 5397 2066 2282 7594 2095 1033 3317 3115 4373 6496 2289 1397 1113 3044 1190 557 1660 1844 789 896 1854
cat_boundaries=0 1 5 6 10 19 24 33 42 47 48 49 54 63 64 68 69 74 75 76 84 85 86 94 98 102 107 108 113
cat_threshold=20 2097154 4294950976 16415 469827586 321 2097152 4057432128 134217742 469843968 208900 0 262144 1286652416 428876297 2056 36 17 1048576 50464776 5378 4194472960 2169558661 1 266240 0 4096 49152 2164898328 1073741891 3223322880 156705 1048576 339968 0 0 33280 8388616 0 32 21 1056768 16910344 168312832 839042065 17826951 1 64 16 0 0 1476526080 56580 1 768 1845493760 1208057864 2 32 201392128 570428417 67109376 295368 64 0 2148630528 134217738 81920 64 16777216 5 302157952 1153 1 32 16 0 0 524288 8 0 0 128 16640 64 64 0 0 262144 0 16785920 4 0 16384 139264 0 385892352 10344 2094006528 10429 640 1107304448 16908288 1024 570589184 2165310593 1 64 2 35651585 33734673 1048705 1
is_linear=0
shrinkage=0.05


Tree=14
num_leaves=31
num_cat=29
split_feature=3 0 1 0 3 0 1 1 3 2 3 5 2 3 2 0 0 3 1 2 0 0 1 2 0 1 3 0 1 0
split_gain=5166.15 2972.57 1229.86 1158.38 946.197 852.311 382.079 362.254 352.873 279.933 261.535 314.555 213.987 213.716 217.93 241.049 208.211 250.269 206.382 198.607 191.882 187.303 177.756 166.654 161.495 161.186 143.898 141.863 132.76 219.113
threshold=0 1 2 3 4 5 6 7 8 9 10 6.5000000000000009 11 12 13 14 15 16 17 18 19 20 21 22 23 24 25 26 27 28
decision_type=9 9 9 9 9 9 9 9 9 9 9 10 9 9 9 9 9 9 9 9 9 9 9 9 9 9 9 9 9 9
left_child=1 4 3 8 18 9 -6 -7 21 -2 -4 28 27 -5 -15 -16 -9 19 20 -18 -1 -3 23 -13 -21 -8 -27 -10 29 -12
right_child=5 2 10 13 6 7 25 16 12 -11 11 22 -14 14 15 -17 17 -19 -20 24 -22 -23 -24 -25 -26 26 -28 -29 -30 -31
leaf_value=-71.003602267894038 471.67147641800051 -48.861063609859755 1336.4917508853355 1172.5157240554888 3.7912000911859196 -12.27254304008526 -65.979027519373886 -79.935560569058055 54.950023282222446 -14.841457996072201 4.4232725273145661 -43.501007716738336 -65.700318224313719 -15.039172094470542 2.8865251323656143 223.96963221200059 -50.614661705480927 -65.625765639673347 106.75916145705885 -36.065477017217063 25.426496113719555 225.03045372191264 103.49455280990264 82.489803238724278 14.709143637383001 -8.2005925181107617 -34.284374244745301 -42.245263066828421 172.03365305790112 155.83518262599566
leaf_weight=354 427 378 2507 898 687 994 2315 4920 373 1305 728 467 1092 505 617 1027 649 2575 1121 469 438 539 718 522 700 854 1565 1008 3019 969
leaf_count=354 427 378 2507 898 687 994 2315 4920 373 1305 728 467 1092 505 617 1027 649 2575 1121 469 438 539 718 522 700 854 1565 1008 3019 969
internal_value=-0.0051468 0.00889657 0.0213923 0.00470762 -0.0172794 -0.0316084 -0.0279414 -0.0370699 -0.0153824 0.000918485 0.0334004 0.0279263 -0.0251913 0.0270363 0.0182723 0.0270859 -0.0401534 -0.0319668 0.0129225 -0.0175055 -0.00660848 0.0110572 0.00957821 -0.00425425 -0.00504665 -0.0330101 -0.0236929 -0.0118979 0.0346268 0.022935
internal_weight=34740 22701 15367 6437 7334 12039 5421 10307 3390 1732 8930 6423 2473 3047 2149 1644 9313 4393 1913 1818 792 917 1707 989 1169 4734 2419 1381 4716 1697
internal_count=34740 22701 15367 6437 7334 12039 5421 10307 3390 1732 8930 6423 2473 3047 2149 1644 9313 4393 1913 1818 792 917 1707 989 1169 4734 2419 1381 4716 1697
cat_boundaries=0 1 5 14 19 20 24 33 43 44 45 46 47 48 49 52 57 58 67 68 72 77 85 86 90 99 100 104 113 118
cat_threshold=85 2097154 4294950976 131103 2617245698 208900 0 0 1505280512 294650376 32 32 25 1048576 1090652168 2050 3087060992 22107781 1 16 273802137 8196 93127424 1086457976 784 1845493760 1208057864 2 32 201392128 570425345 1073741824 8438248 0 134217728 134283280 0 0 549453824 403178500 2215117312 277086210 1 16 8 16 9 16 64 3061841920 13629 33555968 2097152 4292837376 180255 67075 1 256 266240 0 0 49152 16785984 16384 1073741856 24577 1048576 64 0 1893105664 4 469762048 0 0 134266880 16860164 1 0 0 786432 8 8192 8 4 16384 64 33554434 2113728 2449477760 521154560 327686 0 262272 49168 17414232 1073778754 1073741824 155681 1048576 4 131072 0 2952790016 4198912 0 0 262656 71303424 134225920 18444 0 1065218 67108864 33556480 0 671137792 17913349 1
is_linear=0
shrinkage=0.05


Tree=15
num_leaves=31
num_cat=27
split_feature=3 0 0 3 1 1 3 2 0 1 0 3 1 0 1 1 0 2 0 3 3 1 5 0 5 5 1 0 0 2
split_gain=4987.41 2098.14 1403.52 1531.8 853.018 574.838 555.473 532.398 443.184 394.226 377.316 298.945 296.939 272.548 298.704 245.046 236.458 226.888 224.742 204.344 178.437 152.856 147.194 143.789 134.772 133.264 133.176 127.874 123.418 122.741
threshold=0 1 2 3 4 5 6 7 8 9 10 11 12 13 14 15 16 17 18 19 20 21 6.5000000000000009 22 4.5000000000000009 6.5000000000000009 23 24 25 26
decision_type=9 9 9 9 9 9 9 9 9 9 9 9 9 9 9 9 9 9 9 9 9 9 10 9 8 10 9 9 9 9
left_child=1 4 26 7 -1 10 21 12 -9 -8 20 -7 -4 -13 17 -10 25 22 -19 24 -3 23 -15 -6 -5 -11 -2 -14 -17 -12
right_child=2 5 3 19 6 11 9 8 15 16 29 13 27 14 -16 28 -18 18 -20 -21 -22 -23 -24 -25 -26 -27 -28 -29 -30 -31
leaf_value=-66.044869701558198 -25.494464927418065 54.036800811171226 -48.351670300744388 -0.49170009626857336 -40.895724484177279 1197.8872253015622 28.178702056501766 201.42610972121716 63.147363710404719 9.8349257966700634 -41.298966284246085 227.39104867936112 15.546017103910437 7.6186419485418817 153.2138978080101 -27.009359253350603 -33.226021201544647 0.32670081794631189 193.52297562666709 -75.322179838424063 -51.629664398689698 196.90743227125583 -44.860939659117143 68.175029437106176 -42.467720866799247 -37.429163420599799 -75.132234498481381 -19.830141808233364 8.0851241783759633 267.25851712448633
leaf_weight=2013 471 431 1074 393 209 3095 757 1487 539 821 180 1628 643 757 1245 1056 1444 719 865 1977 781 1176 370 314 1816 374 5420 823 1058 804
leaf_count=2013 471 431 1074 393 209 3095 757 1487 539 821 180 1628 643 757 1245 1056 1444 719 865 1977 781 1176 370 314 1816 374 5420 823 1058 804
internal_value=-0.00525619 0.0130301 -0.0248733 -0.0141872 -0.00809216 0.0268305 0.00281097 0.000687593 0.0117349 -0.00886671 0.00389846 0.0326217 -0.0172941 0.025581 0.0183812 -0.000544499 -0.0179879 0.00898567 0.0211418 -0.0378694 -0.01473 0.0260679 -0.00813544 0.0032833 -0.0270617 -0.00145228 -0.0445264 -0.00257453 -0.00823917 0.0267606
internal_weight=34740 17983 16757 10866 7108 10875 5095 6680 4140 3396 2196 8679 2540 5584 3956 2653 2639 2711 1584 4186 1212 1699 1127 523 2209 1195 5891 1466 2114 984
internal_count=34740 17983 16757 10866 7108 10875 5095 6680 4140 3396 2196 8679 2540 5584 3956 2653 2639 2711 1584 4186 1212 1699 1127 523 2209 1195 5891 1466 2114 984
cat_boundaries=0 1 6 11 12 21 30 31 32 36 45 49 50 59 63 71 80 85 86 90 91 92 100 104 113 117 121 122
cat_threshold=84 2097152 4294934528 134234126 2617327622 1 2097154 4294426688 16415 469827586 1 257 69634 0 266240 49728 2164363288 2147490883 1073742112 1061 1048576 77828 0 0 1082180608 24 0 0 8 1048576 16 64 223412 0 1837957440 13003128 784 1811939328 167870568 0 32 201392128 570425473 67109376 16826816 1140983818 18496 2953020945 1094751937 16 4096 0 0 49664 25174528 8 32 1 1048576 4251945 144 92602752 48898152 0 0 786944 33554952 159392256 2060 32 16401 32 134217728 135856144 0 0 29360136 403177476 75497986 277086208 0 2183725056 134234114 81926 1 64 16908288 16458 570589201 1049729 32 16 262144 0 0 0 8768 16384 0 134242304 0 2023129088 4 16384 256 201326592 2281701376 0 0 0 3072 67371520 278592 10248 0 2264924160 4235881 3376414720 531750 33723904 2165311105 64
is_linear=0
shrinkage=0.05


Tree=16
num_leaves=31
num_cat=28
split_feature=3 0 1 0 3 0 1 1 0 3 5 2 0 2 0 3 3 3 1 1 5 2 0 0 0 2 0 3 0 1
split_gain=4816.46 2729.22 1180.6 1076.41 776.788 739.575 633.242 383.331 308.567 288.312 284.947 261.51 255.536 249.508 238.194 259.958 234.657 202.613 201.611 186.743 198.711 176.095 147.66 135.126 132.735 121.056 123.708 119.172 136.106 140.45
threshold=0 1 2 3 4 5 6 7 8 9 6.5000000000000009 10 11 12 13 14 15 16 17 18 6.5000000000000009 19 20 21 22 23 24 25 26 27
decision_type=9 9 9 9 9 9 9 9 9 9 10 9 9 9 9 9 9 9 9 9 10 9 9 9 9 9 9 9 9 9
left_child=1 4 3 11 6 13 23 -7 -8 -5 27 17 -11 -2 -9 22 -12 -3 -6 -10 -21 -18 -16 -1 -23 -14 -27 -4 29 -29
right_child=5 2 10 9 18 7 8 14 19 12 16 -13 25 -15 15 -17 21 -19 -20 20 -22 24 -24 -25 -26 26 -28 28 -30 -31
leaf_value=-67.213820243400022 476.08872852358604 48.993637162131428 801.97824464304938 996.9909612593915 1.5766590668936489 -13.127504519510218 -35.243718496522376 -72.87037790032268 151.67251547618199 130.39388401578094 844.79502557058959 -61.478076963603556 -36.132831992143849 -14.166076482323456 -46.936383433166213 -72.316560592972095 -19.412882623939254 -43.099486340827063 -47.253507747059395 35.75478605443697 -23.641006162883766 -21.180971173551963 -9.1646624834186081 -13.521849607277682 208.06433458285534 -14.404506305823999 98.620222494609067 7.0906522969805339 152.23270741662199 75.429732763493348
leaf_weight=780 412 773 3287 908 345 1171 444 4828 606 746 795 1281 364 1165 2024 1307 802 750 3355 1210 538 225 1132 468 692 510 619 753 1512 938
leaf_count=780 412 773 3287 908 345 1171 444 4828 606 746 795 1281 364 1165 2024 1307 802 750 3355 1210 538 225 1132 468 692 510 619 753 1512 938
internal_value=-0.00553541 0.00802475 0.0204978 0.00319577 -0.0160521 -0.0310856 -0.000887574 -0.0359053 0.0123219 0.0232341 0.031917 -0.0192964 0.0134504 0.000913674 -0.0393237 -0.0307512 0.0176611 -0.00518591 -0.0325876 0.0195431 0.0110922 0.00708502 -0.0228048 -0.0303657 0.0219525 0.00143047 0.0095259 0.0374884 0.0302054 0.0201352
internal_weight=34740 22701 14955 5951 7746 12039 4046 10462 2798 3147 9004 2804 2239 1577 9291 4463 2514 1523 3700 2354 1748 1719 3156 1248 917 1493 1129 6490 3203 1691
internal_count=34740 22701 14955 5951 7746 12039 4046 10462 2798 3147 9004 2804 2239 1577 9291 4463 2514 1523 3700 2354 1748 1719 3156 1248 917 1493 1129 6490 3203 1691
cat_boundaries=0 1 5 14 19 20 24 33 43 47 48 49 53 54 59 60 61 62 71 80 81 85 89 94 95 99 100 105 113
cat_threshold=85 2097154 4294950976 131102 2617327616 471040 0 0 1505280576 1494220824 44 32 25 1048576 16910344 0 3087056897 22021767 1 20 273801369 8196 93127424 1082263672 327680 0 4096 49152 2164373528 3221225539 3223322976 1061 1048576 0 134217728 134283280 1073741824 134217728 549453828 403178500 2215117312 277086274 1 0 1074135040 0 469762048 16 9 5292469 128 67176704 44957792 8 2097152 4292837376 180255 67075 1 288 16 20 768 1744830464 1208057856 33554432 0 65536 33554561 1073742336 17096832 784 1811939328 1241612352 0 32 67174400 570425473 201327104 25479200 64 33685762 2117952 4194308096 2634043780 0 2076606464 131076 134283264 16777216 0 33603585 133 1 64 1677721600 7467 33560064 32768 20 16910336 1 2013315073 17829263 1 4 0 786432 0 8704 16384 0 16384
is_linear=0
shrinkage=0.05


Tree=17
num_leaves=31
num_cat=29
split_feature=3 0 1 0 3 0 1 1 2 0 3 2 0 2 3 0 3 3 1 0 1 1 0 1 2 6 0 2 0 1
split_gain=4544.39 2533.17 1069.95 1131.56 741.438 726.317 393.612 391.655 347.716 280.772 272.326 282.293 278.78 259.924 248.379 237.066 284.359 228.746 224.664 219.185 206.183 176.79 159.986 158.876 157.562 157.519 150.943 128.717 126.627 125.07
threshold=0 1 2 3 4 5 6 7 8 9 10 11 12 13 14 15 16 17 18 19 20 21 22 23 24 2.5000000000000004 25 26 27 28
decision_type=9 9 9 9 9 9 9 9 9 9 9 9 9 9 9 9 9 9 9 9 9 9 9 9 9 2 9 9 9 9
left_child=1 4 3 8 18 14 -7 -6 17 23 -5 -12 -13 19 24 -8 27 -3 22 21 -11 -4 -1 -9 -2 -22 -19 -17 -20 -29
right_child=5 2 13 10 7 6 15 9 -10 20 11 12 -14 -15 -16 16 -18 26 28 -21 25 -23 -24 -25 -26 -27 -28 29 -30 -31
leaf_value=31.989739523474579 532.31963023183243 183.39642219774834 -31.730968729849792 1028.4701303013194 -64.402354242350938 -12.37080252545411 -70.200444836023323 -50.431276455906442 -52.925358059621878 16.510579936339639 -16.960367568980271 5.958883881590646 236.15804436082536 413.89888687974673 -36.360136256609216 -43.298660816909774 -68.865039617143324 57.832624885072534 -20.754757801537039 100.72994775211073 -24.96950497248281 70.827643777216721 -48.242549338799705 -12.968476686873624 0.37036174980371472 3.0058218771764929 -36.439501600996941 -46.850938844387876 117.83994368097329 -5.568150539354872
leaf_weight=242 366 553 601 1105 1722 1153 4443 922 1610 556 682 817 1106 4432 635 1318 1455 347 125 2243 943 440 572 833 691 640 1167 711 1043 1267
leaf_count=242 366 553 601 1105 1722 1153 4443 922 1610 556 682 817 1106 4432 635 1318 1455 347 125 2243 943 440 572 833 691 640 1167 711 1043 1267
internal_value=-0.00586931 0.00730263 0.0191458 0.00552251 -0.0162329 -0.0306872 -0.0356619 -0.0255066 -0.0141172 -0.016624 0.0249731 0.0160038 0.0257889 0.0321641 -0.000235018 -0.0391352 -0.0311384 -0.000505537 0.0100402 0.0213115 -0.00439739 0.00223597 -0.0100728 -0.0314164 0.0145736 -0.0135907 -0.0105643 -0.0228373 0.0240238 -0.0145875
internal_weight=34740 22701 15103 7387 7598 12039 10347 5616 3677 3894 3710 2605 1923 7716 1692 9194 4751 2067 1982 3284 2139 1041 814 1755 1057 1583 1514 3296 1168 1978
internal_count=34740 22701 15103 7387 7598 12039 10347 5616 3677 3894 3710 2605 1923 7716 1692 9194 4751 2067 1982 3284 2139 1041 814 1755 1057 1583 1514 3296 1168 1978
cat_boundaries=0 1 5 14 19 20 24 34 43 44 48 49 50 54 55 56 61 62 63 72 76 85 93 96 106 107 111 112 114 123
cat_threshold=85 2097154 4294426688 147487 2617245698 208900 0 0 1505280512 1502618120 40 32 25 1048576 1627523080 524290 3087044608 17909381 1 16 810672281 8212 93128448 1082263672 0 134217728 134283280 1073741824 0 549453828 403178500 2215117312 277086274 1 327686 0 262144 49168 2148116568 3221229635 1073742080 8229 1048576 9 2097152 1908801536 4 2617245696 16 64 2660237312 15677 33555968 1077968896 66 256 2097152 4294950912 147487 134284802 1 288 16 266240 0 0 49152 16785920 16384 1073741856 24577 1048576 0 0 1476395008 82948 768 1845493760 98304 0 0 16384 33554433 100663296 8437864 0 0 786432 8 0 16388 128 67125760 2097152 2250326016 27 0 0 528512 8 4096 52736 169869408 100811776 8388672 1 8 131072 0 2415919104 512 64 0 393216 69632 0 0 33603584 8192 0 0 0 1048576
is_linear=0
shrinkage=0.05


Tree=18
num_leaves=31
num_cat=28
split_feature=3 0 3 0 0 1 1 1 2 1 0 2 0 3 1 1 0 0 1 2 5 3 0 0 0 2 3 3 5 0
split_gain=4335.52 2034.2 1994.9 1150.98 743.877 717.896 708.81 433.47 415.675 296.102 463.762 283.548 278.943 261.048 230.819 167.09 163.764 134.486 133.011 138.285 131.617 124.741 123.433 116.25 106.84 106.279 104.789 101.404 92.5626 82.9867
threshold=0 1 2 3 4 5 6 7 8 9 10 11 12 13 14 15 16 17 18 19 5.5000000000000009 20 21 22 23 24 25 26 6.5000000000000009 27
decision_type=9 9 9 9 9 9 9 9 9 9 9 9 9 9 9 9 9 9 9 9 8 9 9 9 9 9 9 9 10 9
left_child=3 14 4 6 18 23 -1 21 24 10 11 26 -10 20 27 -14 -13 -9 19 -3 -4 -8 -17 25 -7 -6 -5 29 -23 -2
right_child=1 2 13 9 5 8 7 17 12 -11 -12 16 15 -15 -16 22 -18 -19 -20 -21 -22 28 -24 -25 -26 -27 -28 -29 -30 -31
leaf_value=162.27736012972798 15.994606000275759 -47.287526385992891 -0.99814295202804715 -5.7928684586521744 -8.9347476276489033 -9.8920892468900554 148.39843322262615 -9.5908349620343873 391.29172840896769 680.62344557232245 655.38610994421038 -6.6993001937153851 -39.178865109617902 -65.507480582466329 -61.62736928390359 -19.643956340639306 356.10226412574758 -48.528878006325165 107.70406488447603 79.903215087110681 -38.425624464694778 13.209667098880255 18.020128558095802 64.682766739745517 -46.937435710180267 58.993079383052418 -77.125808035890174 -42.459964445096105 -28.980321457921743 -12.480570650942719
leaf_weight=864 253 138 443 401 523 727 523 999 527 3829 1519 470 980 2103 6654 955 675 1794 1885 402 1858 357 1293 1131 1747 537 367 353 166 267
leaf_count=864 253 138 443 401 523 727 523 999 527 3829 1519 470 980 2103 6654 955 675 1794 1885 402 1858 357 1293 1131 1747 537 367 353 166 267
internal_value=-0.00625792 -0.0190556 -0.0085425 0.0181059 0.00298941 -0.00404508 -0.00117759 -0.0104053 -0.0127024 0.0305804 0.019756 0.00330213 -0.00219124 -0.0368826 -0.0403144 -0.00772082 0.0190043 -0.0206743 0.0273306 0.00509091 -0.0249459 0.0169508 -0.000177148 0.0205134 -0.0285829 0.00841121 -0.0200514 -0.0155719 -0.000469043 -0.00132075
internal_weight=34740 22776 15249 11964 10845 8420 4703 3839 6229 7261 3432 1913 3755 4404 7527 3228 1145 2793 2425 540 2301 1046 2248 2191 2474 1060 768 873 523 520
internal_count=34740 22776 15249 11964 10845 8420 4703 3839 6229 7261 3432 1913 3755 4404 7527 3228 1145 2793 2425 540 2301 1046 2248 2191 2474 1060 768 873 523 520
cat_boundaries=0 1 5 6 11 15 25 35 44 45 54 58 59 63 64 73 82 86 90 98 99 100 105 110 114 115 116 117 121
cat_threshold=20 2097154 4294950912 16415 2617311234 321 2097154 2046787648 134381597 469843974 1 123893 0 28115296 1122902112 0 134217728 136921104 0 0 847265792 403177600 110625282 360972354 1 24 3959422976 167870568 0 32 201326592 939524097 67109376 25477472 1 0 0 3225944196 33554447 0 139264 33554560 3255046160 203776 64 77828 0 262144 1077985792 25174040 16842764 292 5 8192 16910344 2248165384 4060107778 22026129 64 1048576 0 1275070592 2328 32 768 1845493760 134316040 2 32 67117056 3073 3288601088 286920 69632 0 0 34637312 134217728 0 0 0 1048576 0 2248146944 33574914 17826945 2097154 19464256 163865 6 4100 0 0 1140883712 0 0 32 256 64 16 2302803968 65 570593280 1049601 1 37748736 0 167903232 17536 1 131072 0 100663296 37016 64 16 65 2 2449473536 16386 65538
is_linear=0
shrinkage=0.05


Tree=19
num_leaves=31
num_cat=26
split_feature=3 0 1 0 3 0 3 1 1 0 3 2 0 2 3 1 0 2 0 1 1 0 3 1 0 0 6 5 5 5
split_gain=4098.07 2347.71 871.656 890.604 727.983 707.934 826.135 408.564 349.778 356.977 341.402 333.467 326.628 308.825 301.423 249.982 239.439 221.36 280.798 215.338 199.6 198.158 165.286 143.491 139.132 124.307 108.053 101.547 100.545 98.2587
threshold=0 1 2 3 4 5 6 7 8 9 10 11 12 13 14 15 16 17 18 19 20 21 22 23 24 25 2.5000000000000004 5.5000000000000009 6.5000000000000009 6.5000000000000009
decision_type=9 9 9 9 9 9 9 9 9 9 9 9 9 9 9 9 9 9 9 9 9 9 9 9 9 9 2 10 10 10
left_child=1 4 3 13 20 -2 8 29 9 -7 -4 15 23 22 -5 16 28 -16 -19 -9 24 -21 -3 -13 -1 -22 -23 -18 -12 -6
right_child=5 2 10 14 7 6 -8 19 -10 -11 11 12 -14 -15 17 -17 27 18 -20 21 25 26 -24 -25 -26 -27 -28 -29 -30 -31
leaf_value=32.423885476703212 -63.985468299310213 153.27735284610608 1153.9153811312394 928.61871989266263 13.270363000332191 -39.295968009247424 -60.777155680562252 -56.286633806324247 7.1591294246535657 1.049311274693207 54.873144594031068 -7.9193023838226058 319.38195785922716 -60.597168586910442 -22.906323759166256 77.962379458211217 16.284803908242591 0.66014898639193698 228.54699895926325 -40.537900072715935 3.941221703737074 -17.812311683769508 -23.104943233594543 105.39834480680184 -45.019048407370072 177.51078371152545 3.4812956451076049 -36.305177843352524 -14.658418282832031 -15.467665180384007
leaf_weight=273 4395 465 2379 953 533 2682 1889 2288 1690 1383 450 657 2203 1252 589 878 202 858 859 1097 485 1148 1250 629 590 753 694 855 176 185
leaf_count=273 4395 465 2379 953 533 2682 1889 2288 1690 1383 450 657 2203 1252 589 878 202 858 859 1097 485 1148 1250 629 590 753 694 855 176 185
internal_value=-0.0067962 0.00571309 0.0176236 0.00341565 -0.0159757 -0.0303635 -0.0211001 -0.0249118 -0.0116305 -0.0195706 0.0281017 0.0216997 0.0317662 -0.0163755 0.0214286 0.00791521 -0.00339634 0.0115285 0.0205848 -0.0297785 0.00930838 -0.0206341 -0.00252174 0.0114969 -0.00910653 0.0221154 -0.0104752 -0.0178538 0.0209119 0.0104396
internal_weight=34740 22701 14655 6226 8046 12039 7644 5945 5755 4065 8429 6050 3489 2967 3259 2561 1683 2306 1717 5227 2101 2939 1715 1286 863 1238 1842 1057 626 718
internal_count=34740 22701 14655 6226 8046 12039 7644 5945 5755 4065 8429 6050 3489 2967 3259 2561 1683 2306 1717 5227 2101 2939 1715 1286 863 1238 1842 1057 626 718
cat_boundaries=0 1 6 14 18 19 24 25 34 43 47 48 49 53 54 55 64 68 69 73 82 91 95 96 104 108 110
cat_threshold=85 2097154 4294950976 32783 469827588 1 471040 0 0 1509474368 420479497 2092 32 9 1627523080 1026 3087159312 22038147 16 2097152 4294950912 16415 469843970 1 288 768 1845493760 2315288632 1 32 67174400 301989889 1073742336 319688 200708 0 0 33604104 159391752 8388616 36 16385 1048640 50465035 4352 4211245056 50378373 16 64 54657024 1 572670608 1049729 9 16 4 0 786432 8 8396800 16384 132 33571072 262144 139264 0 117456896 10488 64 2664431616 14653 33621504 2147520512 327686 0 262144 49664 2148117016 1073745987 1073742080 16421 1048576 4096 0 128 49664 16785408 16384 1073741856 24577 1048576 0 1455816704 4 469762048 16 0 0 524800 520 8192 0 0 16384 2097152 2217295872 11 4 2 2965766144
is_linear=0
shrinkage=0.05


Tree=20
num_leaves=31
num_cat=29
split_feature=3 0 1 0 0 3 1 3 3 2 1 0 2 3 0 1 0 3 0 3 0 0 1 1 2 1 3 5 2 0
split_gain=3973.77 2253.13 849.502 1070.43 702.119 839.866 652.34 510.053 428.267 371.861 331.582 365.572 219.345 216.887 211.797 210.54 165.578 160.014 150.081 146.033 139.305 138.724 133.727 124.469 107.334 105.237 103.272 149.585 100.154 96.931
threshold=0 1 2 3 4 5 6 7 8 9 10 11 12 13 14 15 16 17 18 19 20 21 22 23 24 25 26 6.5000000000000009 27 28
decision_type=9 9 9 9 9 9 9 9 9 9 9 9 9 9 9 9 9 9 9 9 9 9 9 9 9 9 9 10 9 9
left_child=1 6 26 8 -2 10 17 21 18 13 -6 28 23 -5 19 -9 -17 -1 22 -11 -15 -8 -4 -10 29 -23 -3 -28 -12 -13
right_child=4 2 3 9 5 -7 7 15 12 14 11 24 -14 20 -16 16 -18 -19 -20 -21 -22 25 -24 -25 -26 -27 27 -29 -30 -31
leaf_value=122.85919738798735 -60.786194884344695 864.41961207467739 391.88044535194939 510.12093791126938 14.579933289703241 -57.738297896534142 -49.824482655143882 -52.828794422657921 -38.750729506006934 357.28623539028524 -27.743104604738438 -4.9985995669375143 -34.29336707236839 31.229173368199238 669.63025180514876 -30.418474862022414 -7.0512380764154674 -0.017366411514331048 347.06604720454499 -3.3715694727562098 -24.775371038488153 -13.307952098266652 -28.128294478267719 28.939663071747511 -17.267739129270662 59.889010196368851 99.226274362180732 11.347464342984154 -39.97392985826756 27.744346555901895
leaf_weight=572 4395 2133 320 450 953 1889 301 2218 593 583 1319 641 2288 355 2517 1617 1274 525 496 570 815 655 620 1021 498 848 1456 474 1646 698
leaf_count=572 4395 2133 320 450 953 1889 301 2218 593 583 1319 641 2288 355 2517 1617 1274 525 496 570 815 655 620 1021 498 848 1456 474 1646 698
internal_value=-0.00688256 0.00543569 0.0170635 0.00960707 -0.0300896 -0.0208649 -0.0158853 -0.021573 -0.00618923 0.0255283 -0.0113183 -0.0166667 -0.0147751 0.00546012 0.0343478 -0.0296445 -0.0205619 0.0198284 0.0170816 0.0162081 -0.0059322 0.00132304 0.00515789 -0.000615764 0.000893341 0.00756775 0.0364964 0.0276289 -0.0275126 0.00826538
internal_weight=34740 22701 14691 10628 12039 7644 8010 6913 5338 5290 5755 4802 3902 1620 3670 5109 2891 1097 1436 1153 1170 1804 940 1614 1837 1503 4063 1930 2965 1339
internal_count=34740 22701 14691 10628 12039 7644 8010 6913 5338 5290 5755 4802 3902 1620 3670 5109 2891 1097 1436 1153 1170 1804 940 1614 1837 1503 4063 1930 2965 1339
cat_boundaries=0 1 6 16 20 25 26 35 36 37 38 48 52 53 54 58 67 72 73 77 78 82 86 95 101 102 110 111 112 116
cat_threshold=85 2097154 4294934592 147487 469778432 1 32 134217728 202399888 8 0 868229120 403177728 67109376 293994562 1 3842115584 23843 939561984 2169570951 2097152 4294950912 16415 469843970 1 288 960 1845493760 176193560 0 32 68747264 2049 1140850688 18923752 16 16 64 32 134217728 203948176 0 0 574628096 403177600 8389120 293994498 1 33687819 4416 4194471936 2199951237 8 16 449839112 8220 33554944 1073774592 327686 0 262144 49152 2148116560 3221229635 3221225728 24613 1048576 2097152 1992687616 4 469762048 1 20 133120 0 402685952 21038087 20 8192 0 33554432 8288 0 393216 4 469762048 4 0 851968 0 0 0 132 33570816 32 266240 0 0 33280 16777216 4 9 4098 0 0 49152 16785408 0 32 16385 20 12 2373976576 171 3968 14295040
is_linear=0
shrinkage=0.05


Tree=21
num_leaves=31
num_cat=26
split_feature=3 0 0 3 1 3 1 0 1 1 3 2 0 0 2 0 3 0 1 3 0 5 6 1 0 1 5 5 1 0
split_gain=3798.12 1537.32 1216.14 1248.1 741.882 592.728 491.603 476.781 460.851 442.425 300.744 294.305 336.542 280.842 248.961 253.932 234.539 203.426 244.336 171.135 167.396 138.083 124.779 122.272 115.943 107.763 105.473 104.79 102.57 98.8499
threshold=0 1 2 3 4 5 6 7 8 9 10 11 12 13 14 15 16 17 18 19 20 6.5000000000000009 2.5000000000000004 21 22 23 6.5000000000000009 5.5000000000000009 24 25
decision_type=9 9 9 9 9 9 9 9 9 9 9 9 9 9 9 9 9 9 9 9 9 10 2 9 9 9 10 8 9 9
left_child=1 4 28 6 -1 17 13 -7 -9 16 27 22 -13 -4 20 25 -6 18 -3 24 -8 29 -10 -24 -11 -16 -17 -5 -2 -18
right_child=2 5 3 10 9 7 14 8 11 19 -12 12 -14 -15 15 26 21 -19 -20 -21 -22 -23 23 -25 -26 -27 -28 -29 -30 -31
leaf_value=50.365009577861571 -13.536663980042045 -12.932039409887967 -49.392186033357412 -1.9601109463992203 113.63239971187522 159.3276425629266 10.929246410242786 113.03714185152735 -39.635073687975535 12.368088807781351 -56.127669449699681 -11.939437466637242 138.18083872666918 1.0164584016666709 29.461897563724836 31.096794680159178 -11.191769481602421 1055.5819937863209 742.43552814794657 -41.056311901155453 346.40888473214881 -29.253587485891604 29.510465928959619 -24.083105541117746 -35.234787566626963 -20.461608674340766 -12.527912854190618 -32.925779879418407 -55.746828996170315 10.178705718915616
leaf_weight=1124 234 566 1498 448 563 1391 812 1017 1048 499 2072 1398 1320 1034 130 931 284 2444 896 2781 943 360 342 576 892 1256 264 1831 5304 482
leaf_count=1124 234 566 1498 448 563 1391 812 1017 1048 499 2072 1398 1320 1034 130 931 284 2444 896 2781 943 360 342 576 892 1256 264 1831 5304 482
internal_value=-0.00716465 0.00879509 -0.0242828 -0.0147876 -0.00954253 0.0204397 -0.00149753 0.0117854 0.00534933 -0.0166837 -0.0357143 -0.00129953 0.00934751 -0.0189614 0.00872066 -0.00117715 0.00491466 0.0360827 0.0209239 -0.0254185 0.0232011 -0.00827465 -0.0159919 -0.00261438 -0.0108851 -0.0156877 0.0156432 -0.0229139 -0.0434571 0.00365535
internal_weight=34740 17983 16757 11219 6985 10998 6868 7092 5701 5861 4351 4684 2718 2532 4336 2581 1689 3906 1462 4172 1755 1126 1966 918 1391 1386 1195 2279 5538 766
internal_count=34740 17983 16757 11219 6985 10998 6868 7092 5701 5861 4351 4684 2718 2532 4336 2581 1689 3906 1462 4172 1755 1126 1966 918 1391 1386 1195 2279 5538 766
cat_boundaries=0 1 6 10 11 20 21 30 34 44 54 55 56 60 65 66 71 72 76 85 86 91 99 104 114 123 126
cat_threshold=84 2097152 4294950912 134234142 469843970 1 2097154 4294950976 131087 469827586 257 784 3456106496 167870520 0 32 201392128 134217729 67109376 16828744 16 208896 0 0 49664 16777224 0 32 17 1048576 272753597 128 9240928 44965920 0 134217728 201408656 0 0 562053120 403177472 100663808 293994562 1 8 536870912 3225944132 11 0 139264 838860928 3255046144 472224 1 32 64 1728184322 3139 570594817 2148533381 21104904 5248 4194355728 18404997 1 28 2151680009 5 4227862672 18374037 1 16 133138 64 1879277569 1094714372 4096 0 0 33280 16785408 12 32 0 1048576 16 0 0 302039040 16782981 1 0 0 524288 8 0 0 0 16384 2097152 2402893824 134217738 0 1 0 0 134217728 0 0 536870912 524288 0 8650752 1 512 134217728 2281701376 0 0 0 3072 512 262208 0 1975910400 4
is_linear=0
shrinkage=0.05


Tree=22
num_leaves=31
num_cat=29
split_feature=3 0 1 1 0 3 3 0 0 1 0 1 3 1 3 1 2 0 2 0 0 5 1 0 3 0 3 0 2 3
split_gain=3670.03 1969.72 869.101 709.717 671.342 841.056 502.983 447.552 447.482 424.723 317 271.445 263.321 228.403 208.123 166.015 158.034 239.029 150.816 145.604 139.64 141.787 124.491 120.339 111.061 107.382 106.427 101.976 98.3344 95.6837
threshold=0 1 2 3 4 5 6 7 8 9 10 11 12 13 14 15 16 17 18 19 20 6.5000000000000009 21 22 23 24 25 26 27 28
decision_type=9 9 9 9 9 9 9 9 9 9 9 9 9 9 9 9 9 9 9 9 9 10 9 9 9 9 9 9 9 9
left_child=1 3 7 24 -2 10 22 18 -4 29 11 -6 28 -8 -9 -12 19 -18 26 -14 -15 -22 23 -5 -1 -16 -3 -24 -11 -10
right_child=4 2 8 6 5 -7 13 14 9 12 15 -13 16 20 25 -17 17 -19 -20 -21 21 -23 27 -25 -26 -27 -28 -29 -30 -31
leaf_value=159.65672213032332 -55.259543690318949 82.280713599535375 358.80248041393224 23.636865322427994 4.9090986754619053 -51.599950402003223 -50.41337302987705 710.07496847741731 37.82236272352548 65.304880947530009 -20.133617567876083 -33.928995494480539 10.219644824874571 -35.208879291410085 -19.347264693666762 15.367953121911228 -14.2104336895791 87.951484950452922 -60.234209948985949 -28.091161432737263 -2.2647780535496169 -32.383825275950748 -1.9718372187092996 -46.38024428553404 1.6306371317912409 56.481626840073524 -35.936129663336651 137.69085075934763 577.33079945787176 284.03937731777734
leaf_weight=608 4391 295 3123 274 761 1889 2442 437 766 544 729 2736 496 882 604 1533 872 1197 751 964 1535 545 514 633 555 490 776 488 781 2129
leaf_count=608 4391 295 3123 274 761 1889 2442 437 766 544 729 2736 496 882 604 1533 872 1197 751 964 1535 545 514 633 555 490 776 488 781 2129
internal_value=-0.00723949 0.00459909 0.0159642 -0.0144709 -0.0295419 -0.0205276 -0.0202444 -0.00628903 0.0228267 0.0163359 -0.0109811 -0.0204021 0.0072574 -0.0280384 0.0135951 0.00360915 9.8898e-05 0.00897066 -0.0229803 -0.012449 -0.0185397 -0.0113397 0.00184992 -0.0115049 0.0216965 0.00181159 -0.0106846 0.0139328 0.0261798 0.0314802
internal_weight=34740 22701 14225 8476 12039 7648 7313 3353 10872 7749 5759 3497 4854 5404 1531 2262 3529 2069 1822 1460 2962 2080 1909 907 1163 1094 1071 1002 1325 2895
internal_count=34740 22701 14225 8476 12039 7648 7313 3353 10872 7749 5759 3497 4854 5404 1531 2262 3529 2069 1822 1460 2962 2080 1909 907 1163 1094 1071 1002 1325 2895
cat_boundaries=0 1 6 15 24 28 29 30 34 38 48 53 63 64 73 74 79 80 84 85 89 93 102 107 108 112 113 116 117 118
cat_threshold=85 2097154 4294950976 131086 469843970 1 208896 0 0 1371046400 134217753 0 32 8 1048576 960 771751936 142639176 0 0 1572864 2051 67109376 19185768 2097152 4294950912 147487 469843970 288 16 1090652168 7171 3103835153 2168493701 123325 0 92603232 1118709864 0 134217728 134300176 8 0 864026880 411566084 67109376 277086274 1 33687555 4416 4194340864 2200999813 1 32 134217728 134807568 0 0 536887296 403177600 67633664 8650754 1 16 327686 0 262144 49152 2164891672 1073745987 3221225728 24613 1048576 16 4100 0 0 32776 8 64 3439329280 1 570478593 1049733 9 131072 0 33603584 32916 2097152 1355153408 0 469762048 266240 0 0 49152 16785920 16384 1073741856 16385 1048576 2097152 2351513600 10 0 1 20 2927624192 316 1174411776 1056848 16 2 4031119424 4 64 64
is_linear=0
shrinkage=0.05


Tree=23
num_leaves=31
num_cat=27
split_feature=3 0 0 3 1 1 3 1 1 2 0 0 0 0 5 3 1 5 0 1 2 1 0 3 1 6 2 0 3 2
split_gain=3450.28 1374.93 1095.4 1178.03 910.099 583.16 556.514 538.041 473.523 481.15 428.575 312.771 296.709 231.543 220.12 189.33 180.304 169.525 167.861 188.635 165.303 155.947 133.278 127.092 117.789 130.685 103.952 106.72 92.3117 87.8242
threshold=0 1 2 3 4 5 6 7 8 9 10 11 12 13 6.5000000000000009 14 15 6.5000000000000009 16 17 18 19 20 21 22 2.5000000000000004 23 24 25 26
decision_type=9 9 9 9 9 9 9 9 9 9 9 9 9 9 10 9 9 10 9 9 9 9 9 9 9 2 9 9 9 9
left_child=1 4 16 7 -1 12 18 11 -8 24 -11 -4 -6 21 23 -7 -2 -17 19 20 -3 -9 28 -14 -10 -26 27 -23 -12 -19
right_child=2 6 3 -5 5 15 8 13 9 10 22 -13 14 -15 -16 17 -18 29 -20 -21 -22 26 -24 -25 25 -27 -28 -29 -30 -31
leaf_value=-53.247646385655621 -16.590951215335156 -73.845531331988653 -50.135977589683179 -50.265820838847276 -38.190540779338086 241.35612932183142 112.89992046898706 24.048907145542945 -54.695384431781434 -10.400697149767304 140.11722648570731 -3.8112265844433297 99.862554267829921 32.584543471568054 -26.336685416580465 16.495285790464823 -51.896566505803008 -15.682486589701512 1048.1378617629023 769.8653084478799 118.17845019484687 -42.959500614228276 313.61199682076477 -0.14576666763791765 -31.939844326331333 9.5894286301599099 -0.69247855382195667 -5.8058620865573065 3.5544736192655821 100.86374919800986
leaf_weight=1995 687 288 2040 1974 1157 839 1353 774 450 1281 433 1467 468 1836 678 1158 5188 406 2061 876 426 518 1115 935 768 632 1539 734 552 112
leaf_count=1995 687 288 2040 1974 1157 839 1353 774 450 1281 433 1467 468 1836 678 1158 5188 406 2061 876 426 518 1115 935 768 632 1539 734 552 112
internal_value=-0.00739493 0.00781693 -0.0237103 -0.0142857 -0.00806909 0.00203887 0.0198389 -0.00651491 0.0111162 0.00426445 0.0154674 -0.0217373 -0.0119766 0.00339124 -0.000645624 0.0200594 -0.041113 0.0102017 0.0354958 0.022875 0.00359116 -0.00404196 0.0293365 0.0106557 -0.0161828 -0.00886525 -0.00955016 -0.020206 0.0155276 -0.0135135
internal_weight=34740 17983 16757 10882 7748 5753 10235 8908 6584 5231 3381 3507 3238 5401 2081 2515 5875 1676 3651 1590 714 3565 2100 1403 1850 1400 2791 1252 985 518
internal_count=34740 17983 16757 10882 7748 5753 10235 8908 6584 5231 3381 3507 3238 5401 2081 2515 5875 1676 3651 1590 714 3565 2100 1403 1850 1400 2791 1252 985 518
cat_boundaries=0 1 6 10 11 20 29 30 39 49 50 54 59 63 68 69 78 82 91 92 101 105 106 113 114 119 120 121
cat_threshold=84 0 4292837440 134234143 469844994 1 2097154 4227842112 147487 469827586 289 69634 0 4096 49152 2164887576 1073777735 3221225728 1061 9437184 262148 0 786560 1116 10816 2147504640 274726944 134375424 131072 16 208896 0 0 11584000 16777225 0 32 17 1048576 32 134217728 202907792 0 0 591413252 402653312 75497984 293994562 1 64 3877765122 2121003 570594816 2148532353 16910344 67113984 4194337280 2170058373 1 0 1879474176 4 1024 54657664 67108869 4194341536 18372485 1 16 768 1811939328 3389030400 0 0 201392128 33557505 1174405632 385248 2230290 2113568 4026761216 1094979845 4096 0 0 49664 16785408 8 32 1 1048576 64 0 134217728 134299664 0 0 8404992 403177472 512 277086306 412092680 20 2416445568 1094750724 16 4100 0 0 33280 0 0 32 64 0 0 134217728 16794628 1 4 65
is_linear=0
shrinkage=0.05


Tree=24
num_leaves=31
num_cat=28
split_feature=3 0 3 0 1 2 1 1 1 0 1 2 0 3 0 0 1 1 0 3 0 0 3 0 3 3 5 1 0 6
split_gain=3314.82 1541.85 1280.57 890.103 562.964 490.202 471.615 467.077 354.013 349.116 323.05 308.593 443.905 290.028 244.117 227.714 217.296 201.386 191.682 167.285 166.405 161.868 145.157 121.758 121.586 114.553 111.359 110.569 99.9773 98.0016
threshold=0 1 2 3 4 5 6 7 8 9 10 11 12 13 14 15 16 17 18 19 20 21 22 23 24 25 6.5000000000000009 26 27 2.5000000000000004
decision_type=9 9 9 9 9 9 9 9 9 9 9 9 9 9 9 9 9 9 9 9 9 9 9 9 9 9 10 9 9 2
left_child=3 10 4 6 21 7 23 14 -6 16 -2 18 -13 -4 -5 22 -7 -8 -10 28 -19 -3 -12 -1 -16 -9 -22 -17 -18 -27
right_child=1 2 13 5 8 9 17 25 11 -11 15 12 -14 -15 24 27 19 20 -20 -21 26 -23 -24 -25 -26 29 -28 -29 -30 -31
leaf_value=-14.782174703349041 -52.148397753849125 -47.731142512874591 -21.362999318174094 -76.706092283943164 75.306971866038893 429.60355922641878 66.239640490896633 648.47809065463684 -29.175040351449937 1131.6698348187326 4.3206847060174658 224.70473958000167 0.37258496922954693 -46.161661839960686 254.56867680779706 -7.938454660145573 -22.014771351346646 -22.608576450636932 0.66998950878096375 -18.456536955230252 34.819665578509152 -9.0707168568182173 -35.167446802131828 -56.930851767190759 -24.14222410282164 -13.479728621791493 -15.243023323217244 -31.632881271610472 206.0496886405661 91.303592637477053
leaf_weight=803 5347 1202 2076 658 1208 580 584 838 1115 3012 908 1206 3035 1769 279 556 233 582 1485 654 942 999 284 918 255 437 402 1586 426 361
leaf_count=803 5347 1202 2076 658 1208 580 584 838 1115 3012 908 1206 3035 1769 279 556 233 582 1485 654 942 999 284 918 255 437 402 1586 426 361
internal_value=-0.00747553 -0.018665 -0.00844027 0.01383 0.00079922 0.0239119 -0.00460976 0.00725863 0.00693014 0.0334791 -0.0352376 0.00250328 0.0108092 -0.0330091 -0.0164725 -0.022817 0.0164214 0.00920635 -0.0110345 0.00502646 0.00134298 -0.0215513 -0.00515807 -0.0246967 0.00863971 0.0245443 0.0110044 -0.0325743 0.0226457 0.0106436
internal_weight=34740 22776 14095 11964 10250 7733 4231 2828 8049 4905 8681 6841 4241 3845 1192 3334 1893 2510 2600 1313 1926 2201 1192 1721 534 1636 1344 2142 659 798
internal_count=34740 22776 14095 11964 10250 7733 4231 2828 8049 4905 8681 6841 4241 3845 1192 3334 1893 2510 2600 1313 1926 2201 1192 1721 534 1636 1344 2142 659 798
cat_boundaries=0 1 6 7 11 20 21 30 38 48 53 62 63 67 68 73 78 87 97 101 102 105 109 110 114 115 116 125 130
cat_threshold=20 2097154 2013233152 147487 469843970 1 321 2097154 4292264000 402818071 469778433 208900 0 1073741824 45139456 25 0 0 0 1048576 66 331776 0 4096 49152 2148119064 3221262403 3221225792 17445 1048576 4100 0 0 49664 25174528 8 32 1 32 0 203448464 0 0 859840512 403177600 512 293994498 1 3843031040 2694443 33575432 2165376132 1 266246 0 262272 49160 2164306496 579 3221225760 147489 1048576 64 57492 0 1560346944 1086466424 32 2056 0 3758096384 16881414 1 0 85458944 147474 81922 1 0 134217728 135086096 8 0 8388608 524292 100663808 8650848 784 3892314112 172064940 0 32 201392128 805306369 1073741824 25218304 1 2048 0 2030043136 16780548 16 0 1413873728 4 133384 2281717890 3087043072 2164307589 321 2 2383429632 268600343 1 16 16 784 2684354560 2181070872 3 0 201400320 7169 3254779904 117032 0 0 33570824 16843780 1
is_linear=0
shrinkage=0.05


Tree=25
num_leaves=31
num_cat=27
split_feature=3 0 1 1 0 3 3 3 0 5 1 1 0 3 0 0 6 2 5 1 1 0 2 2 0 0 1 0 0 0
split_gain=3140.35 1608.19 852.033 660.509 636.37 776.238 511.514 489.908 407.326 362.032 295.58 279.82 263.448 258.738 238.339 230.664 201.637 177.617 164.172 164.037 148.959 142.642 133.682 130.04 117.57 114.152 103.228 95.9719 95.7798 94.2116
threshold=0 1 2 3 4 5 6 7 8 6.5000000000000009 9 10 11 12 13 14 2.5000000000000004 15 6.5000000000000009 16 17 18 19 20 21 22 23 24 25 26
decision_type=9 9 9 9 9 9 9 9 9 10 9 9 9 9 9 9 2 9 10 9 9 9 9 9 9 9 9 9 9 9
left_child=1 3 8 -1 -2 11 -4 20 -3 14 15 12 -6 -10 19 -9 -17 21 27 -8 -5 -11 24 26 -15 -13 28 -12 -16 -19
right_child=4 2 6 7 5 -7 9 10 13 17 18 25 -14 22 23 16 -18 29 -20 -21 -22 -23 -24 -25 -26 -27 -28 -29 -30 -31
leaf_value=-52.843997427896227 -47.994318292820395 -37.895691116111927 834.34766630173237 -7.0507309681693187 -36.710753764007265 -44.99622201479113 72.411174442667743 -34.560605045514755 614.96576795010174 -27.738079837013402 14.846895285984852 -5.2135088329243446 1.0711194548045684 42.591354208288934 -21.504237375898086 -22.747506042833813 6.2258287910190635 -53.73577264906411 -16.112148873779415 2.8147599407412489 101.02432640998495 332.1188861067991 587.50034303535665 228.19550151272207 -27.204355118120816 15.147602234089755 63.208229154141151 -1.2139534288899541 24.905343561369477 -2.3550788439696588
leaf_weight=1995 4185 1956 3015 553 2408 1972 593 1444 496 294 680 1377 1065 202 236 875 704 656 451 1981 1121 469 212 1851 830 1032 554 567 388 578
leaf_count=1995 4185 1956 3015 553 2408 1972 593 1444 496 294 680 1377 1065 202 236 875 704 656 451 1981 1121 469 212 1851 830 1032 554 567 388 578
internal_value=-0.00770006 0.00325173 0.0134383 -0.014119 -0.0283302 -0.0198754 0.0206353 -0.00625293 -0.00723152 0.0136794 -0.0144895 -0.0107264 -0.0197962 0.0103429 0.0202124 -0.0238543 -0.0104783 -0.00458187 0.00222482 0.00890093 0.016924 0.014295 -0.00191388 0.0296973 -0.00940499 0.00237702 0.01633 0.0115878 0.0022082 -0.0162379
internal_weight=34740 22701 14311 8390 12039 7854 10615 6395 3696 7600 4721 5882 3473 1740 5603 3023 1579 1997 1698 2574 1674 763 1244 3029 1032 2409 1178 1247 624 1234
internal_count=34740 22701 14311 8390 12039 7854 10615 6395 3696 7600 4721 5882 3473 1740 5603 3023 1579 1997 1698 2574 1674 763 1244 3029 1032 2409 1178 1247 624 1234
cat_boundaries=0 1 5 13 22 26 27 28 29 34 44 53 58 59 64 68 69 78 86 91 92 93 97 102 110 114 118 122
cat_threshold=85 2097154 4158619712 134381599 469827586 208896 0 1073741824 1375240704 1073741833 2060 32 9 327680 0 0 49344 2164887576 3139 3221226304 1317 1074790401 2097152 4294950912 268451871 469843970 288 16 16 50464776 136338434 2986361856 2168505989 1 4102 0 790656 28 10816 3221279232 2097184 67266560 0 1 200708 0 0 33604104 25174024 8388608 32 1 1048640 50464779 4352 3942809600 64010117 1 16 3451912200 134219927 2953337344 1332357 1 2097152 1908899840 4 469762048 12 0 0 134562304 0 0 8404992 168296452 100663296 25165920 4098 0 0 0 8768 16384 32 24576 0 0 33570816 33925 1 65 64 49312 0 65792 42205248 33720835 65 1786908672 16783236 1 4 0 0 0 16785920 0 128 16640 0 3272704000 134381568 65538 2048 0 1090519040 20972032 50333696 134234112 3841986688 16834313
is_linear=0
shrinkage=0.05


Tree=26
num_leaves=31
num_cat=25
split_feature=3 0 3 0 3 1 1 1 1 0 3 2 1 0 0 1 0 1 2 0 5 6 0 5 0 0 5 0 5 1
split_gain=2903.25 1577.49 761.386 628.804 746.489 606.111 577.698 476.173 353.208 392.994 339.784 320.138 284.488 250.053 244.874 321.493 243.328 227.372 200.854 156.827 115.964 112.949 117.903 111.549 109.872 108.508 99.398 94.1847 94.1173 88.3345
threshold=0 1 2 3 4 5 6 7 8 9 10 11 12 13 14 15 16 17 18 19 6.5000000000000009 2.5000000000000004 20 6.5000000000000009 21 22 6.5000000000000009 23 6.5000000000000009 24
decision_type=9 9 9 9 9 9 9 9 9 9 9 9 9 9 9 9 9 9 9 9 10 2 9 10 9 9 10 9 10 9
left_child=1 5 14 -2 12 -1 19 21 -8 23 -9 26 13 -5 15 18 28 -18 -3 -4 -19 -7 -23 29 -20 -13 -11 -14 -12 -10
right_child=3 2 6 4 -6 7 8 10 9 11 16 25 27 -15 -16 -17 17 20 24 -21 -22 22 -24 -25 -26 -27 -28 -29 -30 -31
leaf_value=-49.936760444584309 -45.912057047587396 -87.075422362695917 28.80395299755801 -35.585732857036739 -42.451043123883657 -36.606512314289489 100.99874270809852 112.31959537822577 24.980272638216118 8.6729082141039733 17.067071646108538 15.254294126998458 -4.149461657268489 0.43110733150540459 1159.0676621455559 712.12180808936273 -24.805176589011172 4.4702937922084685 -38.815547945637462 -39.550578651793515 -13.65185931999522 -35.405995128384482 2.7581477112662243 -38.076689072536603 236.73155590812112 271.23079876055084 -33.750889057132511 14.426211078243307 -18.268822867839344 -10.382837420913848
leaf_weight=1585 4232 402 331 2341 1953 1651 1770 1089 726 937 943 587 1453 1080 1708 1291 983 606 204 1714 224 603 638 821 373 1420 338 980 323 1434
leaf_count=1585 4232 402 331 2341 1953 1651 1770 1089 726 937 943 587 1453 1080 1708 1291 983 606 204 1714 224 603 638 821 373 1420 338 980 323 1434
internal_value=-0.00784686 0.00268372 0.0130172 -0.0276828 -0.0192081 -0.0141132 0.00568993 -0.00780764 0.0117307 0.00612944 0.0030158 0.0180437 -0.0102319 -0.0195133 0.0315196 0.0205263 -0.00548721 -0.0171969 -0.00116279 -0.0179805 0.00214286 -0.0233632 -0.0120467 -0.00700435 0.017632 0.030466 -0.00159533 0.00284486 0.0112853 -0.00106481
internal_weight=34740 22701 14056 12039 7807 8645 10078 7060 8033 6263 4168 3282 5854 3421 3978 2270 3079 1813 979 2045 830 2892 1241 2981 577 2007 1275 2433 1266 2160
internal_count=34740 22701 14056 12039 7807 8645 10078 7060 8033 6263 4168 3282 5854 3421 3978 2270 3079 1813 979 2045 830 2892 1241 2981 577 2007 1275 2433 1266 2160
cat_boundaries=0 1 5 6 11 12 21 30 39 49 54 55 56 65 69 74 83 87 97 98 102 106 111 115 119 128
cat_threshold=85 2097154 4227842112 147470 469843974 16 2097152 4294950912 268435487 469843970 1 288 65536 0 4096 49728 2148112408 33859 1073742080 1061 1048576 77824 0 0 15761920 134217753 0 0 524288 1048576 300038 0 262272 2176 16785920 3221232128 2149581408 155906 1107296257 32 134217728 202399888 0 0 868220928 403177600 67109376 25559106 1 1832913160 67109053 705204736 17827457 1 16 64 135172 0 0 33604104 16785416 0 32 1 1048640 16910347 4096 3942825984 64010117 604112920 67108898 4160787473 22058753 1 4096 0 0 49152 25174528 12 32 0 1048576 2 2298544128 147458 81926 0 134217728 4718592 1052 64 16384 436207616 2382364672 8654912 1 64 1097889 256 65792 44828968 0 1892024384 4 469778434 131080 0 536903696 16778240 1 2156003841 2050 3217 2883584 33718787 65 3926020096 17831813 0 0 852480 8 0 264 4 34603008 268435488
is_linear=0
shrinkage=0.05


Tree=27
num_leaves=31
num_cat=28
split_feature=3 0 1 0 0 3 1 3 1 5 3 1 3 2 0 0 2 5 1 0 2 0 1 0 0 0 0 1 0 2
split_gain=2749.41 1479.95 835.23 698.206 623.544 748.069 524.862 401.594 370.924 358.602 350.759 282.758 264.394 211.167 205.698 189.266 184.059 178.509 170.802 170.546 165.842 161.338 152.891 136.335 123.212 111.475 103.499 90.9087 90.0454 113.491
threshold=0 1 2 3 4 5 6 7 8 6.5000000000000009 9 10 11 12 13 14 15 6.5000000000000009 16 17 18 19 20 21 22 23 24 25 26 27
decision_type=9 9 9 9 9 9 9 9 9 10 9 9 9 9 9 9 9 10 9 9 9 9 9 9 9 9 9 9 9 9
left_child=1 6 3 25 -2 11 -1 -4 15 21 28 23 -10 -12 -15 -8 19 26 -11 -13 -17 27 24 -6 -18 -3 -14 -9 29 -5
right_child=4 2 7 10 5 -7 8 9 12 18 13 16 17 14 -16 20 22 -19 -20 -21 -22 -23 -24 -25 -26 -27 -28 -29 -30 -31
leaf_value=-49.156237426538318 -43.848999525799996 -45.577694153199268 881.07829201496725 -95.539037262118299 -53.941809846933268 -40.854853229359193 -32.896772037394932 71.300153495480416 111.18775536084236 -35.18768370381877 504.21141482671868 41.641566772569604 5.6609598593413244 48.924894171470989 -18.420546459204139 0.015612358387835458 -1.179536903391545 -23.564917759560604 30.814050607388118 -3.5798513651575834 -50.248734764349734 105.77824364986037 2.464364765757205 -9.8583625825330792 -28.198005931788341 -18.632692743687812 -7.6319318758963739 11.23138006012606 723.21203684659508 603.97058657304729
leaf_weight=1581 3896 1099 2262 109 852 2066 1578 632 802 841 592 659 1034 476 1590 1384 380 615 671 2087 459 2174 709 460 930 1823 618 1394 761 206
leaf_count=1581 3896 1099 2262 109 852 2066 1578 632 802 841 592 659 1034 476 1590 1384 380 615 671 2087 459 2174 709 460 930 1823 618 1394 761 206
internal_value=-0.0078152 0.00243274 0.0119126 -0.00117012 -0.0271184 -0.0191893 -0.0147445 0.0228206 -0.00841538 0.0156938 0.013141 -0.0103089 0.00420591 0.00333583 -0.00423892 -0.0197173 -0.0046178 -0.00454545 -0.00515873 0.00380987 -0.0087156 0.0232381 -0.0160424 -0.0307867 -0.0261364 -0.0194407 0.00399516 0.0128684 0.0371087 0.0133846
internal_weight=34740 22701 14630 6656 12039 8143 8071 7974 6490 5712 3734 6077 3069 2658 2066 3421 4765 2267 1512 2746 1843 4200 2019 1312 1310 2922 1652 2026 1076 315
internal_count=34740 22701 14630 6656 12039 8143 8071 7974 6490 5712 3734 6077 3069 2658 2066 3421 4765 2267 1512 2746 1843 4200 2019 1312 1310 2922 1652 2026 1076 315
cat_boundaries=0 1 5 14 19 23 24 33 34 43 44 53 54 55 59 63 64 72 76 77 82 90 95 99 104 108 117 121 122
cat_threshold=85 2097152 4294426690 134217759 469778438 208896 0 0 1442349056 1233133577 2060 1568 524313 1048576 16910346 524288 570605568 2169570945 1 2097154 4294950912 31 469843970 288 328704 0 0 49856 2147581976 3139 3221225792 1319 1074790401 16 4102 0 790528 2064 17316672 3221279232 2097184 157696 33554432 16 4100 0 0 49664 0 0 0 1 1048576 16 28 58016 1 65792 1116078144 0 1892122624 4 469762048 13 4 0 524288 520 512 0 0 16384 1690314752 2079 218695680 1073908088 9 20971530 524289 2986902144 1934465 1 0 0 0 8 16785920 8388612 32 16384 16910344 2 3137522176 22069125 1 139272 0 16384 4208768 0 0 537018368 16843776 1 0 2853273600 134217745 16390 0 134217728 134299648 0 0 8404992 403177472 67108864 8650816 603979776 32 3489726464 1073778944 64
is_linear=0
shrinkage=0.05


Tree=28
num_leaves=31
num_cat=27
split_feature=3 0 0 3 1 1 0 1 1 0 2 0 1 5 3 1 3 5 0 0 5 3 3 2 3 2 2 0 1 1
split_gain=2640.77 1123.65 975.956 846.297 697.339 570.543 560.514 484.099 432.218 319.309 304.29 280.194 213.794 198.05 192.232 183.682 155.265 146.901 141.894 127.04 120.88 108.773 106.13 92.3419 112.921 87.4155 84.207 85.0415 77.2344 76.6795
threshold=0 1 2 3 4 5 6 7 8 9 10 11 12 6.5000000000000009 13 14 15 6.5000000000000009 16 17 6.5000000000000009 18 19 20 21 22 23 24 25 26
decision_type=9 9 9 9 9 9 9 9 9 9 9 9 9 10 9 9 9 10 9 9 10 9 9 9 9 9 9 9 9 9
left_child=1 4 15 7 -1 -3 12 9 11 -4 14 -6 -7 -13 -8 -2 -10 22 29 21 -18 -12 -14 24 28 -11 27 -19 -17 -9
right_child=2 5 3 -5 8 6 10 18 16 25 19 13 17 -15 -16 23 20 26 -20 -21 -22 -23 -24 -25 -26 -27 -28 -29 -30 -31
leaf_value=-43.093239165569642 -6.8171159848026042 236.95424128135156 -34.963188281462237 -38.283472829560957 -25.571444619120907 -30.65448053102125 411.64286196885405 19.632350211035373 186.07548623879504 396.75946629077094 457.97112539292789 15.889987836456113 222.00493731330755 -23.919762779788837 -19.830214565535016 26.147552119773241 13.16413389592068 -35.668762573789984 21.236491330145761 1275.4268959270476 -9.3068236147906589 13.696541003201038 5.7304190601473586 -42.18123037692434 -40.208602715855832 -4.4168802255612949 -56.937305412109211 98.159415228012051 -33.779947880226715 -7.6081014323701881
leaf_weight=2172 529 2175 2552 1825 1481 1361 377 506 775 228 372 977 752 471 712 227 1068 252 2188 1697 480 656 1458 4766 451 1534 411 336 245 1706
leaf_count=2172 529 2175 2552 1825 1481 1361 377 506 775 228 372 977 752 471 712 227 1068 252 2188 1697 480 656 1458 4766 451 1534 411 336 245 1706
internal_value=-0.00782671 0.00548269 -0.0221 -0.0128022 -0.0094162 0.015957 0.0100071 -0.00629298 0.0004561 -0.0181776 0.024137 -0.0123001 -0.00181223 0.00336077 0.00168335 -0.0378131 0.0165238 0.00523454 0.00537415 0.0330713 0.00725289 0.0186898 0.0124434 -0.040472 -0.0250268 -0.00174944 -0.0106607 0.00167224 -0.00746888 -0.00355536
internal_weight=34740 17983 16757 10539 7424 10559 8384 8714 5252 4314 3814 2929 4570 1448 1089 6218 2323 3209 4400 2725 1548 1028 2210 5689 923 1762 999 588 472 2212
internal_count=34740 17983 16757 10539 7424 10559 8384 8714 5252 4314 3814 2929 4570 1448 1089 6218 2323 3209 4400 2725 1548 1028 2210 5689 923 1762 999 588 472 2212
cat_boundaries=0 1 5 9 10 19 29 34 43 51 56 57 61 70 71 80 81 86 90 91 92 93 94 95 96 101 110 119
cat_threshold=84 0 2145370112 402670622 469844994 2097154 2079834176 163871 469843970 289 69632 0 4096 49216 2164890120 3143 3221225504 132133 9437184 32 134217728 205004944 0 0 859848708 402653184 75497984 293994562 1 656541706 2149582146 2718076929 2165346949 1 208896 0 0 1290846720 25174041 12 32 1 268435456 262150 67108864 786560 28 8256 3221418496 6291840 134510592 16910600 2215122050 4194320384 2170066565 1 64 0 2026274816 4 1024 143360 0 0 2130432 17 0 96 0 1048576 16 784 1811939328 134250592 0 32 67174400 805308417 1073742352 383456 16 54558720 2215116805 1518424704 20452485 1 3637510400 14525 9243264 4194304 16 16 10 257 8 9 50331648 2147483648 33722369 16777344 1 0 0 524288 8 0 0 128 67125248 16777216 0 0 134299664 0 0 8388608 524288 67109376 8650786
is_linear=0
shrinkage=0.05


Tree=29
num_leaves=31
num_cat=28
split_feature=3 0 3 0 1 1 0 1 1 1 1 5 0 0 0 2 6 2 0 0 2 0 1 0 0 2 1 3 0 3
split_gain=2559.23 1231.42 884.887 730.501 761.72 562.313 446.336 412.186 374.789 289.055 270.173 267.921 264.695 223.103 172.305 153.264 147.958 134.88 163.039 138.236 128.46 155.992 114.585 111.213 102.141 89.9149 87.6801 86.7103 81.6288 80.8102
threshold=0 1 2 3 4 5 6 7 8 9 10 6.5000000000000009 11 12 13 14 2.5000000000000004 15 16 17 18 19 20 21 22 23 24 25 26 27
decision_type=9 9 9 9 9 9 9 9 9 9 9 10 9 9 9 9 2 9 9 9 9 9 9 9 9 9 9 9 9 9
left_child=3 7 5 -1 24 14 10 -2 -7 20 -6 27 25 22 -3 23 26 18 -14 -19 -8 -22 -9 -13 -5 28 -15 -11 -10 -18
right_child=1 2 -4 4 6 8 9 13 12 11 -12 15 17 16 -16 -17 29 19 -20 -21 21 -23 -24 -25 -26 -27 -28 -29 -30 -31
leaf_value=1028.6648945651452 -42.511118284745365 -44.141824107280172 -35.564348315302148 7.0936976913923786 7.5140992465351708 47.771856717118546 -65.824072595011259 -36.005031335402599 55.474519843176864 201.92935383150072 -46.312137393175092 -47.334787910069764 5.7196985467542847 6.0063671367891862 -11.681336022471989 -26.303440884507349 5.8628915940139681 -12.946622176128518 462.95375712025657 7.808859733783982 -20.441881549618195 44.870910152332002 -10.678284614214466 1137.1935675107241 462.89771165127991 -19.616031808451282 -18.695418078782051 17.984154227636463 -9.0150246814945145 -22.220042465408767
leaf_weight=1895 4615 1530 1769 254 806 1405 376 966 435 1451 1788 112 754 235 1077 860 761 1033 705 1832 796 627 701 235 1421 1550 1216 1343 2041 151
leaf_count=1895 4615 1530 1769 254 806 1405 376 966 435 1451 1788 112 754 235 1077 860 761 1033 705 1832 796 627 701 235 1421 1550 1216 1343 2041 151
internal_value=-0.00814911 -0.0179803 -0.00887137 0.0105729 0.00519397 -0.00412221 -0.000963827 -0.0328423 0.00139785 0.00674699 -0.0181644 0.0142234 -0.00263158 -0.0210149 -0.0247039 -0.00542668 -0.0110198 0.00595293 0.0182777 -0.000365217 -0.00986733 -0.00289602 -0.0350328 0.0222689 0.0358754 -0.0118434 -0.0209855 0.0227631 -0.00587289 0.00471491
internal_weight=34740 22776 14131 11964 10069 12362 8394 8645 9755 5800 2594 4001 8350 4030 2607 1207 2363 4324 1459 2865 1799 1423 1667 347 1675 4026 1451 2794 2476 912
internal_count=34740 22776 14131 11964 10069 12362 8394 8645 9755 5800 2594 4001 8350 4030 2607 1207 2363 4324 1459 2865 1799 1423 1667 347 1675 4026 1451 2794 2476 912
cat_boundaries=0 1 6 7 11 21 30 34 43 53 62 71 75 78 82 83 84 88 92 93 98 107 112 115 116 125 126 130 131
cat_threshold=20 2097154 4093624320 147485 2617327618 1 353 123797 0 92604768 1118709864 16 1207959552 2281783832 0 32 633405440 403177476 67109376 25428066 1 208896 0 0 295226880 0 0 0 0 1048576 0 1355153472 134348804 486622211 266246 0 262144 49152 2164830744 1073742403 1073742112 148517 1048576 32 0 204497040 0 0 868248064 268959872 512 25559042 1 77826 0 0 49684 2148075544 8257 3223322720 42088454 1048576 6 2147483648 38535332 33554440 0 134348800 0 33554432 197632 2583726369 201330880 973111298 62391813 2097152 1892024320 4 16910344 201330754 3137378306 21018245 12 28 131072 0 2147483648 45184 8 1 3305111552 35128 64 606208008 2872150016 33572378 1048708 1 0 134217728 528512 24 65600 19456 2317353024 234881282 1082130496 0 0 33603584 132 1 0 1912930304 14 9 0 134217728 134217728 0 0 16384 2048 512 8650816 16 2048 0 134217728 512 321
is_linear=0
shrinkage=0.05


Tree=30
num_leaves=31
num_cat=27
split_feature=3 3 2 0 1 0 0 1 1 0 0 1 0 5 1 1 5 0 3 0 5 2 0 1 1 1 1 0 0 3
split_gain=2285.5 1407.82 1382.2 994.712 593.919 546.509 511.86 412.44 396.808 306.186 230.473 292.402 208.95 198.379 168.597 157.037 145.132 128.473 124.996 117.59 115.082 113.956 140.48 113.239 100.54 100.504 97.3011 92.0666 87.2598 84.8852
threshold=0 1 2 3 4 5 6 7 8 9 10 11 12 4.5000000000000009 13 14 4.5000000000000009 15 16 17 6.5000000000000009 18 19 20 21 22 23 24 25 26
decision_type=9 9 9 9 9 9 9 9 9 9 9 9 9 10 9 9 10 9 9 9 10 9 9 9 9 9 9 9 9 9
left_child=6 2 5 8 20 7 15 27 -4 16 11 21 -3 17 -11 -1 24 26 -9 -17 -5 -8 -23 -7 -6 -15 -10 -2 -16 -29
right_child=1 12 3 4 9 23 10 18 13 14 -12 -13 -14 25 28 19 -18 -19 -20 -21 -22 22 -24 -25 -26 -27 -28 29 -30 -31
